svm_type epsilon_svr
kernel_type rbf
gamma 0.00833333
nr_class 2
total_sv 1198
rho 6.39142
probA 0.204803
SV
1024 1:-0.532625 2:-0.845444 3:0.062455 4:-0.277568 5:0.138979 6:-0.046603 7:0.508293 8:0.30335 9:0.555768 10:0.528578 11:0.572242 12:0.601679 13:0.0904777 14:0.0345982 15:0.636933 16:0.722282 17:0.134219 18:0.261324 19:-0.416043 20:-0.800518 21:0.0970441 22:-0.503392 23:-0.186246 24:-0.24911 25:0.372966 26:0.418472 27:0.463885 28:0.572614 29:0.473457 30:0.60479 31:-0.237598 32:-0.0356704 33:0.459094 34:0.46758 35:-0.0995906 36:0.0944785 37:-0.488356 38:-0.092726 39:-0.321382 40:-0.744187 41:-0.793468 42:-0.927513 43:-0.070603 44:0.345339 45:0.388068 46:0.10724 47:0.463251 48:0.314378 49:0.519169 50:0.519251 51:0.521742 52:0.508827 53:0.331842 54:0.318865 55:0.599056 56:0.613748 57:0.393145 58:0.67907 59:-0.800079 60:-0.92475 61:-0.183799 62:-0.167376 63:0.119921 64:0.459582 65:0.277495 66:0.696581 67:0.334954 68:0.824795 69:0.362268 70:0.810742 71:0.0405719 72:0.603127 73:0.433733 74:0.896812 75:0.143656 76:0.742406 77:-0.948653 78:-0.883712 79:-0.489423 80:-0.831189 81:-0.73873 82:-0.890617 83:0.116058 84:0.440464 85:0.453925 86:0.372549 87:0.591532 88:0.713983 89:0.647338 90:0.898426 91:0.651071 92:0.888832 93:0.404747 94:0.499171 95:0.749344 96:0.942826 97:0.460987 98:0.706381 99:-0.679841 100:-0.90298 101:0.0476054 102:-0.0522451 103:0.176248 104:0.219761 105:0.448261 106:0.543216 107:0.535794 108:0.78474 109:0.538954 110:0.768305 111:0.0808048 112:0.352096 113:0.639148 114:0.840223 115:0.203598 116:0.503505 117:-0.950911 118:-0.908356 119:-0.74811 120:-0.948244 
-424.5723934151724 1:-0.730535 2:-0.866602 3:-0.0343286 4:-0.309614 5:0.081508 6:-0.0746771 7:0.45461 8:0.266636 9:0.494814 10:0.474524 11:0.510032 12:0.550373 13:0.039637 14:0.0479911 15:0.574623 16:0.644779 17:0.08221 18:0.278746 19:-0.663715 20:-0.844479 21:0.0125978 22:-0.534224 23:-0.238787 24:-0.199288 25:0.324214 26:0.428734 27:0.410695 28:0.58195 29:0.422276 30:0.620033 31:-0.289288 32:0.0332103 33:0.409722 34:0.457037 35:-0.149261 36:0.13865 37:-0.770276 38:-0.731358 39:-0.468447 40:-0.800832 41:-0.820019 42:-0.93983 43:-0.138451 44:0.254237 45:0.319293 46:-0.0517148 47:0.387543 48:0.139485 49:0.443793 50:0.319459 51:0.445818 52:0.307373 53:0.263204 54:0.149694 55:0.514535 56:0.404255 57:0.335543 58:0.524419 59:-0.828943 60:-0.937826 61:-0.258476 62:-0.274157 63:0.0674416 64:0.473149 65:0.215356 66:0.705128 67:0.2662 68:0.79918 69:0.291183 70:0.773913 71:-0.00336025 72:0.622369 73:0.361337 74:0.827246 75:0.0858864 76:0.705954 77:-0.9585 78:-0.901305 79:-0.518408 80:-0.853939 81:-0.8034 82:-0.923084 83:0.0340556 84:0.362675 85:0.431978 86:0.298475 87:0.56744 88:0.699153 89:0.606987 90:0.843575 91:0.609679 92:0.824579 93:0.399339 94:0.524599 95:0.688967 96:0.895361 97:0.464728 98:0.77301 99:-0.768208 100:-0.935106 101:-0.0720799 102:-0.145439 103:0.151193 104:0.28904 105:0.40685 106:0.651126 107:0.4729 108:0.808994 109:0.48128 110:0.795386 111:0.0771082 112:0.456287 113:0.562322 114:0.820112 115:0.192281 116:0.563084 117:-0.969999 118:-0.937144 119:-0.680843 120:-0.922531 
-1024 1:-0.68897 2:-0.796497 3:0.14971 4:-0.241753 5:0.226953 6:0.017406 7:0.587604 8:0.349243 9:0.640017 10:0.562251 11:0.653757 12:0.633396 13:0.177545 14:0.0881696 15:0.711214 16:0.840689 17:0.227464 18:0.296167 19:-0.633031 20:-0.782734 21:0.163108 22:-0.427338 23:-0.0780313 24:-0.193357 25:0.464201 26:0.446978 27:0.563768 28:0.605809 29:0.569317 30:0.664671 31:-0.131661 32:0.0147601 33:0.551577 34:0.600422 35:0.0126425 36:0.166871 37:-0.57018 38:-0.361293 39:-0.393506 40:-0.76535 41:-0.805871 42:-0.934934 43:-0.14286 44:0.137006 45:0.310051 46:-0.103974 47:0.380133 48:0.109442 49:0.444543 50:0.28512 51:0.444366 52:0.277259 53:0.247123 54:0.0929327 55:0.51096 56:0.382433 57:0.329757 58:0.466279 59:-0.807691 60:-0.929278 61:-0.249206 62:-0.304291 63:0.0405832 64:0.405314 65:0.196503 66:0.654915 67:0.256273 68:0.757172 69:0.277122 70:0.740153 71:-0.0377208 72:0.583885 73:0.350103 74:0.783188 75:0.0639779 76:0.673147 77:-0.948512 78:-0.888334 79:-0.550034 80:-0.86206 81:-0.785861 82:-0.917718 83:0.030475 84:0.280792 85:0.381139 86:0.189542 87:0.529086 88:0.646186 89:0.585173 90:0.832402 91:0.585554 92:0.786843 93:0.333512 94:0.378662 95:0.676778 96:0.86192 97:0.40774 98:0.687182 99:-0.742349 100:-0.928526 101:-0.0330659 102:-0.174245 103:0.132383 104:0.17774 105:0.386204 106:0.569408 107:0.479032 108:0.78575 109:0.47947 110:0.742227 111:0.032186 112:0.330539 113:0.570241 114:0.784358 115:0.164082 116:0.482477 117:-0.964875 118:-0.92773 119:-0.732178 120:-0.951678 
1024 1:-0.0742736 2:-0.713314 3:0.614355 4:0.0838831 5:0.858557 6:0.740595 7:0.777217 8:0.317118 9:0.85398 10:0.476296 11:0.857122 12:0.559701 13:0.773826 14:0.65625 15:0.762384 16:0.861141 17:0.814386 18:0.833914 19:-0.123129 20:-0.730745 21:0.383622 22:-0.441727 23:0.720579 24:0.645314 25:0.511182 26:0.553022 27:0.654327 28:0.634855 29:0.663151 30:0.723462 31:0.603497 32:0.606396 33:0.467614 34:0.584607 35:0.580881 36:0.619632 37:-0.52719 38:-0.272057 39:-0.517932 40:-0.848654 41:-0.519795 42:-0.780881 43:0.271405 44:0.208333 45:0.649089 46:0.439303 47:0.549666 48:0.344421 49:0.644789 50:0.570239 51:0.640249 52:0.562825 53:0.553934 54:0.50473 55:0.665775 56:0.692308 57:0.60306 58:0.755814 59:-0.582673 60:-0.800494 61:0.186527 62:-0.255159 63:0.543287 64:0.625777 65:0.404634 66:0.540598 67:0.52198 68:0.645492 69:0.527322 70:0.659335 71:0.416366 72:0.622369 73:0.559968 74:0.696232 75:0.442934 76:0.616039 77:-0.845678 78:-0.764368 79:-0.60327 80:-0.843382 81:-0.443253 82:-0.733342 83:0.383816 84:0.334016 85:0.724063 86:0.648148 87:0.636894 88:0.511653 89:0.733952 90:0.710513 91:0.727277 92:0.72361 93:0.635633 94:0.662797 95:0.75959 96:0.840345 97:0.680356 98:0.826087 99:-0.450048 100:-0.77487 101:0.333282 102:-0.296809 103:0.654457 104:0.696763 105:0.486259 106:0.508643 107:0.638389 108:0.677615 109:0.630548 110:0.681043 111:0.504324 112:0.617964 113:0.626916 114:0.711732 115:0.547607 116:0.63785 117:-0.900532 118:-0.831092 119:-0.818719 120:-0.974234 
751.7948664055644 1:-0.428659 2:-0.719683 3:0.141237 4:-0.103676 5:0.382815 6:0.0679394 7:0.157236 8:-0.295089 9:0.586406 10:0.391227 11:0.588375 12:0.461754 13:-0.0809875 14:-0.229911 15:0.738955 16:0.642626 17:-0.0112468 18:0.0243902 19:-0.281095 20:-0.65393 21:0.317967 22:-0.199178 23:0.434177 24:0.0118624 25:0.0984444 26:-0.197263 27:0.650516 28:0.557054 29:0.642489 30:0.636364 31:-0.131803 32:-0.225092 33:0.689093 34:0.578281 35:-0.00208375 36:0.0110429 37:-0.255387 38:0.0358566 39:-0.650204 40:-0.903464 41:-0.783739 42:-0.924323 43:-0.259747 44:0.108757 45:0.214333 46:-0.010343 47:0.0819435 48:-0.0847639 49:0.35405 50:0.383975 51:0.353393 52:0.381101 53:-0.0603764 54:-0.0951586 55:0.488855 56:0.321331 57:0.102059 58:0.365116 59:-0.713792 60:-0.881857 61:-0.144446 62:-0.12545 63:0.252073 64:0.371396 65:0.037721 66:0.196581 67:0.381099 68:0.688525 69:0.383785 70:0.671611 71:-0.110012 72:0.273602 73:0.547339 74:0.706667 75:0.0333408 76:0.45565 77:-0.884504 78:-0.772717 79:-0.744175 80:-0.964624 81:-0.778452 82:-0.902399 83:-0.180954 84:0.329922 85:0.217464 86:0.174292 87:0.116739 88:0.0455508 89:0.411338 90:0.636364 91:0.413195 92:0.658338 93:-0.0839762 94:0.00608071 95:0.5899 96:0.607335 97:0.0814628 98:0.411632 99:-0.668016 100:-0.880159 101:0.0541823 102:0.0358656 103:0.330453 104:0.210676 105:0.0945295 106:0.0015715 107:0.522874 108:0.654371 109:0.516324 110:0.645938 111:-0.122345 112:0.0502994 113:0.696667 114:0.697207 115:0.0383786 116:0.304907 117:-0.940272 118:-0.886773 119:-0.675768 120:-0.916301 
54.38034822456101 1:-0.236708 2:-0.320682 3:0.525743 4:0.00848256 5:0.660648 6:0.246491 7:0.443254 8:-0.169344 9:0.837638 10:0.483385 11:0.843041 12:0.551306 13:0.252395 14:-0.0680804 15:0.947086 16:0.851453 17:0.317139 18:0.1777 19:-0.159868 20:-0.366022 21:0.535837 22:-0.0783145 23:0.656573 24:0.177936 25:0.343835 26:-0.0307868 27:0.849477 28:0.685685 29:0.845273 30:0.741971 31:0.159363 32:-0.0479705 33:0.831402 34:0.754349 35:0.293477 36:0.185276 37:-0.519502 38:-0.461005 39:-0.692169 40:-0.913481 41:-0.480797 42:-0.780712 43:0.210898 44:0.284605 45:0.601134 46:0.429505 47:0.441234 48:0.248927 49:0.672114 50:0.673257 51:0.673265 52:0.669782 53:0.37384 54:0.372287 55:0.777191 56:0.776323 57:0.454164 58:0.638372 59:-0.436621 60:-0.73564 61:0.158141 62:-0.0540452 63:0.465161 64:0.504805 65:0.241762 66:0.274573 67:0.562782 68:0.723361 69:0.566423 70:0.69821 71:0.132139 72:0.390259 73:0.70526 74:0.786667 75:0.238716 76:0.545565 77:-0.6839 78:-0.444428 79:-0.732803 80:-0.958778 81:-0.460538 82:-0.742791 83:0.336677 84:0.448652 85:0.649526 86:0.674292 87:0.526871 88:0.430085 89:0.750291 90:0.835449 91:0.749512 92:0.862315 93:0.436093 94:0.483693 95:0.874913 96:0.94822 97:0.50747 98:0.684924 99:-0.328258 100:-0.750309 101:0.351532 102:0.1268 103:0.572977 104:0.423055 105:0.347973 106:0.124149 107:0.720392 108:0.741283 109:0.714928 110:0.71013 111:0.192514 112:0.253892 113:0.839938 114:0.87933 115:0.325796 116:0.478972 117:-0.788586 118:-0.526685 119:-0.66185 120:-0.927849 
-1024 1:-0.80585 2:-0.938744 3:-0.219005 4:-0.544769 5:0.123569 6:-0.0735542 7:0.187567 8:-0.238183 9:0.288484 10:0.0660168 11:0.28421 12:0.0886194 13:0.0129529 14:-0.252232 15:0.230051 16:0.073197 17:0.165158 18:0.16144 19:-0.744378 20:-0.942071 21:-0.198445 22:-0.66372 23:0.120267 24:0.241993 25:0.0844419 26:0.161916 27:0.236345 28:0.479253 29:0.241333 30:0.550354 31:-0.010229 32:0.0934809 33:0.134515 34:0.29573 35:0.0234173 36:0.192638 37:-0.635652 38:-0.268422 39:-0.137121 40:-0.652483 41:-0.892217 42:-0.967206 43:-0.43955 44:-0.396186 45:-0.0358284 46:-0.307567 47:-0.014847 48:-0.25 49:0.0906923 50:-0.074922 51:0.0850347 52:-0.0965732 53:-0.137806 54:-0.377852 55:0.0817744 56:-0.182761 57:0.0743035 58:0.0453488 59:-0.887436 60:-0.958531 61:-0.368248 62:-0.484442 63:0.108276 64:0.150933 65:0.0857703 66:0.161325 67:0.152614 68:0.273566 69:0.154091 70:0.239898 71:0.0344241 72:0.159351 73:0.183918 74:0.29971 75:0.0883615 76:0.301337 77:-0.97721 78:-0.94782 79:-0.713902 80:-0.939026 81:-0.908189 82:-0.963518 83:-0.384794 84:-0.352439 85:-0.0253788 86:-0.232026 87:0.00866508 88:-0.186441 89:0.132118 90:0.0269172 91:0.127468 92:0.0045895 93:-0.143663 94:-0.342178 95:0.143325 96:-0.111111 97:0.0705069 98:0.0750988 99:-0.892035 100:-0.964569 101:-0.307924 102:-0.522734 103:0.130992 104:0.211811 105:0.1066 106:0.154531 107:0.221177 108:0.357251 109:0.209283 110:0.334002 111:0.0189058 112:0.150898 113:0.24422 114:0.305028 115:0.0841665 116:0.311916 117:-0.985919 118:-0.959875 119:-0.630513 120:-0.907108 
1024 1:-0.583432 2:-0.742199 3:0.53814 4:-0.0819981 5:0.753368 6:0.591241 7:0.788757 8:0.286829 9:0.858469 10:0.563137 11:0.872337 12:0.64459 13:0.676731 14:0.405134 15:0.816557 16:0.87944 17:0.712567 18:0.58885 19:-0.545222 20:-0.813432 21:0.322218 22:-0.259198 23:0.621322 24:0.485172 25:0.532743 26:0.313569 27:0.72219 28:0.773859 29:0.731188 30:0.839956 31:0.461408 32:0.234932 33:0.572045 34:0.727992 35:0.517948 36:0.358282 37:-0.771697 38:-0.682405 39:-0.34211 40:-0.766946 41:-0.629762 42:-0.839331 43:0.307552 44:0.344633 45:0.713528 46:0.711486 47:0.697328 48:0.689914 49:0.756254 50:0.879292 51:0.761458 52:0.878505 53:0.648249 54:0.683918 55:0.796393 56:0.919258 57:0.688165 58:0.839535 59:-0.674312 60:-0.86727 61:0.12124 62:0.0507697 63:0.553111 64:0.723007 65:0.506924 66:0.619658 67:0.605045 68:0.853484 69:0.615546 70:0.862916 71:0.440832 72:0.574263 73:0.662167 74:0.923478 75:0.481251 76:0.688943 77:-0.89604 78:-0.822736 79:-0.503792 80:-0.783975 81:-0.615982 82:-0.781016 83:0.365263 84:0.365404 85:0.695031 86:0.724401 87:0.701696 88:0.666314 89:0.779763 90:0.889284 91:0.78157 92:0.90515 93:0.622018 94:0.610835 95:0.833043 96:0.963323 97:0.677431 98:0.748165 99:-0.577114 100:-0.824123 101:0.211639 102:-0.0494211 103:0.559854 104:0.642249 105:0.519539 106:0.416448 107:0.665638 108:0.888833 109:0.667875 110:0.85657 111:0.407878 112:0.4 113:0.684791 114:0.909497 115:0.476864 116:0.538551 117:-0.857076 118:-0.683337 119:-0.623192 120:-0.912865 
-726.6223499779189 1:-0.605696 2:-0.901832 3:0.126733 4:-0.187559 5:0.288417 6:-0.112858 7:0.495621 8:0.128958 9:0.575875 10:0.329198 11:0.552866 12:0.284515 13:0.220639 14:0.03125 15:0.515577 16:0.483315 17:0.375173 18:0.465738 19:-0.581468 20:-0.908517 21:0.0243952 22:-0.657965 23:0.239055 24:0.423488 25:0.325823 26:0.519954 27:0.392148 28:0.562241 29:0.399769 30:0.634186 31:0.205278 32:0.430504 33:0.277814 34:0.429626 35:0.228226 36:0.482209 37:-0.727773 38:-0.496168 39:-0.135345 40:-0.629411 41:-0.846231 42:-0.949888 43:-0.271548 44:-0.137712 45:0.0763968 46:-0.27926 47:0.163182 48:-0.0944206 49:0.250903 50:0.0270552 51:0.24509 52:0.00623053 53:-0.00688434 54:-0.190874 55:0.278799 56:0.00381888 57:0.168329 58:0.238372 59:-0.850346 60:-0.944947 61:-0.278114 62:-0.471995 63:0.0593268 64:0.335218 65:0.131931 66:0.446581 67:0.18504 68:0.504098 69:0.179427 70:0.498721 71:0.0026605 72:0.423933 73:0.258414 74:0.497971 75:0.0612352 76:0.530984 77:-0.966941 78:-0.94372 79:-0.775707 80:-0.950058 81:-0.844503 82:-0.916173 83:-0.235936 84:-0.322416 85:-0.0477971 86:-0.382353 87:0.0844357 88:-0.191737 89:0.196336 90:-0.0970036 91:0.192922 92:-0.105558 93:-0.156656 94:-0.332228 95:0.227402 96:-0.144552 97:0.0635574 98:0.0355731 99:-0.826413 100:-0.922831 101:-0.154973 102:-0.629483 103:0.0217559 104:0.0891539 105:0.139344 106:0.212153 107:0.201017 108:0.271349 109:0.191248 110:0.2668 111:-0.0377582 112:0.173653 113:0.254226 114:0.217877 115:0.0501089 116:0.283879 117:-0.955605 118:-0.910423 119:-0.794565 120:-0.969662 
247.6412437999036 1:-0.760538 2:-0.936857 3:-0.122469 4:-0.256362 5:0.175758 6:-0.195957 7:0.370038 8:-0.0279945 9:0.431893 10:0.167922 11:0.433239 12:0.213619 13:0.110222 14:-0.0904018 15:0.39375 16:0.392896 17:0.253169 18:0.457607 19:-0.729382 20:-0.937691 21:-0.100493 22:-0.667009 23:0.133878 24:0.441281 25:0.241317 26:0.532497 27:0.31637 28:0.592324 29:0.312836 30:0.664671 31:0.0954136 32:0.450185 33:0.219334 34:0.409594 35:0.117179 36:0.525153 37:-0.593722 38:-0.168344 39:-0.284499 40:-0.742267 41:-0.867134 42:-0.960399 43:-0.268489 44:0.287429 45:0.240019 46:-0.00598802 47:0.332355 48:0.236052 49:0.384407 50:0.455775 51:0.38512 52:0.444444 53:0.189578 54:0.147468 55:0.429994 56:0.503546 57:0.332322 58:0.716279 59:-0.875135 60:-0.958858 61:-0.286961 62:-0.0789387 63:0.233231 64:0.69022 65:0.284099 66:0.824786 67:0.325892 68:0.862705 69:0.325916 70:0.846547 71:0.184114 72:0.711365 73:0.377679 74:0.817971 75:0.232348 76:0.801944 77:-0.981149 78:-0.961536 79:-0.702035 80:-0.89837 81:-0.880765 82:-0.935956 83:-0.235054 84:0.290345 85:0.195958 86:-0.0522876 87:0.309986 88:0.188559 89:0.390037 90:0.411884 91:0.38967 92:0.408465 93:0.122908 94:0.0613599 95:0.450854 96:0.477886 97:0.283621 98:0.603614 99:-0.8723 100:-0.943066 101:-0.186999 102:-0.311494 103:0.209386 104:0.563884 105:0.284465 106:0.623887 107:0.351183 108:0.756443 109:0.339782 110:0.759278 111:0.145211 112:0.518563 113:0.389018 114:0.692737 115:0.216103 116:0.663551 117:-0.96601 118:-0.922879 119:-0.780518 120:-0.969823 
1024 1:-0.253778 2:-0.74272 3:0.30854 4:-0.0414703 5:0.325179 6:0.0196519 7:0.587724 8:0.161083 9:0.637637 10:0.349579 11:0.642587 12:0.428172 13:0.27938 14:0.0658482 15:0.643785 16:0.620022 17:0.375223 18:0.367015 19:-0.0991333 20:-0.708109 21:0.405195 22:-0.0651593 23:0.282303 24:-0.0332147 25:0.564923 26:0.396807 27:0.65391 28:0.525934 29:0.655513 30:0.635275 31:0.24226 32:0.104551 33:0.560913 34:0.59515 35:0.354274 36:0.33865 37:-0.0811453 38:0.285836 39:-0.655695 40:-0.906316 41:-0.556216 42:-0.794768 43:0.196507 44:0.142655 45:0.493455 46:0.301034 47:0.562731 48:0.464592 49:0.615954 50:0.634755 51:0.617091 52:0.633437 53:0.439712 54:0.325543 55:0.650793 56:0.642117 57:0.527562 58:0.612791 59:-0.500286 60:-0.755823 61:0.18235 62:0.0474943 63:0.38153 64:0.269644 65:0.499937 66:0.553419 67:0.565336 68:0.692623 69:0.582449 70:0.68491 71:0.29874 72:0.339747 73:0.630764 74:0.782029 75:0.405499 76:0.552855 77:-0.744109 78:-0.521729 79:-0.650387 80:-0.929855 81:-0.420465 82:-0.635774 83:0.345805 84:0.203002 85:0.486424 86:0.295207 87:0.623376 88:0.508475 89:0.691361 90:0.65871 91:0.694059 92:0.671596 93:0.425614 94:0.337756 95:0.75554 96:0.717368 97:0.536817 98:0.584416 99:-0.306163 100:-0.645305 101:0.424383 102:0.0477266 103:0.416372 104:0.159568 105:0.642813 106:0.435306 107:0.71004 108:0.616978 109:0.71949 110:0.618857 111:0.340869 112:0.251497 113:0.759654 114:0.77095 115:0.467264 116:0.481308 117:-0.742979 118:-0.574243 119:-0.773205 120:-0.963195 
-1024 1:-0.62965 2:-0.717487 3:0.246935 4:-0.0216777 5:0.358063 6:0.145424 7:0.602807 8:0.25654 9:0.662272 10:0.46389 11:0.66506 12:0.535448 13:0.30314 14:0.178571 15:0.667139 16:0.756728 17:0.402128 18:0.447154 19:-0.557695 20:-0.713599 21:0.341246 22:-0.0729702 23:0.306222 24:0.0332147 25:0.576111 26:0.474344 27:0.674156 28:0.610996 29:0.679534 30:0.724551 31:0.254012 32:0.162362 33:0.575477 34:0.676331 35:0.384851 36:0.384049 37:-0.680976 38:-0.595945 39:-0.475242 40:-0.815583 41:-0.60494 42:-0.818119 43:0.202836 44:0.321328 45:0.554979 46:0.4589 47:0.614342 48:0.618026 49:0.655124 50:0.780437 51:0.653774 52:0.771547 53:0.513418 54:0.518086 55:0.690589 56:0.822149 57:0.577598 58:0.756977 59:-0.559363 60:-0.791146 61:0.144625 62:0.160825 63:0.41658 64:0.357829 65:0.519542 66:0.626068 67:0.578303 68:0.758197 69:0.592481 70:0.774936 71:0.34203 72:0.428743 73:0.641321 74:0.863188 75:0.430567 76:0.624544 77:-0.799958 78:-0.621245 79:-0.681425 80:-0.943087 81:-0.480708 82:-0.65417 83:0.357972 84:0.382463 85:0.547092 86:0.428105 87:0.672993 88:0.634534 89:0.734471 90:0.797867 91:0.735844 92:0.790923 93:0.49322 94:0.489221 95:0.80371 96:0.884574 97:0.587538 98:0.673631 99:-0.376265 100:-0.675406 101:0.400418 102:0.183282 103:0.440146 104:0.212947 105:0.652013 106:0.484547 107:0.721671 108:0.66953 109:0.725869 110:0.658977 111:0.364753 112:0.311377 113:0.767255 114:0.826816 115:0.492445 116:0.517523 117:-0.771533 118:-0.622146 119:-0.795605 120:-0.970148 
-1024 1:-0.556405 2:-0.658803 3:0.285851 4:-0.179076 5:0.339017 6:0.0140371 7:0.559788 8:0.128958 9:0.621341 10:0.310589 11:0.62473 12:0.392724 13:0.279432 14:0.0569196 15:0.621742 16:0.59634 17:0.370534 18:0.376307 19:-0.504775 20:-0.633899 21:0.399357 22:-0.211922 23:0.318307 24:-0.0189798 25:0.559949 26:0.405929 27:0.654068 28:0.521784 29:0.658347 30:0.606968 31:0.269434 32:0.126691 33:0.551959 34:0.61729 35:0.382402 36:0.35092 37:0.240626 38:0.451507 39:-0.789292 40:-0.953891 41:-0.731696 42:-0.893795 43:-0.0206974 44:-0.0748588 45:0.330506 46:0.0157866 47:0.399675 48:0.217811 49:0.45183 50:0.372529 51:0.45697 52:0.392523 53:0.27685 54:0.0728993 55:0.481502 56:0.37916 57:0.371712 58:0.406977 59:-0.706382 60:-0.874415 61:-0.0491714 62:-0.169342 63:0.227487 64:0.201809 65:0.344522 66:0.467949 67:0.403475 68:0.558402 69:0.414892 70:0.588747 71:0.155029 72:0.290439 73:0.459133 74:0.626667 75:0.259485 76:0.465371 77:-0.893648 78:-0.780842 79:-0.626433 80:-0.919521 81:-0.64116 82:-0.793151 83:0.155485 84:0.020812 85:0.362822 86:0.135076 87:0.496499 88:0.396186 89:0.563204 90:0.550025 91:0.568664 92:0.586945 93:0.301532 94:0.21393 95:0.619549 96:0.596548 97:0.423963 98:0.514399 99:-0.570256 100:-0.805816 101:0.221383 102:-0.148263 103:0.309556 104:0.157297 105:0.514064 106:0.417496 107:0.594645 108:0.591713 109:0.593287 110:0.602808 111:0.225302 112:0.250299 113:0.633515 114:0.680447 115:0.366758 116:0.468458 117:-0.874286 118:-0.767031 119:-0.779071 120:-0.966941 
-334.6599475400743 1:-0.598638 2:-0.833053 3:0.428053 4:-0.468426 5:0.442018 6:-0.0308815 7:0.512849 8:-0.208811 9:0.556212 10:-0.0988037 11:0.60839 12:0.0438433 13:0.36946 14:-0.09375 15:0.508602 16:0.0968784 17:0.471118 18:0.173055 19:-0.602191 20:-0.902635 21:0.35213 22:-0.586845 23:0.517156 24:0.243179 25:0.431364 26:0.0718358 27:0.558985 28:0.254149 29:0.557303 30:0.331519 31:0.422725 32:0.151292 33:0.36833 34:0.210332 35:0.465232 36:0.164417 37:-0.859936 38:-0.903687 39:-0.391442 40:-0.761767 41:-0.666573 42:-0.915822 43:0.0754396 44:-0.195621 45:0.254571 46:-0.0843767 47:0.319888 48:-0.0515021 49:0.366058 50:0.074922 51:0.406047 52:0.137072 53:0.189877 54:-0.11074 55:0.410843 56:0.0572831 57:0.321361 58:0.183721 59:-0.600172 60:-0.900046 61:-0.0553404 62:-0.345562 63:0.249158 64:0.235726 65:0.262422 66:0.144231 67:0.348393 68:0.294057 69:0.349797 70:0.351407 71:0.154698 72:0.207456 73:0.395015 74:0.390145 75:0.224834 76:0.239368 77:-0.948794 78:-0.927022 79:-0.813668 80:-0.967713 81:-0.644225 82:-0.830773 83:0.296372 84:-0.321051 85:0.308398 86:-0.189542 87:0.362123 88:-0.169492 89:0.418613 90:-0.116303 91:0.479999 92:-0.0300867 93:0.227817 94:-0.206191 95:0.485947 96:-0.0841424 97:0.374969 98:-0.0321852 99:-0.607781 100:-0.876753 101:0.128731 102:-0.462299 103:0.383236 104:0.032368 105:0.305319 106:-0.113672 107:0.429273 108:0.0742799 109:0.440635 110:0.120361 111:0.250599 112:-0.0682635 113:0.434328 114:0.0648045 115:0.309755 116:0.010514 117:-0.899319 118:-0.769786 119:-0.720465 120:-0.951819 
1024 1:-0.723784 2:-0.778151 3:0.398804 4:-0.394439 5:0.492975 6:0.169006 7:0.550799 8:-0.0573658 9:0.603485 10:0.149313 11:0.647429 12:0.26959 13:0.4156 14:0.0345982 15:0.530766 16:0.304629 17:0.526108 18:0.370499 19:-0.731269 20:-0.866221 21:0.259571 22:-0.584378 23:0.507091 24:0.371293 25:0.398968 26:0.163056 27:0.527068 28:0.374481 29:0.538103 30:0.445836 31:0.404803 32:0.233702 33:0.342234 34:0.286241 35:0.454894 36:0.233129 37:-0.799756 38:-0.747729 39:-0.0115439 40:-0.469866 41:-0.754677 42:-0.95289 43:-0.0816119 44:-0.111582 45:0.182538 46:-0.143168 47:0.221877 48:-0.133047 49:0.263894 50:0.0353798 51:0.290422 52:0.0332295 53:0.128432 54:-0.15192 55:0.291461 56:0.00272777 57:0.23462 58:0.103488 59:-0.682035 60:-0.938592 61:-0.243953 62:-0.337701 63:0.14828 64:0.309214 65:0.158381 66:0.163462 67:0.23704 68:0.356557 69:0.234076 70:0.395396 71:0.0640655 72:0.227901 73:0.279746 74:0.382029 75:0.124641 76:0.285541 77:-0.982275 78:-0.973388 79:-0.962881 80:-0.998871 81:-0.744 82:-0.894308 83:0.169171 84:-0.220061 85:0.279668 86:-0.111111 87:0.321053 88:-0.141949 89:0.383001 90:-0.00863382 91:0.429184 92:-0.00560938 93:0.201151 94:-0.138751 95:0.434133 96:-0.0151025 97:0.338409 98:0.0491248 99:-0.702857 100:-0.916726 101:-0.0391845 102:-0.447049 103:0.324163 104:0.222033 105:0.23855 106:0.0267156 107:0.367968 108:0.295604 109:0.367851 110:0.265797 111:0.192207 112:0.0826347 113:0.371736 114:0.205587 115:0.249432 116:0.176402 117:-0.925174 118:-0.752077 119:-0.514282 120:-0.868832 
57.44765931570072 1:-0.485994 2:-0.752114 3:0.278809 4:-0.438737 5:0.573535 6:0.358787 7:0.556849 8:0.0463515 9:0.600729 10:0.233496 11:0.617727 12:0.318097 13:0.513841 14:0.206473 15:0.488526 16:0.383208 17:0.565085 18:0.563298 19:-0.356934 20:-0.675486 21:0.145268 22:-0.609455 23:0.360464 24:0.467378 25:0.300416 26:0.258837 27:0.451665 28:0.454357 29:0.439571 30:0.548176 31:0.24549 32:0.343173 33:0.181895 34:0.428571 35:0.421291 36:0.693252 37:-0.512778 38:-0.412881 39:-0.730298 40:-0.936592 41:0.232433 42:-0.532215 43:0.369367 44:-0.269774 45:0.536552 46:0.108329 47:0.507316 48:0.056867 49:0.553509 50:0.17898 51:0.55719 52:0.17134 53:0.485034 54:0.015025 55:0.541363 56:0.116203 57:0.539497 58:0.283721 59:0.533552 60:-0.165081 61:0.321093 62:-0.391418 63:0.473867 64:0.326173 65:0.441043 66:0.17094 67:0.554029 68:0.379098 69:0.573413 70:0.373913 71:0.342413 72:0.193025 73:0.506666 74:0.386667 75:0.51318 76:0.567436 77:0.660688 78:0.691465 79:-0.832521 80:-0.982076 81:0.0424372 82:-0.570075 83:0.434969 84:-0.259638 85:0.581584 86:0.184096 87:0.558324 88:0.106992 89:0.609885 90:0.226003 91:0.613433 92:0.227945 93:0.532279 94:0.0790492 95:0.59231 96:0.183387 97:0.590792 98:0.351779 99:0.316422 100:-0.471446 101:0.338568 102:-0.501271 103:0.535821 104:0.402612 105:0.482534 106:0.215296 107:0.594791 108:0.399697 109:0.628722 110:0.416249 111:0.402445 112:0.283832 113:0.50485 114:0.391061 115:0.582677 116:0.647196 117:0.619925 118:1 119:-0.895002 120:-0.991814 
70.45264463763363 1:-0.702522 2:-0.946047 3:-0.478726 4:-0.629595 5:-0.0981981 6:0.0814149 7:-0.145839 8:-0.224415 9:-0.0164455 10:-0.013735 11:0.0263572 12:0.139925 13:-0.273419 14:-0.242188 15:-0.107738 16:-0.0409042 17:-0.0349206 18:0.383275 19:-0.550905 20:-0.877206 21:-0.235695 22:-0.859815 23:-0.0605731 24:0.199288 25:-0.163527 26:-0.151653 27:0.0303924 28:0.0705394 29:0.076185 30:0.274905 31:-0.267174 32:-0.0110701 33:-0.166549 34:0.053242 35:-0.00897818 36:0.66135 37:0.693245 38:0.722806 39:-0.86757 40:-0.973577 41:-0.645583 42:-0.871771 43:-0.480303 44:-0.446328 45:-0.196534 46:-0.0582471 47:-0.239941 48:-0.138412 49:-0.0971201 50:0.0593132 51:-0.0773958 52:0.132918 53:-0.351697 54:-0.309961 55:-0.119571 56:-0.102019 57:-0.114987 58:0.194186 59:-0.402807 60:-0.675205 61:-0.187038 62:-0.538814 63:-0.0900926 64:0.0344828 65:-0.131098 66:-0.112179 67:0.0282228 68:0.104508 69:0.0668219 70:0.187724 71:-0.282208 72:-0.0751654 73:-0.00140449 74:0.143188 75:-0.0166736 76:0.461725 77:-0.639164 78:-0.572195 79:-0.851126 80:-0.985539 81:-0.726959 82:-0.872315 83:-0.42856 84:-0.48277 85:-0.143828 86:-0.0577342 87:-0.193439 88:-0.151483 89:-0.0403349 90:0.015744 91:-0.00532675 92:0.0963794 93:-0.31504 94:-0.282477 95:-0.0669645 96:-0.108954 97:-0.051458 98:0.145116 99:-0.547437 100:-0.785638 101:-0.134736 102:-0.618187 103:0.0275024 104:0.0721181 105:-0.0427114 106:-0.105291 107:0.132079 108:0.0884285 109:0.170806 110:0.215647 111:-0.176005 112:-0.0491018 113:0.0493905 114:0.117318 115:0.102135 116:0.419393 117:-0.804975 118:-0.616176 119:-0.802827 120:-0.975009 
-632.1644898846509 1:-0.54587 2:-0.899455 3:-0.109953 4:-0.328935 5:-0.0453344 6:-0.18922 7:0.244097 8:-0.150987 9:0.34138 10:0.157288 11:0.333204 12:0.196828 13:-0.151662 14:-0.207589 15:0.356295 16:0.220667 17:0.0084321 18:0.0789779 19:-0.356776 20:-0.878941 21:0.0213495 22:-0.587667 23:-0.0398249 24:0.059312 25:0.136489 26:0.0171038 27:0.318554 28:0.39834 29:0.30318 30:0.422972 31:-0.198198 32:0.0479705 33:0.279601 34:0.296784 35:-0.0493195 36:0.0613497 37:-0.22929 38:0.429564 39:-0.565364 40:-0.888252 41:-0.737032 42:-0.901818 43:0.0411246 44:0.294492 45:0.517716 46:0.353293 47:0.495205 48:0.335837 49:0.572244 50:0.595213 51:0.571511 52:0.578401 53:0.439952 54:0.442404 55:0.60471 56:0.669394 57:0.507913 58:0.725581 59:-0.73587 60:-0.897085 61:-0.110763 62:-0.188994 63:0.400482 64:0.664217 65:0.310111 66:0.608974 67:0.466628 68:0.803279 69:0.460779 70:0.802558 71:0.239459 72:0.624775 73:0.540468 74:0.696232 75:0.293054 76:0.680437 77:-0.88155 78:-0.616996 79:-0.322779 80:-0.726334 81:-0.772048 82:-0.884522 83:0.165395 84:0.156602 85:0.5124 86:0.333333 87:0.548192 88:0.363347 89:0.642347 90:0.62519 91:0.634954 92:0.616522 93:0.428943 94:0.404091 95:0.678611 96:0.714132 97:0.523362 98:0.686053 99:-0.795779 100:-0.929075 101:0.022878 102:-0.253883 103:0.399762 104:0.602499 105:0.376355 106:0.521215 107:0.508614 108:0.791814 109:0.510155 110:0.787362 111:0.262189 112:0.565269 113:0.515758 114:0.764246 115:0.362187 116:0.670561 117:-0.966518 118:-0.916594 119:-0.561648 120:-0.867797 
-341.9140074083001 1:-0.571134 2:-0.882166 3:-0.200434 4:-0.382187 5:0.00575897 6:-0.243122 7:-0.00117097 8:-0.40615 9:0.11949 10:-0.145769 11:0.133107 12:-0.134328 13:-0.140215 14:-0.304688 15:0.0749454 16:-0.01507 17:-0.0113095 18:0.0673635 19:-0.380376 20:-0.853193 21:-0.128008 22:-0.644399 23:0.00228177 24:0.153025 25:-0.0241819 26:0.100342 27:0.0846194 28:0.292531 29:0.103134 30:0.363092 31:-0.0926818 32:0.174662 33:0.0036794 34:0.272536 35:-0.0872234 36:0.220859 37:-0.369236 38:0.172851 39:-0.494529 40:-0.861693 41:-0.862823 42:-0.955638 43:-0.355812 44:-0.125 45:0.0493889 46:-0.241154 47:0.0569703 48:-0.162017 49:0.16053 50:0.024974 51:0.17353 52:0.0280374 53:-0.0596771 54:-0.215359 55:0.189216 56:-0.00163666 57:0.109633 58:0.256977 59:-0.848752 60:-0.941949 61:-0.314697 62:-0.381592 63:0.104748 64:0.39853 65:0.0721287 66:0.402778 67:0.18273 68:0.545082 69:0.186108 70:0.608184 71:-0.014627 72:0.464823 73:0.250847 74:0.58029 75:0.0454204 76:0.575942 77:-0.973271 78:-0.955945 79:-0.905574 80:-0.991668 81:-0.84422 82:-0.904749 83:-0.32583 84:0.00989423 85:-0.0263866 86:-0.234205 87:-0.0174038 88:-0.184322 89:0.108379 90:0.00863382 91:0.134117 92:0.0311066 93:-0.16297 94:-0.242676 95:0.150956 96:0.0204962 97:0.03992 98:0.176736 99:-0.76835 100:-0.876299 101:-0.221215 102:-0.385484 103:0.0955285 104:0.224304 105:0.0296849 106:0.259298 107:0.165616 108:0.460334 109:0.177369 110:0.484453 111:-0.050035 112:0.277844 113:0.230531 114:0.530726 115:0.0231428 116:0.403037 117:-0.925174 118:-0.856206 119:-0.801235 120:-0.972658 
966.2302987841622 1:-0.761871 2:-0.941376 3:0.0316828 4:-0.207352 5:0.347519 6:0.146547 7:0.584551 8:0.449289 9:0.572508 10:0.568454 11:0.5744 12:0.629664 13:0.364067 14:0.332589 15:0.556768 16:0.77395 17:0.39881 18:0.599303 19:-0.704006 20:-0.944158 21:-0.110008 22:-0.591367 23:-0.0259552 24:0.19573 25:0.292817 26:0.612315 27:0.317238 28:0.65249 29:0.323876 30:0.718019 31:-0.00508122 32:0.341943 33:0.238667 34:0.484449 35:0.0585943 36:0.396319 37:-0.463446 38:0.131686 39:-0.435841 40:-0.837512 41:-0.89923 42:-0.969767 43:-0.202727 44:0.305791 45:0.456551 46:0.0745781 47:0.434399 48:0.0944206 49:0.45537 50:0.279917 51:0.459218 52:0.282451 53:0.42896 54:0.262104 55:0.463224 56:0.445717 57:0.463231 58:0.639535 59:-0.94942 60:-0.983603 61:-0.506155 62:-0.130036 63:0.178884 64:0.857547 65:0.129003 66:0.903846 67:0.156326 68:0.947746 69:0.150739 70:0.903836 71:0.146438 72:0.803969 73:0.171385 74:0.846957 75:0.138773 76:0.835966 77:-0.995217 78:-0.990011 79:-0.928204 80:-0.990619 81:-0.923524 82:-0.971474 83:-0.143768 84:0.252815 85:0.462012 86:0.12854 87:0.456343 88:0.173729 89:0.48814 90:0.347892 91:0.484259 92:0.352371 93:0.435374 94:0.309011 95:0.490413 96:0.501618 97:0.478051 98:0.663467 99:-0.957913 100:-0.988153 101:-0.452729 102:-0.256142 103:0.209613 104:0.847814 105:0.199302 106:0.838659 107:0.218091 108:0.930268 109:0.21677 110:0.892678 111:0.187256 112:0.783234 113:0.212181 114:0.808939 115:0.182226 116:0.759346 117:-0.996949 118:-0.992595 119:-0.781268 120:-0.943344 
-43.69601698616199 1:-0.5555 2:-0.914344 3:0.20656 4:-0.159284 5:0.462525 6:0.325098 7:0.67698 8:0.437357 9:0.673087 10:0.555162 11:0.679497 12:0.613806 13:0.468901 14:0.439732 15:0.652789 16:0.840689 17:0.508988 18:0.645761 19:-0.480315 20:-0.910745 21:0.0512821 22:-0.536691 23:0.0914798 24:0.215896 25:0.399666 26:0.5439 27:0.436295 28:0.579876 29:0.442402 30:0.64834 31:0.102194 32:0.348093 33:0.351803 34:0.486558 35:0.183669 36:0.408589 37:-0.354327 38:0.256461 39:-0.523175 40:-0.872953 41:-0.858121 42:-0.953119 43:-0.0616606 44:0.166667 45:0.566683 46:0.269461 47:0.548422 48:0.291845 49:0.569868 50:0.469303 51:0.570416 52:0.46729 53:0.53906 54:0.423484 55:0.574241 56:0.59629 57:0.57065 58:0.751163 59:-0.919163 60:-0.972651 61:-0.352332 62:-0.173272 63:0.282857 64:0.810062 65:0.248761 66:0.827991 67:0.275288 68:0.892418 69:0.272364 70:0.856777 71:0.248984 72:0.733013 73:0.287069 74:0.852754 75:0.247036 76:0.791009 77:-0.988746 78:-0.977115 79:-0.823893 80:-0.965134 81:-0.888041 82:-0.953398 83:0.00240034 84:0.222791 85:0.562701 86:0.330065 87:0.558452 88:0.368644 89:0.592404 90:0.537836 91:0.588143 92:0.529832 93:0.533828 94:0.477059 95:0.60157 96:0.6548 97:0.568691 98:0.747036 99:-0.925536 100:-0.978004 101:-0.293124 102:-0.242587 103:0.327847 104:0.820557 105:0.319129 106:0.819801 107:0.347181 108:0.90096 109:0.34022 110:0.899699 111:0.298291 112:0.755689 113:0.332911 114:0.820112 115:0.299596 116:0.740654 117:-0.991825 118:-0.980024 119:-0.716272 120:-0.939747 
-1024 1:-0.81584 2:-0.948142 3:-0.419478 4:-0.520264 5:-0.0714707 6:0.01516 7:0.0660706 8:-0.0114732 9:0.0500488 10:0.148427 11:0.0687948 12:0.169776 13:-0.0759233 14:-0.174107 15:-0.0421313 16:0.0785791 17:0.021418 18:0.176539 19:-0.724985 20:-0.93413 21:-0.467457 22:-0.784584 23:-0.306597 24:0.0581257 25:-0.264299 26:0.108324 27:-0.21182 28:0.236515 29:-0.238506 30:0.255308 31:-0.324689 32:-0.0135301 33:-0.374234 34:-0.0131787 35:-0.323333 36:0.0674847 37:-0.65825 38:-0.256159 39:-0.0357995 40:-0.580612 41:-0.818527 42:-0.946216 43:-0.43485 44:-0.310028 45:-0.178291 46:-0.42515 47:-0.157857 48:-0.388412 49:-0.0761271 50:-0.240375 51:-0.0801483 52:-0.254413 53:-0.256856 54:-0.435726 55:-0.0763398 56:-0.276596 57:-0.128326 58:-0.133721 59:-0.757689 60:-0.910334 61:-0.459087 62:-0.626597 63:-0.169112 64:0.111362 65:-0.180181 66:0.121795 67:-0.112468 68:0.292008 69:-0.120558 70:0.268542 71:-0.237718 72:0.0992183 73:-0.0794013 74:0.227826 75:-0.205414 76:0.256379 77:-0.886896 78:-0.747372 79:-0.676279 80:-0.93754 81:-0.825333 82:-0.945666 83:-0.308162 84:-0.134766 85:0.0461518 86:-0.272331 87:0.074986 88:-0.213983 89:0.154712 90:-0.0177755 91:0.140454 92:-0.054564 93:-0.0206203 94:-0.263682 95:0.153106 96:-0.0248112 97:0.0930748 98:0.10559 99:-0.759177 100:-0.939597 101:-0.386176 102:-0.617622 103:-0.0148691 104:0.33674 105:-0.0174733 106:0.314825 107:0.0391783 108:0.543204 109:0.0257712 110:0.50652 111:-0.0667957 112:0.258683 113:0.0229224 114:0.422346 115:-0.0450529 116:0.385514 117:-0.941133 118:-0.827017 119:-0.686442 120:-0.943838 
142.1939758530099 1:-0.909548 2:-0.904718 3:-0.380067 4:-0.499057 5:-0.0166481 6:0.0758001 7:0.115396 8:-0.0105553 9:0.134541 10:0.206912 11:0.127446 12:0.271455 13:-0.0425938 14:-0.126116 15:0.057572 16:0.181916 17:0.0401954 18:0.245064 19:-0.871859 20:-0.905247 21:-0.453256 22:-0.746351 23:-0.235056 24:0.118624 25:-0.202918 26:0.156214 27:-0.142024 28:0.276971 29:-0.168772 30:0.334785 31:-0.260341 32:0.0615006 33:-0.310649 34:0.115445 35:-0.256541 36:0.115337 37:-0.691453 38:-0.464716 39:-0.150074 40:-0.613606 41:-0.855764 42:-0.956699 43:-0.424962 44:-0.336158 45:-0.164578 46:-0.431682 47:-0.125453 48:-0.390558 49:-0.0515433 50:-0.241415 51:-0.0622115 52:-0.258567 53:-0.231659 54:-0.451308 55:-0.0430029 56:-0.298418 57:-0.125327 58:-0.160465 59:-0.814793 60:-0.93217 61:-0.474077 62:-0.585981 63:-0.167575 64:0.0491803 65:-0.165042 66:0.102564 67:-0.112172 68:0.216189 69:-0.1176 70:0.235806 71:-0.2225 72:0.0511124 73:-0.0818444 74:0.167536 75:-0.208683 76:0.198056 77:-0.932897 78:-0.845844 79:-0.654621 80:-0.929976 81:-0.874955 82:-0.961815 83:-0.331131 84:-0.204367 85:-0.00414931 86:-0.281046 87:0.0286863 88:-0.242585 89:0.121464 90:-0.0360589 91:0.100108 92:-0.0739419 93:-0.0809318 94:-0.29906 95:0.12137 96:-0.0830636 97:0.0435233 98:0.0592885 99:-0.834838 100:-0.960574 101:-0.427712 102:-0.596724 103:-0.0473419 104:0.307212 105:-0.0585013 106:0.284442 107:0.00265621 108:0.484588 109:-0.0155631 110:0.486459 111:-0.10121 112:0.22515 113:-0.0237207 114:0.426816 115:-0.0709853 116:0.359813 117:-0.960025 118:-0.809451 119:-0.162551 120:-0.644503 
-443.3794901069128 1:-0.361231 2:-0.720646 3:0.4263 4:-0.422243 5:0.495424 6:-0.0196519 7:0.589366 8:0.0977513 9:0.583591 10:0.0686752 11:0.616332 12:0.279851 13:0.481208 14:-0.0200893 15:0.488677 16:0.202368 17:0.526028 18:0.271777 19:-0.375805 20:-0.752105 21:0.448186 22:-0.508325 23:0.514921 24:0.177936 25:0.551699 26:0.391106 27:0.576929 28:0.341286 29:0.585302 30:0.418617 31:0.52255 32:0.312423 33:0.38493 34:0.422246 35:0.517818 36:0.341104 37:-0.372736 38:-0.0423858 39:-0.416244 40:-0.79023 41:-0.598164 42:-0.793745 43:0.288732 44:-0.216102 45:0.552885 46:0.0821992 47:0.540594 48:0.158798 49:0.578355 50:0.193548 51:0.578854 52:0.238837 53:0.510876 54:0.0762382 55:0.55648 56:0.196945 57:0.578705 58:0.330233 59:-0.70397 60:-0.853088 61:0.210609 62:-0.327874 63:0.500606 64:0.330695 65:0.510795 66:0.415598 67:0.533409 68:0.371926 69:0.536429 70:0.412788 71:0.465969 72:0.387853 73:0.527978 74:0.517681 75:0.499776 76:0.498177 77:-0.914609 78:-0.891092 79:-0.836237 80:-0.975368 81:-0.451776 82:-0.69763 83:0.351073 84:-0.351757 85:0.484297 86:-0.0675381 87:0.528828 88:0.108051 89:0.561585 90:0.0665312 91:0.58361 92:0.168791 93:0.446068 94:-0.0702045 95:0.561838 96:0.0409924 97:0.525865 98:0.118012 99:-0.459809 100:-0.760827 101:0.400671 102:-0.452697 103:0.505572 104:0.0550823 105:0.560965 106:0.314825 107:0.593024 108:0.257201 109:0.604137 110:0.373119 111:0.462945 112:0.131737 113:0.553174 114:0.327374 115:0.533475 116:0.296729 117:-0.857584 118:-0.788011 119:-0.800252 120:-0.961332 
-1024 1:-0.644455 2:-0.751305 3:0.333512 4:-0.408577 5:0.494314 6:0.151039 7:0.600011 8:0.285911 9:0.593845 10:0.379708 11:0.59349 12:0.407649 13:0.496679 14:0.270089 15:0.521813 16:0.669537 17:0.516131 18:0.550523 19:-0.678732 20:-0.759315 21:0.3567 22:-0.571634 23:0.484436 24:0.213523 25:0.485427 26:0.263398 27:0.50553 28:0.253112 29:0.507864 30:0.326075 31:0.496388 32:0.333333 33:0.310435 34:0.327359 35:0.466044 36:0.373006 37:-0.133118 38:0.0386103 39:-0.675931 40:-0.907101 41:-0.788895 42:-0.91973 43:-0.00470573 44:-0.411723 45:0.345202 46:-0.162765 47:0.333546 48:-0.120172 49:0.386099 50:-0.0353798 51:0.380933 52:-0.0155763 53:0.294109 54:-0.15192 55:0.349249 56:-0.0158211 57:0.389929 58:0.126744 59:-0.85858 60:-0.945541 61:-0.139791 62:-0.502129 63:0.285883 64:0.20294 65:0.277604 66:0.266026 67:0.307665 68:0.268443 69:0.303283 70:0.285934 71:0.249555 72:0.251954 73:0.294349 74:0.375072 75:0.279902 76:0.358445 77:-0.973975 78:-0.954976 79:-0.86245 80:-0.981654 81:-0.702529 82:-0.83783 83:0.165521 84:-0.370863 85:0.380229 86:-0.0675381 87:0.407047 88:0.00317797 89:0.455826 90:0.07161 91:0.468713 92:0.118817 93:0.330873 94:-0.0591487 95:0.445185 96:0.0949299 97:0.431159 98:0.226426 99:-0.72266 100:-0.892562 101:0.191296 102:-0.51991 103:0.417405 104:0.191369 105:0.44524 106:0.229963 107:0.482413 108:0.265285 109:0.482522 110:0.293882 111:0.375451 112:0.249102 113:0.440134 114:0.359777 115:0.431213 116:0.336449 117:-0.951029 118:-0.92397 119:-0.872765 120:-0.984893 
-1024 1:-0.472178 2:-0.638854 3:0.501141 4:-0.298303 5:0.617239 6:0.212802 7:0.69685 8:0.148233 9:0.712649 10:0.190961 11:0.725236 12:0.284515 13:0.592708 14:0.237723 15:0.621648 16:0.426265 17:0.658079 18:0.471545 19:-0.489239 20:-0.74962 21:0.505519 22:-0.473381 23:0.630313 24:0.341637 25:0.633702 26:0.440137 27:0.679817 28:0.395228 29:0.685859 30:0.461078 31:0.618034 32:0.428044 33:0.474429 34:0.437006 35:0.631959 36:0.458896 37:-0.821092 38:-0.861435 39:-0.54868 40:-0.832692 41:-0.392768 42:-0.625975 43:0.470222 44:-0.0805085 45:0.660705 46:0.209581 47:0.64303 48:0.228541 49:0.679256 50:0.26743 51:0.676884 52:0.263759 53:0.620054 54:0.22315 55:0.669741 56:0.297327 57:0.676748 58:0.433721 59:-0.523674 60:-0.718594 61:0.403296 62:-0.256469 63:0.595948 64:0.387224 65:0.596715 66:0.393162 67:0.607718 68:0.370902 69:0.615582 70:0.358568 71:0.568855 72:0.444378 73:0.604678 74:0.513043 75:0.582848 76:0.507898 77:-0.805444 78:-0.786284 79:-0.748442 80:-0.93236 81:-0.250418 82:-0.530388 83:0.510725 84:-0.157284 85:0.615023 86:0.164488 87:0.651748 88:0.28072 89:0.687601 90:0.264601 91:0.702861 92:0.324834 93:0.576434 94:0.160862 95:0.692295 96:0.279396 97:0.664898 98:0.378882 99:-0.260015 100:-0.632184 101:0.536454 102:-0.379836 103:0.617555 104:0.250426 105:0.651909 106:0.299109 107:0.687125 108:0.278423 109:0.687542 110:0.310933 111:0.575734 112:0.342515 113:0.648492 114:0.381006 115:0.630941 116:0.389019 117:-0.777009 118:-0.691259 119:-0.737358 120:-0.935064 
-224.0992058318131 1:-0.703074 2:-0.939269 3:-0.195428 4:-0.6164 5:-0.0289919 6:-0.284672 7:0.14358 8:-0.319872 9:0.14186 10:-0.24856 11:0.144323 12:-0.196828 13:-0.0364188 14:-0.320313 15:0.0295172 16:-0.18084 17:0.123946 18:0.0313589 19:-0.622804 20:-0.932664 21:-0.100305 22:-0.744707 23:0.0861071 24:0.0427046 25:0.156498 26:0.123147 27:0.154336 28:0.106846 29:0.158085 30:0.150789 31:0.118676 32:0.104551 33:-0.0496131 34:0.071165 35:0.140604 36:0.257669 37:-1 38:-1 39:-0.504986 40:-0.849993 41:-0.739033 42:-0.914 43:-0.361285 44:-0.31709 45:-0.1652 46:-0.303212 47:-0.0361192 48:-0.16309 49:0.0205408 50:-0.057232 51:0.0153156 52:-0.0623053 53:-0.216915 54:-0.378965 55:0.00727518 56:-0.207856 57:-0.00486307 58:0.0593023 59:-0.648747 60:-0.853025 61:-0.202196 62:-0.489682 63:0.0553521 64:0.0774449 65:0.141533 66:0.223291 67:0.153673 68:0.233607 69:0.164959 70:0.226598 71:0.0319625 72:0.193025 73:0.164792 74:0.292754 75:0.126626 76:0.36695 77:-0.799254 78:-0.54126 79:-0.568149 80:-0.877567 81:-0.845699 82:-0.946085 83:-0.363516 84:-0.228932 85:-0.100974 86:-0.214597 87:-0.00356631 88:-0.0879237 89:0.0673573 90:0.0512951 91:0.0621583 92:0.0657828 93:-0.164319 94:-0.322278 95:0.0316755 96:-0.100324 97:0.0624386 98:0.215133 99:-0.789585 100:-0.938409 101:-0.268122 102:-0.47416 103:0.110657 104:0.317433 105:0.17271 106:0.373494 107:0.198294 108:0.437089 109:0.185904 110:0.432297 111:0.0889671 112:0.403593 113:0.172387 114:0.468156 115:0.164122 116:0.537383 117:-0.942971 118:-0.799635 119:-0.518882 120:-0.873755 
20.84091513903941 1:0.0772616 2:0.483251 3:0.817993 4:0.151744 5:0.825394 6:0.576642 7:0.945115 8:0.516292 9:0.971937 10:0.540097 11:0.971997 12:0.58209 13:0.802231 14:0.677455 15:0.886926 16:0.89451 17:0.893428 18:0.851336 19:-0.045093 20:0.185889 21:0.846728 22:-0.0404933 23:0.827348 24:0.519573 25:0.911726 26:0.769669 27:0.982594 28:0.711618 29:0.975333 30:0.761568 31:0.807261 32:0.692497 33:0.772687 34:0.797575 35:0.884722 36:0.759509 37:-0.578367 38:-0.598042 39:-0.565437 40:-0.818718 41:-0.530402 42:-0.699681 43:0.43333 44:0.127825 45:0.715735 46:0.487207 47:0.710995 48:0.61588 49:0.7568 50:0.655567 51:0.744922 52:0.613707 53:0.67057 54:0.537006 55:0.746139 56:0.65521 57:0.730942 58:0.72093 59:-0.655317 60:-0.796145 61:0.379733 62:0.00622339 63:0.635597 64:0.516111 65:0.664288 66:0.651709 67:0.694714 68:0.658811 69:0.707983 70:0.614322 71:0.587467 72:0.607937 73:0.70326 74:0.753043 75:0.649148 76:0.697448 77:-0.889428 78:-0.883861 79:-0.898367 80:-0.991359 81:-0.40269 82:-0.52944 83:0.493903 84:0.317639 85:0.621743 86:0.437908 87:0.733201 88:0.658898 89:0.784494 90:0.690198 91:0.779403 92:0.677715 93:0.580487 94:0.509121 95:0.821141 96:0.756203 97:0.700884 98:0.736872 99:-0.357267 100:-0.656276 101:0.615494 102:0.085569 103:0.636991 104:0.396934 105:0.783289 106:0.601886 107:0.822553 108:0.635169 109:0.81633 110:0.599799 111:0.5965 112:0.565269 113:0.797682 114:0.776536 115:0.717131 116:0.64486 117:-0.877376 118:-0.843807 119:-0.855306 120:-0.980128 
-1024 1:-0.56824 2:-0.857076 3:0.327529 4:-0.310085 5:0.550157 6:0.253229 7:0.655414 8:0.25654 9:0.654876 10:0.346921 11:0.649665 12:0.396455 13:0.550158 14:0.383929 15:0.568879 16:0.640474 17:0.593065 18:0.713124 19:-0.605387 20:-0.873977 21:0.355814 22:-0.456937 23:0.521849 24:0.366548 25:0.59422 26:0.572406 27:0.629285 28:0.559129 29:0.635698 30:0.606968 31:0.524072 32:0.552276 33:0.440757 34:0.594096 35:0.56384 36:0.667485 37:-0.0876882 38:0.019367 39:-0.687835 40:-0.903354 41:-0.75339 42:-0.901055 43:0.0944495 44:-0.252825 45:0.510087 46:0.0549809 47:0.481145 48:0.100858 49:0.524119 50:0.225806 51:0.519913 52:0.213915 53:0.465392 54:0.130774 55:0.492601 56:0.289689 57:0.541168 58:0.486047 59:-0.852733 60:-0.942317 61:-0.0731287 62:-0.441205 63:0.381383 64:0.5342 65:0.351913 66:0.553419 67:0.360424 68:0.552254 69:0.371694 70:0.541688 71:0.356839 72:0.556224 73:0.351564 74:0.617391 75:0.371958 76:0.590522 77:-0.9668 78:-0.946701 79:-0.878657 80:-0.987775 81:-0.781386 82:-0.881511 83:0.119301 84:-0.125896 85:0.430455 86:0.1122 87:0.486559 88:0.246822 89:0.523894 90:0.346877 91:0.521181 92:0.344212 93:0.400107 94:0.181868 95:0.533939 96:0.399137 97:0.489104 98:0.514399 99:-0.799045 100:-0.924357 101:0.128196 102:-0.354984 103:0.396768 104:0.393526 105:0.489831 106:0.512834 107:0.507775 108:0.544214 109:0.502881 110:0.563691 111:0.377348 112:0.501796 113:0.486824 114:0.650279 115:0.445377 116:0.584112 117:-0.977314 118:-0.962401 119:-0.904354 120:-0.989212 
1024 1:-0.179654 2:-0.44356 3:0.660527 4:0.151744 5:0.718832 6:0.451993 7:0.85405 8:0.472235 9:0.870917 10:0.493132 11:0.866834 12:0.530784 13:0.706904 14:0.589286 15:0.793886 16:0.847147 17:0.778614 18:0.790941 19:-0.21982 20:-0.518439 21:0.698246 22:-0.0906475 23:0.698949 24:0.423488 25:0.806926 26:0.664766 27:0.868347 28:0.628631 29:0.866297 30:0.687534 31:0.685512 32:0.611316 33:0.675185 34:0.72272 35:0.763653 36:0.693252 37:-0.456479 38:-0.323979 39:-0.383168 40:-0.725054 41:-0.615724 42:-0.788944 43:0.39475 44:0.216102 45:0.742051 46:0.598258 47:0.717566 48:0.669528 49:0.753146 50:0.725286 51:0.747674 52:0.705088 53:0.702202 54:0.687257 55:0.740724 56:0.775232 57:0.750167 58:0.853488 59:-0.738553 60:-0.871673 61:0.262763 62:0.0167049 63:0.62039 64:0.637083 65:0.615117 66:0.758547 67:0.643222 68:0.760246 69:0.657714 70:0.710486 71:0.573616 72:0.702946 73:0.649419 74:0.843478 75:0.611105 76:0.786148 77:-0.935148 78:-0.924562 79:-0.907016 80:-0.990676 81:-0.621633 82:-0.753746 83:0.34799 84:0.233709 85:0.601271 86:0.478214 87:0.68742 88:0.664195 89:0.735749 90:0.707466 91:0.732152 92:0.697093 93:0.561385 94:0.567717 95:0.769073 96:0.77562 97:0.665439 98:0.779785 99:-0.600109 100:-0.825873 101:0.419522 102:0.0048009 103:0.570753 104:0.421919 105:0.699364 106:0.656365 107:0.737495 108:0.679636 109:0.732762 110:0.658977 111:0.530765 112:0.547305 113:0.716329 114:0.808939 115:0.635002 116:0.641355 117:-0.944888 118:-0.923453 119:-0.885723 120:-0.98591 
258.2827501472033 1:-0.344441 2:-0.859569 3:0.152027 4:-0.432611 5:0.213401 6:-0.13644 7:0.435553 8:0.00321248 9:0.403444 10:0.0509526 11:0.412555 12:0.198694 13:0.242177 14:-0.0245536 15:0.322023 16:0.294941 17:0.335381 18:0.433217 19:-0.305217 20:-0.851756 21:0.205516 22:-0.572867 23:0.214769 24:0.174377 25:0.376447 26:0.434436 27:0.388933 28:0.425311 29:0.373128 30:0.529668 31:0.252519 32:0.350554 33:0.190281 34:0.468635 35:0.327638 36:0.488344 37:-0.313881 38:0.131234 39:-0.583745 40:-0.888029 41:-0.913359 42:-0.97567 43:-0.356322 44:0.526836 45:-0.196401 46:-0.430593 47:-0.179891 48:-0.383047 49:-0.168601 50:-0.297607 51:-0.163585 52:-0.278297 53:-0.208676 54:-0.392321 55:-0.16547 56:-0.274414 57:-0.15117 58:-0.10814 59:-0.9469 60:-0.983242 61:-0.561125 62:-0.499509 63:-0.0491787 64:0.459582 65:-0.0704846 66:0.495726 67:-0.07671 68:0.48668 69:-0.0823576 70:0.46087 71:-0.0470966 72:0.485268 73:-0.0754584 74:0.486377 75:-0.0583459 76:0.504253 77:-0.992685 78:-0.980544 79:-0.85544 80:-0.981684 81:-0.840591 82:-0.922648 83:-0.195737 84:-0.533265 85:-0.0501077 86:-0.472767 87:0.0199419 88:-0.409958 89:0.0451308 90:-0.377349 91:0.0445373 92:-0.348292 93:-0.0688516 94:-0.44942 95:0.0415775 96:-0.354908 97:0.0131134 98:-0.254658 99:-0.827653 100:-0.931883 101:-0.169117 102:-0.678057 103:-0.000788086 104:-0.203861 105:0.0521412 106:-0.196438 107:0.0713472 108:-0.155129 109:0.0559162 110:-0.151454 111:-0.0140181 112:-0.149701 113:0.0435148 114:-0.111732 115:0.0390712 116:-0.0490654 117:-0.951498 118:-0.883271 119:-0.758891 120:-0.962959 
1024 1:0.00257113 2:-0.709772 3:0.535033 4:0.118285 5:0.583743 6:0.304885 7:0.763149 8:0.307022 9:0.744578 10:0.33097 11:0.743651 12:0.432836 13:0.605667 14:0.477679 15:0.659471 16:0.758881 17:0.682991 18:0.722416 19:0.0402658 20:-0.712746 21:0.531861 22:-0.0499486 23:0.526705 24:0.297746 25:0.692459 26:0.59293 27:0.724075 28:0.552905 29:0.710315 30:0.647251 31:0.550479 32:0.574416 33:0.510375 34:0.684765 35:0.664706 36:0.655215 37:-0.33597 38:-0.00374862 39:-0.600254 40:-0.890536 41:-0.699097 42:-0.887693 43:-0.0379399 44:-0.236582 45:0.157398 46:-0.258574 47:0.218348 48:-0.17382 49:0.238692 50:-0.0967742 51:0.237047 52:-0.0695742 53:0.138507 54:-0.184196 55:0.224405 56:-0.0278232 57:0.230173 58:0.139535 59:-0.730577 60:-0.890093 61:-0.0925551 62:-0.527023 63:0.178118 64:0.271905 65:0.21234 66:0.305556 67:0.222349 68:0.342213 69:0.214685 70:0.345269 71:0.164327 72:0.351774 73:0.22248 74:0.449275 75:0.192594 76:0.436209 77:-0.873954 78:-0.797242 79:-0.791306 80:-0.965461 81:-0.577878 82:-0.703304 83:0.230532 84:-0.0153531 85:0.382325 86:0.122004 87:0.525077 88:0.424788 89:0.531327 90:0.47486 91:0.523722 92:0.524732 93:0.387362 94:0.296849 95:0.547349 96:0.609493 97:0.477662 98:0.665726 99:-0.588786 100:-0.737487 101:0.30792 102:-0.291161 103:0.387463 104:0.341283 105:0.539446 106:0.518072 107:0.552985 108:0.559373 109:0.5318 110:0.557673 111:0.38199 112:0.507784 113:0.507547 114:0.689385 115:0.494141 116:0.617991 117:-0.83306 118:-0.724151 119:-0.793262 120:-0.963811 
977.5014204302303 1:-0.166121 2:-0.0893024 3:0.607761 4:0.104147 5:0.449729 6:0.134194 7:0.81681 8:0.3676 9:0.850025 10:0.457687 11:0.865873 12:0.54291 13:0.427885 14:0.280134 15:0.860136 16:0.86437 17:0.596094 18:0.550523 19:-0.127794 20:-0.239398 21:0.643899 22:0.0380267 23:0.516758 24:0.245552 25:0.777801 26:0.614595 27:0.882473 28:0.675311 29:0.882594 30:0.727817 31:0.466321 32:0.456335 33:0.739264 34:0.767001 35:0.667577 36:0.651534 37:-0.53263 38:-0.473956 39:-0.602846 40:-0.864324 41:-0.559232 42:-0.798621 43:0.262306 44:0.305791 45:0.475444 46:0.33914 47:0.645551 48:0.597639 49:0.689459 50:0.763788 51:0.674708 52:0.742471 53:0.441899 54:0.461324 55:0.742167 56:0.810147 57:0.556217 58:0.743023 59:-0.599126 60:-0.806788 61:0.246525 62:0.0835244 63:0.363962 64:0.362352 65:0.558284 66:0.561966 67:0.61253 68:0.697746 69:0.597707 70:0.715601 71:0.309802 72:0.474444 73:0.667721 74:0.845797 75:0.439157 76:0.670717 77:-0.861011 78:-0.744912 79:-0.501847 80:-0.829217 81:-0.559802 82:-0.719089 83:0.334416 84:0.407711 85:0.427446 86:0.369281 87:0.683465 88:0.747881 89:0.720389 90:0.80904 91:0.712281 92:0.795003 93:0.407097 94:0.504699 95:0.804687 96:0.892125 97:0.545311 98:0.725579 99:-0.526887 100:-0.76731 101:0.415691 102:0.149393 103:0.407282 104:0.28109 105:0.654148 106:0.515977 107:0.718173 108:0.679636 109:0.69468 110:0.667001 111:0.353029 112:0.411976 113:0.744186 114:0.818994 115:0.510156 116:0.610981 117:-0.883595 118:-0.722831 119:-0.40738 120:-0.794891 
1024 1:-0.695552 2:-0.926904 3:-0.0705448 4:-0.474081 5:-0.0531144 6:-0.180236 7:0.335695 8:-0.0665443 9:0.340507 10:-0.0013292 11:0.371333 12:0.138993 13:-0.0685611 14:-0.174107 15:0.371245 16:0.123789 17:0.101616 18:0.148664 19:-0.65347 20:-0.908832 21:0.112137 22:-0.473381 23:0.017571 24:-0.0510083 25:0.371013 26:0.2748 27:0.431023 28:0.299793 29:0.438019 30:0.445836 31:0.0024182 32:0.0787208 33:0.327452 34:0.277807 35:0.170077 36:0.277301 37:-0.199268 38:0.213403 39:-0.623516 40:-0.905314 41:-0.873805 42:-0.962192 43:-0.391409 44:-0.497881 45:-0.117485 46:-0.431682 47:0.0548506 48:-0.259657 49:0.100518 50:-0.176899 51:0.110496 52:-0.128764 53:-0.164838 54:-0.427935 55:0.130205 56:-0.244954 57:0.00819365 58:-0.0744186 59:-0.882457 60:-0.958049 61:-0.358825 62:-0.521127 63:-0.0652675 64:-0.0197852 65:0.0711767 66:0.139957 67:0.123171 68:0.201844 69:0.110442 70:0.225575 71:-0.116747 72:0.0631389 73:0.161536 74:0.201159 75:-0.0255769 76:0.222357 77:-0.97918 78:-0.950801 79:-0.746732 80:-0.949068 81:-0.90058 82:-0.96417 83:-0.360485 84:-0.452064 85:-0.148399 86:-0.393246 87:0.0661679 88:-0.158898 89:0.113572 90:-0.0878619 91:0.116044 92:-0.0321265 93:-0.190148 94:-0.39414 95:0.153179 96:-0.183387 97:-0.00786472 98:-0.0152456 99:-0.89889 100:-0.970452 101:-0.318152 102:-0.537984 103:-0.0519271 104:0.00738217 105:0.117445 106:0.176532 107:0.170175 108:0.270339 109:0.149428 110:0.288867 111:-0.0959302 112:0.0766467 113:0.17775 114:0.241341 115:0.0281162 116:0.231308 117:-0.988891 118:-0.96685 119:-0.6009 120:-0.878137 
308.0015460381077 1:-0.18539 2:-0.646925 3:0.456834 4:0.0819981 5:0.608619 6:0.417181 7:0.665986 8:0.217072 9:0.72798 10:0.398316 11:0.703672 12:0.407649 13:0.556512 14:0.476562 15:0.627063 16:0.743811 17:0.662184 18:0.751452 19:-0.162148 20:-0.626254 21:0.578272 22:-0.220144 23:0.710036 24:0.45433 25:0.644174 26:0.476625 27:0.738366 28:0.574689 29:0.725395 30:0.554709 31:0.657176 32:0.543665 33:0.502949 34:0.60991 35:0.706794 36:0.663804 37:-0.317869 38:-0.00594294 39:-0.463636 40:-0.814411 41:0.339224 42:-0.509427 43:0.519842 44:0.61935 45:0.699776 46:0.594992 47:0.716366 48:0.633047 49:0.759818 50:0.725286 51:0.763622 52:0.718588 53:0.650527 54:0.673901 55:0.776485 56:0.867976 57:0.73438 58:0.856977 59:0.497465 60:-0.23239 61:0.588472 62:0.290534 63:0.724412 64:0.57377 65:0.703534 66:0.565171 67:0.770766 68:0.641393 69:0.767661 70:0.635806 71:0.647425 72:0.670475 73:0.775014 74:0.870145 75:0.710049 76:0.828676 77:0.466413 78:0.662616 79:-0.838788 80:-0.984416 81:0.0811054 82:-0.511442 83:0.528337 84:0.608325 85:0.697258 86:0.633987 87:0.729941 88:0.662076 89:0.790194 90:0.749111 91:0.791757 92:0.735849 93:0.641794 94:0.694859 95:0.805967 96:0.874865 97:0.752833 98:0.871259 99:0.241898 100:-0.445226 101:0.635298 102:0.105902 103:0.765413 104:0.649063 105:0.735297 106:0.561027 107:0.808864 108:0.667509 109:0.809354 110:0.641926 111:0.68476 112:0.702994 113:0.746601 114:0.812291 115:0.777883 116:0.779206 117:-0.18419 118:0.220958 119:-0.835414 120:-0.979548 
1024 1:-0.723208 2:-0.925307 3:-0.124627 4:-0.705938 5:0.0456009 6:-0.309377 7:0.0985929 8:-0.411657 9:0.148216 10:-0.228179 11:0.128032 12:-0.262127 13:-0.00670696 14:-0.389509 15:0.0382343 16:-0.199139 17:0.095397 18:0.029036 19:-0.767838 20:-0.912325 21:0.0255065 22:-0.792395 23:0.246186 24:0.0628707 25:0.16959 26:0.0148233 27:0.229495 28:0.110996 29:0.225403 30:0.12466 31:0.215084 32:0.0861009 33:0.0465068 34:0.0806537 35:0.180665 36:0.24908 37:-1 38:-1 39:-0.682069 40:-0.906195 41:-0.528453 42:-0.834151 43:-0.144178 44:-0.514831 45:-0.0678463 46:-0.418617 47:-0.063175 48:-0.387339 49:0.0295102 50:-0.264308 51:0.0191697 52:-0.286604 53:-0.153924 54:-0.453534 55:0.0114624 56:-0.319149 57:-0.00255063 58:-0.176744 59:-0.485856 60:-0.760843 61:0.0162287 62:-0.658041 63:0.127586 64:-0.141888 65:0.0894719 66:-0.106838 67:0.166022 68:-0.0307377 69:0.165017 70:-0.0567775 71:0.0453181 72:-0.0980156 73:0.174014 74:0.0214493 75:0.112663 76:0.0255164 77:-0.72343 78:-0.579426 79:-0.762379 80:-0.960165 81:-0.614084 82:-0.845585 83:-0.0917599 84:-0.548277 85:0.0252981 86:-0.342048 87:0.0441016 88:-0.330508 89:0.14846 90:-0.190452 91:0.135089 92:-0.218766 93:-0.0672442 94:-0.389718 95:0.115356 96:-0.248112 97:0.109351 98:-0.0717109 99:-0.564343 100:-0.839469 101:0.0749211 102:-0.697261 103:0.223921 104:-0.0346394 105:0.174453 106:-0.066527 107:0.257921 108:0.0368873 109:0.249814 110:0.0160481 111:0.141745 112:-0.00958084 113:0.215847 114:0.0815642 115:0.225074 116:0.123832 117:-0.855237 118:-0.697659 119:-0.781225 120:-0.96899 
1.237325668586854 1:-0.379041 2:-0.590442 3:0.526173 4:0.140905 5:0.700733 6:0.590118 7:0.753115 8:0.35475 9:0.815463 10:0.487816 11:0.793826 12:0.51306 13:0.64787 14:0.632812 15:0.706413 16:0.842842 17:0.755717 18:0.844367 19:-0.384008 20:-0.618841 21:0.619714 22:-0.137924 23:0.792966 24:0.590747 25:0.725312 26:0.59293 27:0.8295 28:0.682573 29:0.808647 30:0.670114 31:0.735267 32:0.667897 33:0.582741 34:0.732209 35:0.803762 36:0.75092 37:-0.775429 38:-0.779213 39:-0.333714 40:-0.662046 41:0.489723 42:-0.34024 43:0.649916 44:0.661723 45:0.78748 46:0.681002 47:0.797453 48:0.690987 49:0.833681 50:0.753382 51:0.841738 52:0.745587 53:0.741745 54:0.750696 55:0.846738 56:0.895254 57:0.819287 58:0.913953 59:0.623467 60:-0.119698 61:0.686392 62:0.407141 63:0.78354 64:0.642736 65:0.780423 66:0.610043 67:0.826024 68:0.67418 69:0.824975 70:0.652174 71:0.725859 72:0.73181 73:0.821072 74:0.897971 75:0.784891 76:0.851762 77:0.527608 78:0.649124 79:-0.84227 80:-0.985389 81:0.204701 82:-0.351178 83:0.635119 84:0.695667 85:0.762717 86:0.668845 87:0.79459 88:0.690678 89:0.847502 90:0.757237 91:0.846975 92:0.739929 93:0.714875 94:0.736871 95:0.860827 96:0.903991 97:0.814595 98:0.910785 99:0.359996 100:-0.312973 101:0.722704 102:0.255578 103:0.819185 104:0.699035 105:0.801352 106:0.586171 107:0.86106 108:0.684689 109:0.856597 110:0.646941 111:0.753696 112:0.784431 113:0.795986 114:0.856983 115:0.828816 116:0.867991 117:-0.0103262 118:0.294089 119:-0.863906 120:-0.985684 
1024 1:-0.505633 2:-0.870332 3:0.219806 4:-0.187559 5:0.264969 6:-0.143178 7:0.600496 8:0.334557 9:0.643041 10:0.423128 11:0.643728 12:0.475746 13:0.232864 14:0.0580357 15:0.644672 16:0.635091 17:0.391213 18:0.432056 19:-0.491818 20:-0.877115 21:0.11627 22:-0.639877 23:0.181162 24:0.198102 25:0.415252 26:0.522235 27:0.441278 28:0.552905 29:0.44721 30:0.606968 31:0.199596 32:0.282903 33:0.389003 34:0.396943 35:0.112826 36:0.295706 37:-0.609077 38:-0.223772 39:-0.299552 40:-0.771059 41:-0.804212 42:-0.923052 43:-0.161931 44:0.0169492 45:0.186808 46:-0.17583 47:0.316949 48:0.0858369 49:0.396693 50:0.201873 51:0.394959 52:0.209761 53:0.110271 54:-0.0250417 55:0.459897 56:0.230769 57:0.277292 58:0.393023 59:-0.803204 60:-0.913161 61:-0.156179 62:-0.327874 63:0.112532 64:0.311475 65:0.280301 66:0.57906 67:0.322492 68:0.620902 69:0.330106 70:0.606138 71:0.0601919 72:0.444378 73:0.46271 74:0.582609 75:0.0808457 76:0.498177 77:-0.936696 78:-0.879091 79:-0.614786 80:-0.877346 81:-0.80879 82:-0.887559 83:-0.0943592 84:-0.0740362 85:0.0633866 86:-0.276688 87:0.266598 88:0.00847458 89:0.36025 90:0.107161 91:0.362686 92:0.125956 93:-0.0269579 94:-0.16639 95:0.443686 96:0.113269 97:0.200596 98:0.221909 99:-0.788101 100:-0.901564 101:-0.0566166 102:-0.484891 103:0.108827 104:0.151618 105:0.298582 106:0.412258 107:0.357882 108:0.495705 109:0.351775 110:0.481444 111:0.0499966 112:0.279042 113:0.457718 114:0.413408 115:0.0755329 116:0.363318 117:-0.948408 118:-0.894207 119:-0.667249 120:-0.894878 
-1001.358398521667 1:-0.283596 2:-0.467542 3:0.418478 4:-0.202168 5:0.527582 6:0.24986 7:0.608617 8:0.13263 9:0.748537 10:0.379708 11:0.753175 12:0.433769 13:0.384716 14:0.270089 15:0.700205 16:0.768568 17:0.605331 18:0.735192 19:-0.286121 20:-0.267408 21:0.728012 22:-0.119836 23:0.792438 24:0.389087 25:0.737271 26:0.496009 27:0.863998 28:0.634855 29:0.862212 30:0.659227 31:0.704928 32:0.543665 33:0.666598 34:0.751186 35:0.747434 36:0.746012 37:-0.322513 38:-0.257386 39:-0.593745 40:-0.861726 41:-0.478801 42:-0.820297 43:0.0351256 44:0.193503 45:0.429642 46:0.450191 47:0.409698 48:0.434549 49:0.542297 50:0.740895 51:0.534056 52:0.719626 53:0.302307 54:0.358932 55:0.549673 56:0.707583 57:0.514806 58:0.745349 59:-0.239037 60:-0.69209 61:0.271489 62:0.232231 63:0.543743 64:0.491238 65:0.498487 66:0.385684 67:0.63848 68:0.720287 69:0.619833 70:0.659335 71:0.404062 72:0.386651 73:0.657138 74:0.737971 75:0.529465 76:0.585662 77:-0.783499 78:-0.726351 79:-0.792725 80:-0.96754 81:-0.673828 82:-0.879768 83:0.0734225 84:0.146366 85:0.462965 86:0.511983 87:0.442712 88:0.529661 89:0.603713 90:0.818182 91:0.593847 92:0.799082 93:0.313842 94:0.423991 95:0.625738 96:0.796117 97:0.527119 98:0.709768 99:-0.538124 100:-0.872717 101:0.314134 102:0.112115 103:0.623143 104:0.475298 105:0.561799 106:0.401781 107:0.697348 108:0.744315 109:0.696975 110:0.718154 111:0.483445 112:0.40479 113:0.662075 114:0.793296 115:0.59854 116:0.591121 117:-0.959595 118:-0.941277 119:-0.902474 120:-0.986188 
-163.8017596083784 1:-0.678262 2:-0.824441 3:-0.0139631 4:-0.538643 5:0.189574 6:0.0903987 7:0.272858 8:-0.0555301 9:0.389278 10:0.186531 11:0.385525 12:0.224813 13:0.0649472 14:0.0279018 15:0.332106 16:0.374596 17:0.25363 18:0.672474 19:-0.652272 20:-0.781859 21:0.346184 22:-0.572045 23:0.427942 24:0.107948 25:0.395165 26:0.147092 27:0.535745 28:0.381743 29:0.520096 30:0.410996 31:0.328173 32:0.216482 33:0.360939 34:0.511861 35:0.3756 36:0.680982 37:0.010509 38:0.0396429 39:-0.711596 40:-0.908241 41:-0.750814 42:-0.945199 43:-0.322432 44:-0.257062 45:0.0711721 46:0.00489929 47:0.041602 48:-0.055794 49:0.177423 50:0.228928 51:0.179581 52:0.23676 53:-0.0649008 54:-0.139677 55:0.153467 56:0.14239 57:0.178854 58:0.425581 59:-0.620826 60:-0.901076 61:-0.0738875 62:-0.358664 63:0.268483 64:0.275297 65:0.224197 66:0.169872 67:0.325728 68:0.443648 69:0.330026 70:0.477238 71:0.157642 72:0.215875 73:0.349667 74:0.492174 75:0.209593 76:0.558931 77:-0.965956 78:-0.9429 79:-0.880556 80:-0.987917 81:-0.822556 82:-0.954143 83:-0.294824 84:-0.370863 85:0.0113483 86:-0.0174292 87:-0.0119935 88:-0.0709746 89:0.146977 90:0.251397 91:0.146688 92:0.245283 93:-0.145255 94:-0.237148 95:0.108687 96:0.0776699 97:0.102134 98:0.361942 99:-0.734959 100:-0.946472 101:-0.0434775 102:-0.480373 103:0.274719 104:0.192504 105:0.219694 106:0.079099 107:0.350299 108:0.432036 109:0.339039 110:0.477432 111:0.146455 112:0.124551 113:0.32516 114:0.527374 115:0.216834 116:0.529206 117:-0.988461 118:-0.977699 119:-0.944671 120:-0.994544 
-1024 1:-0.146416 2:-0.316938 3:0.428389 4:-0.192271 5:0.576221 6:0.35991 7:0.64061 8:0.226251 9:0.792819 10:0.458573 11:0.79905 12:0.496269 13:0.420689 14:0.352679 15:0.740555 16:0.80732 17:0.649114 18:0.730546 19:-0.085461 20:-0.0436293 21:0.676867 22:-0.137513 23:0.762278 24:0.365362 25:0.701623 26:0.434436 27:0.86068 28:0.610996 29:0.861794 30:0.632009 31:0.64088 32:0.446494 33:0.666581 34:0.677385 35:0.747515 36:0.734969 37:-0.43053 38:-0.419464 39:-0.63872 40:-0.874754 41:-0.475618 42:-0.818954 43:0.064757 44:0.366525 45:0.490316 46:0.596081 47:0.48283 48:0.584764 49:0.588666 50:0.845994 51:0.592638 52:0.809969 53:0.383094 54:0.539232 55:0.60574 56:0.847245 57:0.57041 58:0.82907 59:-0.224577 60:-0.685194 61:0.250877 62:0.274812 63:0.549528 64:0.545506 65:0.498613 66:0.413462 67:0.645541 68:0.728484 69:0.631511 70:0.716624 71:0.400568 72:0.455201 73:0.661029 74:0.773913 75:0.539829 76:0.688943 77:-0.77126 78:-0.707343 79:-0.782214 80:-0.964706 81:-0.671312 82:-0.878422 83:0.0900293 84:0.271921 85:0.491485 86:0.581699 87:0.493275 88:0.582627 89:0.629279 90:0.851701 91:0.623031 92:0.823559 93:0.365746 94:0.523494 95:0.651413 96:0.839266 97:0.562031 98:0.784303 99:-0.53024 100:-0.869865 101:0.310648 102:0.14431 103:0.604874 104:0.519591 105:0.559868 106:0.42483 107:0.695207 108:0.759474 109:0.68844 110:0.732197 111:0.468358 112:0.42515 113:0.652099 114:0.782123 115:0.611522 116:0.615654 117:-0.958069 118:-0.937747 119:-0.86333 120:-0.976241 
-805.7785359878646 1:-0.850153 2:-0.933672 3:-0.0543345 4:-0.317154 5:0.383041 6:0.577765 7:0.505 8:0.430014 9:0.511979 10:0.567568 11:0.518657 12:0.625 13:0.369764 14:0.546875 15:0.459261 16:0.79225 17:0.425886 18:0.779326 19:-0.809473 20:-0.939824 21:-0.0467813 22:-0.393217 23:0.187218 24:0.405694 25:0.337985 26:0.551881 27:0.432563 28:0.669087 29:0.438517 30:0.78552 31:0.126932 32:0.460025 33:0.262725 34:0.58039 35:0.34189 36:0.613497 37:-0.580392 38:-0.16275 39:-0.210254 40:-0.696134 41:-0.874812 42:-0.961804 43:-0.181773 44:0.195621 45:0.368687 46:0.0332063 47:0.382642 48:0.13412 49:0.395213 50:0.299688 51:0.396323 52:0.292835 53:0.352231 54:0.167501 55:0.404108 56:0.376978 57:0.400799 58:0.553488 59:-0.905522 60:-0.968831 61:-0.421263 62:-0.153619 63:0.157179 64:0.713963 65:0.178822 66:0.790598 67:0.182859 68:0.854508 69:0.183511 70:0.845524 71:0.145132 72:0.699339 73:0.211907 74:0.794783 75:0.156275 76:0.741191 77:-0.984526 78:-0.938427 79:-0.112225 80:-0.541404 81:-0.895166 82:-0.967132 83:-0.168551 84:0.148414 85:0.352605 86:0.163399 87:0.398129 88:0.323093 89:0.430901 90:0.487049 91:0.428075 92:0.500255 93:0.32653 94:0.255943 95:0.446786 96:0.519957 97:0.410064 98:0.678148 99:-0.890577 100:-0.976093 101:-0.312338 102:-0.268003 103:0.192242 104:0.622942 105:0.247315 106:0.662651 107:0.295624 108:0.792825 109:0.281804 110:0.782347 111:0.147995 112:0.597605 113:0.293726 114:0.75419 115:0.228058 116:0.711449 117:-0.991747 118:-0.97701 119:-0.52889 120:-0.802163 
399.8820324594731 1:0.156126 2:-0.372084 3:0.529375 4:0.155985 5:0.453699 6:0.171252 7:0.744137 8:0.286829 9:0.666209 10:0.216659 11:0.66009 12:0.255597 13:0.543579 14:0.397321 15:0.540383 16:0.480086 17:0.643152 18:0.592334 19:0.287112 20:-0.33145 21:0.594893 22:0.145324 23:0.445599 24:0.154211 25:0.696972 26:0.527936 27:0.63597 28:0.3361 29:0.616467 30:0.379423 31:0.569606 32:0.458795 33:0.366314 34:0.413811 35:0.666889 36:0.505521 37:-0.200011 38:-0.123468 39:-0.716264 40:-0.908364 41:-0.640227 42:-0.831143 43:0.227002 44:0.389831 45:0.560901 46:0.473054 47:0.649831 48:0.695279 49:0.60984 50:0.667014 51:0.603549 52:0.653167 53:0.596695 54:0.656093 55:0.591974 56:0.726132 57:0.618997 58:0.851163 59:-0.669244 60:-0.84508 61:0.141604 62:0.143793 63:0.42113 64:0.509327 65:0.550555 66:0.763889 67:0.493668 68:0.672131 69:0.484628 70:0.650128 71:0.471909 72:0.663259 73:0.460304 74:0.753043 75:0.483682 76:0.722965 77:-0.90645 78:-0.882147 79:-0.881931 80:-0.987979 81:-0.361992 82:-0.59525 83:0.43341 84:0.731832 85:0.523171 86:0.462963 87:0.724054 88:0.757415 89:0.683564 90:0.646521 91:0.674777 92:0.617542 93:0.57543 94:0.682698 95:0.682393 96:0.735707 97:0.66078 98:0.785432 99:-0.212011 100:-0.641903 101:0.552841 102:0.466252 103:0.484705 104:0.298126 105:0.717819 106:0.584075 107:0.65312 108:0.477514 109:0.62964 110:0.444333 111:0.558694 112:0.586826 113:0.560878 114:0.624581 115:0.642032 116:0.629673 117:-0.86263 118:-0.815909 119:-0.857267 120:-0.981501 
275.6098148872575 1:-0.597055 2:-0.762609 3:0.142692 4:-0.114515 5:0.213612 6:0.154408 7:0.526889 8:0.296925 9:0.442365 10:0.212229 11:0.432535 12:0.26959 13:0.31146 14:0.360491 15:0.332799 16:0.457481 17:0.42553 18:0.554007 19:-0.489509 20:-0.74635 21:0.302645 22:-0.2148 23:0.260845 24:0.0925267 25:0.49542 26:0.394527 27:0.439311 28:0.290456 29:0.415101 30:0.329341 31:0.378089 32:0.316113 33:0.18496 34:0.28835 35:0.434308 36:0.434356 37:-0.666893 38:-0.474268 39:-0.162504 40:-0.622556 41:-0.879884 42:-0.963429 43:-0.29763 44:0.122175 45:0.170772 46:-0.0680457 47:0.30419 48:0.229614 49:0.302151 50:0.344433 51:0.296392 52:0.338525 53:0.177983 54:0.0439622 55:0.298845 56:0.340971 57:0.296757 58:0.6 59:-0.886788 60:-0.960881 61:-0.295329 62:-0.0704225 63:0.190079 64:0.600904 65:0.294468 66:0.814103 67:0.258554 68:0.828893 69:0.249918 70:0.801535 71:0.222636 72:0.652435 73:0.242791 74:0.817971 75:0.252306 76:0.771567 77:-0.987902 78:-0.973388 79:-0.816453 80:-0.941629 81:-0.860518 82:-0.956166 83:-0.271298 84:0.193449 85:0.129778 86:0.0490196 87:0.303694 88:0.387712 89:0.308892 90:0.497207 91:0.299333 92:0.485977 93:0.138697 94:0.14649 95:0.311654 96:0.494067 97:0.292506 98:0.669113 99:-0.802755 100:-0.951896 101:-0.164035 102:-0.134143 103:0.184376 104:0.418512 105:0.348114 106:0.669984 107:0.310393 108:0.678626 109:0.302683 110:0.681043 111:0.224985 112:0.589222 113:0.260798 114:0.775419 115:0.300761 116:0.693925 117:-0.980208 118:-0.954566 119:-0.756075 120:-0.952817 
-504.3149858124597 1:-0.482865 2:-0.506372 3:0.554164 4:0.15787 5:0.76109 6:0.651881 7:0.701829 8:0.246443 9:0.768557 10:0.403633 11:0.783965 12:0.487873 13:0.680494 14:0.59933 15:0.660584 16:0.781485 17:0.751205 18:0.83043 19:-0.47909 20:-0.587784 21:0.620172 22:0.0326824 23:0.855263 24:0.704626 25:0.684184 26:0.490308 27:0.798727 28:0.603734 29:0.810997 30:0.662493 31:0.766556 32:0.718327 33:0.560477 34:0.690037 35:0.795329 36:0.83681 37:-0.759618 38:-0.738737 39:-0.295382 40:-0.687807 41:-0.478135 42:-0.675253 43:0.466653 44:0.360876 45:0.787824 46:0.834513 47:0.705592 48:0.682403 49:0.77274 50:0.807492 51:0.783321 52:0.815161 53:0.710089 54:0.774068 55:0.766341 56:0.886525 57:0.77811 58:0.927907 59:-0.583111 60:-0.755581 61:0.421413 62:0.206027 63:0.739218 64:0.778406 65:0.645736 66:0.628205 67:0.717096 68:0.735656 69:0.724286 70:0.729923 71:0.653106 72:0.769092 73:0.703335 74:0.885217 75:0.695917 76:0.880923 77:-0.859042 78:-0.838763 79:-0.829369 80:-0.973807 81:-0.222162 82:-0.377758 83:0.57455 84:0.660867 85:0.766993 86:0.738562 87:0.686544 88:0.541314 89:0.784604 90:0.680041 91:0.790262 92:0.704233 93:0.671834 94:0.691542 95:0.798499 96:0.839266 97:0.753981 98:0.856578 99:-0.156619 100:-0.475035 101:0.68894 102:0.396216 103:0.84186 104:0.720613 105:0.70929 106:0.432163 107:0.824193 108:0.605862 109:0.828192 110:0.608826 111:0.719593 112:0.736527 113:0.768613 114:0.814525 115:0.790499 116:0.815421 117:-0.680631 118:-0.548297 119:-0.853472 120:-0.982994 
-1024 1:-0.142365 2:-0.448919 3:0.614501 4:0.119227 5:0.757283 6:0.560921 7:0.69349 8:0.171179 9:0.759863 10:0.325654 11:0.776692 12:0.416978 13:0.676059 14:0.526786 15:0.652364 16:0.715823 17:0.742893 18:0.796748 19:-0.136237 20:-0.486556 21:0.688446 22:0.0236382 23:0.855243 24:0.657177 25:0.681333 26:0.421893 27:0.790756 28:0.524896 29:0.800538 30:0.588459 31:0.772258 32:0.687577 33:0.551042 34:0.645756 35:0.785912 36:0.811043 37:-0.41754 38:-0.136483 39:-0.308188 40:-0.704573 41:-0.456012 42:-0.654336 43:0.459335 44:0.28178 45:0.758013 46:0.723462 47:0.676537 48:0.606223 49:0.747623 50:0.718002 51:0.75723 52:0.736241 53:0.677506 54:0.667223 55:0.739251 56:0.783961 57:0.752645 58:0.859302 59:-0.554918 60:-0.729248 61:0.442328 62:0.173272 63:0.73457 64:0.745619 65:0.64629 66:0.596154 67:0.722256 68:0.699795 69:0.73648 70:0.68798 71:0.64079 72:0.733013 73:0.714316 74:0.843478 75:0.699898 76:0.842041 77:-0.850179 78:-0.846515 79:-0.895787 80:-0.99192 81:-0.247889 82:-0.394519 83:0.536459 84:0.428182 85:0.725878 86:0.662309 87:0.645952 88:0.481992 89:0.749977 90:0.628238 91:0.75496 92:0.674656 93:0.625622 94:0.599779 95:0.75193 96:0.764833 97:0.723953 98:0.818182 99:-0.183898 100:-0.475654 101:0.662266 102:0.2793 103:0.806304 104:0.666099 105:0.667925 106:0.398638 107:0.79035 108:0.572511 109:0.793256 110:0.60682 111:0.67778 112:0.674251 113:0.730402 114:0.792179 115:0.751663 116:0.806075 117:-0.724321 118:-0.632909 119:-0.875948 120:-0.987983 
340.3801195379075 1:-0.530041 2:-0.829164 3:-0.304273 4:-0.189915 5:-0.0133449 6:0.115104 7:-0.0410313 8:-0.109683 9:0.129553 10:0.114754 11:0.0854611 12:0.139925 13:-0.183063 14:-0.0234375 15:-0.015149 16:0.273412 17:0.115828 18:0.498258 19:-0.280577 20:-0.761056 21:0.0197415 22:-0.354985 23:0.201864 24:0.188612 25:0.0447068 26:0.0992018 27:0.285848 28:0.303942 29:0.236888 30:0.315188 31:0.00662964 32:0.216482 33:0.0606157 34:0.321033 35:0.230518 36:0.553374 37:0.488643 38:0.626773 39:-0.793957 40:-0.952891 41:-0.79829 42:-0.928593 43:-0.431454 44:-0.161723 45:0.0132031 46:-0.0016331 47:0.0446814 48:0.0622318 49:0.14652 50:0.202914 51:0.133422 52:0.193146 53:-0.0809777 54:-0.0940456 55:0.151265 56:0.0976541 57:0.139501 58:0.252326 59:-0.674614 60:-0.849895 61:-0.130335 62:-0.117589 63:0.138086 64:0.0469192 65:0.123858 66:0.129274 67:0.26224 68:0.246926 69:0.24815 70:0.232737 71:-0.00212528 72:0.106434 73:0.262862 74:0.289275 75:0.195062 76:0.318348 77:-0.930084 78:-0.918971 79:-0.946868 80:-0.998551 81:-0.73982 82:-0.873091 83:-0.401115 84:-0.0788127 85:-0.0875141 86:0.00544662 87:-0.0698362 88:0.0709746 89:0.081306 90:0.220924 91:0.0549351 92:0.204488 93:-0.224782 94:-0.129906 95:0.0507525 96:0.110032 97:0.0688245 98:0.265951 99:-0.531129 100:-0.784243 101:-0.0399397 102:-0.139791 103:0.12924 104:0.0187394 105:0.0782586 106:0.0340492 107:0.261271 108:0.218797 109:0.229175 110:0.19659 111:-0.0441398 112:0.0443114 113:0.201108 114:0.252514 115:0.20564 116:0.332944 117:-0.91563 118:-0.883874 119:-0.93831 120:-0.997065 
1024 1:-0.320518 2:-0.20745 3:0.112175 4:-0.240811 5:0.344059 6:0.42055 7:0.347031 8:0.116108 9:0.53893 10:0.404519 11:0.512304 12:0.432836 13:0.155524 14:0.177455 15:0.346804 16:0.627557 17:0.557279 18:0.744483 19:-0.0334902 20:-0.0382069 21:0.341169 22:0.0450154 23:0.540548 24:0.467378 25:0.406974 26:0.321551 27:0.671051 28:0.570539 29:0.627538 30:0.596081 31:0.3274 32:0.463715 33:0.370672 34:0.600422 35:0.680011 36:0.806135 37:-0.41017 38:-0.349697 39:-0.690499 40:-0.903978 41:-0.50106 42:-0.809354 43:0.162362 44:0.175847 45:0.606972 46:0.816004 47:0.561184 48:0.671674 49:0.641732 50:0.889698 51:0.626731 52:0.823468 53:0.531354 54:0.744018 55:0.653325 56:0.873432 57:0.615714 58:0.937209 59:-0.423041 60:-0.757655 61:0.264236 62:0.126761 63:0.58794 64:0.661956 65:0.513864 66:0.530983 67:0.630107 68:0.726434 69:0.624191 70:0.679795 71:0.465998 72:0.660854 73:0.624241 74:0.843478 75:0.566595 76:0.816525 77:-0.823029 78:-0.767275 79:-0.778718 80:-0.961493 81:-0.569227 82:-0.787048 83:0.250464 84:0.062436 85:0.640932 86:0.888889 87:0.616606 88:0.78072 89:0.685578 90:0.861859 91:0.684449 92:0.848037 93:0.577374 94:0.795467 95:0.666616 96:0.877023 97:0.687493 98:0.946923 99:-0.479221 100:-0.803619 101:0.31725 102:0.0138379 103:0.613677 104:0.709256 105:0.543052 106:0.514929 107:0.707798 108:0.742294 109:0.688618 110:0.699097 111:0.454254 112:0.634731 113:0.601198 114:0.814525 115:0.705684 116:0.901869 117:-0.91915 118:-0.854254 119:-0.731659 120:-0.951965 
93.47670139235363 1:-0.357232 2:-0.662336 3:-0.156522 4:0.185203 5:0.0977229 6:0.255474 7:0.122578 8:0.0252409 9:0.285617 10:0.259194 11:0.249324 12:0.276119 13:-0.0640176 14:0.189732 15:0.114065 16:0.550054 17:0.29438 18:0.691057 19:-0.0120532 20:-0.491218 21:0.156819 22:0.12148 23:0.305973 24:0.275208 25:0.214386 26:0.18016 27:0.455142 28:0.438797 29:0.399949 30:0.410996 31:0.117222 32:0.311193 33:0.179822 34:0.479178 35:0.439311 36:0.67362 37:-0.258324 38:-0.0722349 39:-0.655984 40:-0.900849 41:-0.723983 42:-0.89481 43:-0.275229 44:0.492938 45:0.274981 46:0.557975 47:0.298286 48:0.569742 49:0.381625 50:0.847034 51:0.368755 52:0.795431 53:0.199116 54:0.523651 55:0.390703 56:0.80251 57:0.382232 58:0.9 59:-0.554779 60:-0.782671 61:-0.00554334 62:0.44186 63:0.283072 64:0.432448 65:0.274704 66:0.442308 67:0.431703 68:0.683402 69:0.412043 70:0.612276 71:0.125731 72:0.500902 73:0.429869 74:0.778551 75:0.360338 76:0.739976 77:-0.894633 78:-0.889005 79:-0.92163 80:-0.995191 81:-0.737461 82:-0.878863 83:-0.135145 84:0.329922 85:0.272973 86:0.494553 87:0.295075 88:0.508475 89:0.41059 90:0.72067 91:0.395503 92:0.705252 93:0.171351 94:0.45937 95:0.411423 96:0.68932 97:0.375888 98:0.805759 99:-0.599067 100:-0.848907 101:0.15362 102:0.135837 103:0.426647 104:0.468484 105:0.366707 106:0.367208 107:0.532343 108:0.618999 109:0.504417 110:0.600802 111:0.270794 112:0.487425 113:0.455252 114:0.692737 115:0.493129 116:0.752336 117:-0.955722 118:-0.925606 119:-0.831249 120:-0.97579 
41.81144758163736 1:-0.727323 2:-0.900581 3:-0.106985 4:-0.614515 5:0.322475 6:0.493543 7:0.242781 8:0.104176 9:0.368481 10:0.484271 11:0.358948 12:0.471082 13:0.191803 14:0.114955 15:0.341414 16:0.438105 17:0.239589 18:0.396051 19:-0.674048 20:-0.894282 21:-0.199303 22:-0.85036 23:-0.0784426 24:-0.00711744 25:-0.242547 26:-0.233751 27:-0.0825828 28:-0.096473 29:-0.0932245 30:-0.0800218 31:-0.214773 32:-0.0922509 33:-0.198069 34:-0.217712 35:-0.233729 36:-0.122699 37:-0.830042 38:-0.81059 39:-0.319336 40:-0.73587 41:-0.776942 42:-0.958414 43:-0.264542 44:-0.385593 45:0.0619717 46:-0.248775 47:-0.0328164 48:-0.408798 49:0.0876743 50:-0.187305 51:0.0762338 52:-0.208723 53:-0.0499047 54:-0.360045 55:0.066114 56:-0.199127 57:0.0811987 58:-0.0406977 59:-0.695966 60:-0.938972 61:-0.430726 62:-0.656731 63:-0.0564177 64:0.24251 65:-0.159434 66:0.0235043 67:-0.0692631 68:0.230533 69:-0.0604799 70:0.226598 71:-0.154662 72:0.0823812 73:-0.0352 74:0.173333 75:-0.163482 76:0.185905 77:-0.960751 78:-0.903243 79:-0.571614 80:-0.871571 81:-0.725802 82:-0.898652 83:-0.173653 84:-0.499147 85:0.124341 86:-0.106754 87:-0.00133984 88:-0.338983 89:0.163222 90:-0.0929406 91:0.161574 92:-0.0963794 93:-0.031286 94:-0.264787 95:0.180478 96:-0.13808 97:0.072942 98:-0.027668 99:-0.648467 100:-0.892352 101:-0.231249 102:-0.763344 103:0.0163737 104:0.150483 105:-0.114467 106:-0.117863 107:0.0627644 108:0.0368873 109:0.0463812 110:0.0491474 111:-0.154904 112:0.0215569 113:0.0678527 114:-0.0189944 115:-0.0941281 116:0.100467 117:-0.916999 118:-0.824606 119:-0.770602 120:-0.965476 
20.737209486518 1:-0.82291 2:-0.961563 3:-0.253481 4:-0.622997 5:-0.00317432 6:-0.016283 7:0.0808109 8:0.313447 9:0.188349 10:0.360213 11:0.220273 12:0.608209 13:-0.145787 14:-0.299107 15:0.0829673 16:0.0785791 17:0.149913 18:0.464576 19:-0.763853 20:-0.958795 21:-0.31813 22:-0.830216 23:-0.0884817 24:0.163701 25:-0.278905 26:-0.0809578 27:-0.115996 28:0.0580913 29:-0.114992 30:0.127926 31:-0.233771 32:0.0295203 33:-0.218477 34:-0.089088 35:-0.287356 36:-0.0196319 37:-0.860233 38:-0.845312 39:0.250011 40:-0.184064 41:-0.805698 42:-0.966117 43:-0.32287 44:-0.447034 45:-0.0608301 46:-0.43386 47:-0.0906976 48:-0.428112 49:-0.0114055 50:-0.325702 51:-0.00295627 52:-0.305296 53:-0.14243 54:-0.470228 55:-0.0284839 56:-0.356247 57:-0.0365731 58:-0.152326 59:-0.729509 60:-0.949238 61:-0.48006 62:-0.622666 63:-0.084694 64:0.270774 65:-0.170194 66:0.0982906 67:-0.101924 68:0.259221 69:-0.0825899 70:0.27468 71:-0.166581 72:0.134095 73:-0.0811021 74:0.187246 75:-0.164486 76:0.281896 77:-0.97496 78:-0.932091 79:-0.60222 80:-0.895813 81:-0.769447 82:-0.912804 83:-0.213077 84:-0.527806 85:0.0307127 86:-0.213508 87:-0.0473138 88:-0.34322 89:0.11297 90:-0.187405 91:0.122349 92:-0.148394 93:-0.129457 94:-0.427308 95:0.0887909 96:-0.335491 97:0.0673108 98:0.0502541 99:-0.701605 100:-0.907292 101:-0.255276 102:-0.727196 103:0.0399207 104:0.374219 105:-0.0811537 106:0.0581456 107:0.052836 108:0.10763 109:0.054643 110:0.173521 111:-0.0958353 112:0.17006 113:0.0543416 114:0.0324022 115:-0.0630189 116:0.225467 117:-0.930376 118:-0.833962 119:-0.68105 120:-0.936485 
-48.63418075230045 1:-0.397479 2:-0.811714 3:0.199885 4:-0.0527804 5:0.541325 6:0.459854 7:0.543118 8:0.190454 9:0.617503 10:0.384138 11:0.616096 12:0.454291 13:0.462528 14:0.46875 15:0.52133 16:0.742734 17:0.595836 18:0.818815 19:-0.315622 20:-0.802301 21:0.285492 22:-0.547379 23:0.529537 24:0.578885 25:0.432807 26:0.351197 27:0.548051 28:0.48029 29:0.544366 30:0.612412 31:0.447843 32:0.517835 33:0.331586 34:0.47496 35:0.523506 36:0.677301 37:-0.459586 38:-0.181144 39:-0.493803 40:-0.819068 41:-0.0176423 42:-0.698419 43:0.379822 44:0.684322 45:0.691013 46:0.689711 47:0.655967 48:0.64485 49:0.728601 50:0.777315 51:0.728862 52:0.772586 53:0.615116 54:0.725097 55:0.749184 56:0.905074 57:0.704512 58:0.909302 59:0.115227 60:-0.534606 61:0.440905 62:0.0389781 63:0.69557 64:0.734313 65:0.617735 66:0.556624 67:0.709276 68:0.679303 69:0.709818 70:0.686957 71:0.593731 72:0.733013 73:0.715961 74:0.874783 75:0.650736 76:0.855407 77:-0.191672 78:0.387924 79:-0.691043 80:-0.945557 81:-0.183013 82:-0.690455 83:0.439053 84:0.486865 85:0.704866 86:0.671024 87:0.695878 88:0.635593 89:0.753399 90:0.745048 91:0.750939 92:0.732789 93:0.652677 94:0.737977 95:0.752708 96:0.892125 97:0.733383 98:0.916431 99:-0.0957261 100:-0.682274 101:0.461337 102:-0.152782 103:0.701593 104:0.760363 105:0.647243 106:0.553693 107:0.718236 108:0.68671 109:0.713991 110:0.669007 111:0.626048 112:0.747305 113:0.662771 114:0.818994 115:0.675977 116:0.882009 117:-0.546703 118:-0.233213 119:-0.832019 120:-0.979601 
-509.4269555123948 1:-0.61834 2:-0.872807 3:0.07219 4:-0.619227 5:0.277154 6:0.0230208 7:0.355799 8:-0.0518587 9:0.363515 10:0.0775366 11:0.348212 12:0.0307836 13:0.268684 14:-0.112723 15:0.24221 16:0.0215285 17:0.32303 18:0.272938 19:-0.583928 20:-0.883276 21:0.0783323 22:-0.676053 23:0.243185 24:0.162515 25:0.251667 26:0.22577 27:0.28469 28:0.236515 29:0.275519 30:0.257485 31:0.245701 32:0.174662 33:0.0583578 34:0.177649 35:0.288726 36:0.358282 37:-0.458505 38:-0.113991 39:-0.397371 40:-0.773483 41:-0.810317 42:-0.929744 43:-0.0986845 44:-0.405367 45:0.244774 46:-0.191072 47:0.233055 48:-0.154506 49:0.267675 50:-0.0457856 51:0.271139 52:-0.0602285 53:0.207257 54:-0.228715 55:0.22861 56:-0.105292 57:0.295424 58:0.103488 59:-0.855137 60:-0.942004 61:-0.190675 62:-0.502129 63:0.230053 64:0.235726 65:0.208407 66:0.248932 67:0.214329 68:0.297131 69:0.233434 70:0.265473 71:0.205979 72:0.237523 73:0.202703 74:0.336812 75:0.220065 76:0.36938 77:-0.966941 78:-0.945136 79:-0.763725 80:-0.935428 81:-0.791405 82:-0.90421 83:-0.0308464 84:-0.419993 85:0.255594 86:-0.138344 87:0.278747 88:-0.0699153 89:0.322791 90:0.0177755 91:0.319011 92:-0.0045895 93:0.218876 94:-0.176341 95:0.292994 96:-0.0528587 97:0.32514 98:0.128176 99:-0.781407 100:-0.9247 101:-0.0472865 102:-0.558317 103:0.263821 104:0.170926 105:0.277455 106:0.20901 107:0.301171 108:0.266296 109:0.305478 110:0.223671 111:0.233919 112:0.17485 113:0.243639 114:0.255866 115:0.308039 116:0.34229 117:-0.965462 118:-0.93525 119:-0.821302 120:-0.973052 
1024 1:-0.795476 2:-0.804156 3:0.0103303 4:-0.547125 5:0.30531 6:0.21954 7:0.415789 8:0.208811 9:0.399057 10:0.282233 11:0.405062 12:0.388993 13:0.312625 14:0.200893 15:0.32539 16:0.506997 17:0.354301 18:0.55633 19:-0.780079 20:-0.791391 21:0.0230824 22:-0.650565 23:0.228127 24:0.142349 25:0.26315 26:0.237172 27:0.290107 28:0.243776 29:0.2913 30:0.329341 31:0.233184 32:0.215252 33:0.0834584 34:0.311545 35:0.277184 36:0.370552 37:-0.388282 38:-0.151155 39:-0.512736 40:-0.828761 41:-0.873851 42:-0.9604 43:-0.259624 44:-0.495056 45:0.0952075 46:-0.360915 47:0.0836193 48:-0.316524 49:0.121499 50:-0.235172 51:0.131463 52:-0.226376 53:0.0527355 54:-0.3734 55:0.0847594 56:-0.250409 57:0.152758 58:-0.102326 59:-0.908229 60:-0.967748 61:-0.379218 62:-0.574844 63:0.0595197 64:0.0390051 65:0.0508647 66:0.099359 67:0.056933 68:0.132172 69:0.0668606 70:0.11509 71:0.0415882 72:0.0631389 73:0.0458454 74:0.187246 75:0.0585681 76:0.176185 77:-0.984385 78:-0.969661 79:-0.763672 80:-0.927881 81:-0.881919 82:-0.951245 83:-0.183198 84:-0.446605 85:0.141674 86:-0.232026 87:0.161631 88:-0.167373 89:0.203534 90:-0.0797359 91:0.208151 92:-0.0698623 93:0.103068 94:-0.253731 95:0.174895 96:-0.107875 97:0.206815 98:0.0559006 99:-0.889423 100:-0.965243 101:-0.237716 102:-0.594465 103:0.150351 104:0.133447 105:0.157383 106:0.174437 107:0.179296 108:0.221829 109:0.184358 110:0.233701 111:0.122664 112:0.168862 113:0.140109 114:0.260335 115:0.174622 116:0.303738 117:-0.988109 118:-0.973853 119:-0.757877 120:-0.940915 
-1024 1:-0.634621 2:-0.803635 3:0.232383 4:-0.434967 5:0.457807 6:0.262212 7:0.530862 8:0.17944 9:0.543341 10:0.253877 11:0.553427 12:0.335821 13:0.435071 14:0.194196 15:0.43789 16:0.423036 17:0.528496 18:0.557491 19:-0.605441 20:-0.838207 21:0.253191 22:-0.530524 23:0.424277 24:0.269276 25:0.432704 26:0.384265 27:0.489254 28:0.384855 29:0.486691 30:0.439303 31:0.403618 32:0.335793 33:0.260672 34:0.380074 35:0.482738 36:0.495706 37:-0.850806 38:-0.89151 39:-0.472931 40:-0.787748 41:-0.642475 42:-0.828557 43:0.163763 44:-0.31709 45:0.460677 46:-0.0179641 47:0.439953 48:0.00321888 49:0.469646 50:0.0728408 51:0.475308 52:0.0768432 53:0.424356 54:-0.0306066 55:0.44701 56:0.0616476 57:0.490343 58:0.246512 59:-0.718249 60:-0.858109 61:0.0802572 62:-0.459548 63:0.406472 64:0.291125 65:0.375334 66:0.28312 67:0.387993 68:0.280738 69:0.406237 70:0.276726 71:0.37445 72:0.344558 73:0.381417 74:0.387826 75:0.402694 76:0.386391 77:-0.884926 78:-0.839284 79:-0.785225 80:-0.963904 81:-0.632561 82:-0.823671 83:0.196151 84:-0.268509 85:0.451503 86:0.087146 87:0.474101 88:0.15678 89:0.514285 90:0.226003 91:0.515563 92:0.205507 93:0.415548 94:0.0580431 95:0.495477 96:0.177994 97:0.517284 98:0.364201 99:-0.616895 100:-0.864075 101:0.175899 102:-0.493363 103:0.439525 104:0.346962 105:0.446919 106:0.349398 107:0.46659 108:0.369378 109:0.476482 110:0.349047 111:0.409162 112:0.409581 113:0.411202 114:0.408939 115:0.480913 116:0.478972 117:-0.91919 118:-0.84042 119:-0.670992 120:-0.918862 
1024 1:-0.520285 2:-0.808749 3:0.235884 4:-0.436852 5:0.271344 6:-0.218417 7:0.474346 8:0.0335016 9:0.525356 10:0.0837395 11:0.540218 12:0.208955 13:0.213626 14:-0.131696 15:0.489303 16:0.208827 17:0.318266 18:0.180023 19:-0.501069 20:-0.832976 21:0.232708 22:-0.665365 23:0.242405 24:0.0462633 25:0.372469 26:0.282782 27:0.455035 28:0.290456 29:0.460046 30:0.344584 31:0.195876 32:0.177122 33:0.34142 34:0.263047 35:0.254151 36:0.170552 37:-0.629183 38:-0.349762 39:-0.181467 40:-0.630641 41:-0.715899 42:-0.888692 43:0.073713 44:0.0480226 45:0.480516 46:0.106151 47:0.458269 48:0.165236 49:0.525603 50:0.309053 51:0.524929 52:0.305296 53:0.412137 54:0.214246 55:0.546295 56:0.399891 57:0.483961 58:0.525581 59:-0.749672 60:-0.900434 61:-0.06619 62:-0.333115 63:0.333414 64:0.517241 65:0.297653 66:0.54594 67:0.374418 68:0.629098 69:0.381256 70:0.603069 71:0.245594 72:0.529765 73:0.422632 74:0.635942 75:0.290642 76:0.596598 77:-0.916157 78:-0.83347 79:-0.61938 80:-0.896818 81:-0.688127 82:-0.798951 83:0.21236 84:0.0351416 85:0.510231 86:0.16122 87:0.542031 88:0.338983 89:0.627852 90:0.473845 91:0.625935 92:0.483937 93:0.432203 94:0.294638 95:0.670539 96:0.558792 97:0.526778 98:0.602484 99:-0.695173 100:-0.853617 101:0.141295 102:-0.421067 103:0.394368 104:0.407155 105:0.424043 106:0.453117 107:0.513177 108:0.55432 109:0.513019 110:0.540622 111:0.301071 112:0.464671 113:0.523439 114:0.593296 115:0.391585 116:0.507009 117:-0.922475 118:-0.84705 119:-0.587546 120:-0.853494 
-1024 1:-0.568114 2:-0.812259 3:0.289925 4:-0.311027 5:0.41472 6:-0.0567097 7:0.569443 8:-0.0234052 9:0.626548 10:0.113868 11:0.632096 12:0.181903 13:0.35618 14:0.046875 15:0.598248 16:0.400431 17:0.441138 18:0.357724 19:-0.557592 20:-0.860479 21:0.283478 22:-0.587667 23:0.341055 24:0.189798 25:0.46028 26:0.443558 27:0.54549 28:0.458506 29:0.547988 30:0.531845 31:0.294986 32:0.318573 33:0.419093 34:0.441223 35:0.356742 36:0.317791 37:-0.845716 38:-0.879754 39:-0.540167 40:-0.847415 41:-0.605076 42:-0.827553 43:0.184214 44:0.00564972 45:0.522902 46:0.11595 47:0.503077 48:0.140558 49:0.572039 50:0.280957 51:0.569079 52:0.26999 53:0.453762 54:0.208681 55:0.589372 56:0.390071 57:0.533407 58:0.495349 59:-0.651764 60:-0.843778 61:0.0617429 62:-0.348182 63:0.383637 64:0.483324 65:0.358107 66:0.498932 67:0.431555 68:0.536885 69:0.43185 70:0.539642 71:0.301874 72:0.541792 73:0.474915 74:0.603478 75:0.34932 76:0.547995 77:-0.840613 78:-0.698994 79:-0.621214 80:-0.914366 81:-0.574508 82:-0.752148 83:0.234902 84:-0.249403 85:0.378197 86:-0.11329 87:0.4137 88:-0.0158898 89:0.512108 90:0.0736414 91:0.508078 92:0.0872004 93:0.28865 94:-0.0602543 95:0.546014 96:0.118662 97:0.408373 98:0.192547 99:-0.56974 100:-0.801577 101:0.202837 102:-0.5329 103:0.340232 104:0.180011 105:0.38553 106:0.242535 107:0.469037 108:0.282466 109:0.469516 110:0.290873 111:0.252426 112:0.281437 113:0.483022 114:0.346369 115:0.343192 116:0.292056 117:-0.85688 118:-0.724495 119:-0.721307 120:-0.941572 
1024 1:-0.552775 2:-0.627945 3:0.206838 4:0.0122526 5:0.498522 6:0.580011 7:0.384591 8:0.00780174 9:0.624344 10:0.425786 11:0.65526 12:0.533582 13:0.235022 14:0.314732 15:0.573963 16:0.842842 17:0.525163 18:0.666667 19:-0.46123 20:-0.576215 21:0.490416 22:0.0511819 23:0.758172 24:0.641756 25:0.441695 26:0.150513 27:0.768894 28:0.598548 29:0.793315 30:0.726728 31:0.450131 32:0.494465 33:0.624716 34:0.789141 35:0.610447 36:0.635583 37:-0.552884 38:-0.442547 39:-0.530575 40:-0.840028 41:-0.709561 42:-0.866864 43:-0.00445422 44:0.306497 45:0.511294 46:0.627654 47:0.478304 48:0.438841 49:0.545399 50:0.740895 51:0.56077 52:0.747664 53:0.435168 54:0.569282 55:0.572448 56:0.799236 57:0.536655 58:0.833721 59:-0.647032 60:-0.819152 61:0.0643696 62:0.141828 63:0.466757 64:0.646128 65:0.292514 66:0.327991 67:0.471566 68:0.622951 69:0.491841 70:0.67468 71:0.272845 72:0.55021 73:0.53913 74:0.802899 75:0.3686 76:0.685298 77:-0.878737 78:-0.840775 79:-0.829527 80:-0.977548 81:-0.529144 82:-0.71592 83:0.212974 84:0.282156 85:0.564096 86:0.713508 87:0.519775 88:0.431144 89:0.651298 90:0.751143 91:0.663832 92:0.776645 93:0.434001 94:0.568823 95:0.689782 96:0.854369 97:0.593568 98:0.786561 99:-0.402339 100:-0.712901 101:0.399132 102:0.141485 103:0.66072 104:0.672913 105:0.443298 106:0.20901 107:0.686071 108:0.609904 109:0.698258 110:0.653962 111:0.412116 112:0.518563 113:0.701135 114:0.831285 115:0.550211 116:0.650701 117:-0.846945 118:-0.726016 119:-0.754785 120:-0.957007 
953.1820356148205 1:-0.412069 2:-0.711532 3:0.184994 4:0.0867107 5:0.452366 6:0.519371 7:0.34809 8:-0.030748 9:0.570335 10:0.367302 11:0.60231 12:0.468284 13:0.205189 14:0.277902 15:0.525463 16:0.797632 17:0.474477 18:0.651568 19:-0.265868 20:-0.676737 21:0.46256 22:0.0610483 23:0.705383 24:0.600237 25:0.406777 26:0.110604 27:0.71943 28:0.558091 29:0.74717 30:0.673381 31:0.409245 32:0.458795 33:0.580142 34:0.755403 35:0.562782 36:0.590184 37:-0.440774 38:-0.221674 39:-0.506149 40:-0.832353 41:-0.662645 42:-0.835711 43:0.0383545 44:0.359463 45:0.53078 46:0.660316 47:0.501776 48:0.476395 49:0.569202 50:0.773153 51:0.580433 52:0.773624 53:0.456194 54:0.607123 55:0.595255 56:0.828696 57:0.558001 58:0.85814 59:-0.581366 60:-0.772315 61:0.117694 62:0.197511 63:0.492078 64:0.607688 65:0.315704 66:0.311966 67:0.496136 68:0.608607 69:0.517861 70:0.641944 71:0.296007 72:0.539387 73:0.562304 74:0.804058 75:0.399939 76:0.657351 77:-0.820778 78:-0.755572 79:-0.797489 80:-0.974051 81:-0.440345 82:-0.701204 83:0.235853 84:0.310815 85:0.566671 86:0.70915 87:0.525004 88:0.429025 89:0.657645 90:0.751143 91:0.670104 92:0.770525 93:0.435494 94:0.561083 95:0.695271 96:0.862999 97:0.602455 98:0.782044 99:-0.280497 100:-0.675593 101:0.429175 102:0.17255 103:0.659395 104:0.672913 105:0.454036 106:0.1912 107:0.689601 108:0.594745 109:0.700376 110:0.645938 111:0.418184 112:0.508982 113:0.704019 114:0.820112 115:0.551068 116:0.658879 117:-0.781389 118:-0.611986 119:-0.780546 120:-0.968077 
-1024 1:-0.487355 2:-0.609585 3:0.231776 4:0.0876532 5:0.500625 6:0.548568 7:0.38165 8:-0.00963745 9:0.621251 10:0.389455 11:0.646828 12:0.50653 13:0.240336 14:0.291295 15:0.568392 16:0.799785 17:0.515908 18:0.663182 19:-0.378261 20:-0.5845 21:0.515681 22:0.105036 23:0.762085 24:0.647687 25:0.446884 26:0.151653 27:0.779257 28:0.596473 29:0.800376 30:0.72564 31:0.450408 32:0.493235 33:0.628366 34:0.784924 35:0.623529 36:0.620859 37:-0.793128 38:-0.825573 39:-0.603312 40:-0.86494 41:-0.556371 42:-0.746361 43:0.183602 44:0.437853 45:0.602939 46:0.72564 47:0.577856 48:0.589056 49:0.643231 50:0.783559 51:0.653867 52:0.80893 53:0.529998 54:0.67724 55:0.668111 56:0.859247 57:0.633887 58:0.882558 59:-0.463253 60:-0.666155 61:0.249374 62:0.321978 63:0.569172 64:0.628038 65:0.398089 66:0.318376 67:0.573951 68:0.599385 69:0.597546 70:0.655243 71:0.37611 72:0.571858 73:0.63912 74:0.855072 75:0.477548 76:0.71932 77:-0.740592 78:-0.705032 79:-0.852965 80:-0.986291 81:-0.310282 82:-0.562172 83:0.336154 84:0.370181 85:0.61806 86:0.723312 87:0.573448 88:0.466102 89:0.709673 90:0.752158 91:0.722836 92:0.777664 93:0.483106 94:0.584301 95:0.745034 96:0.873786 97:0.654012 98:0.794466 99:-0.12752 100:-0.532991 101:0.531644 102:0.261226 103:0.721349 104:0.675185 105:0.502949 106:0.197486 107:0.75309 108:0.594745 109:0.76233 110:0.640923 111:0.466646 112:0.524551 113:0.764061 114:0.84581 115:0.61138 116:0.66472 117:-0.725456 118:-0.58802 119:-0.806914 120:-0.972261 
1.417952582322187 1:-0.0943132 2:-0.0426778 3:0.618893 4:0.0452403 5:0.74948 6:0.632791 7:0.820485 8:0.423589 9:0.722175 10:0.296411 11:0.881296 12:0.578358 13:0.761314 14:0.695312 15:0.608007 16:0.708288 17:0.898612 18:0.961672 19:-0.0652104 20:-0.116403 21:0.768061 22:-0.0277492 23:0.910669 24:0.695136 25:0.869312 26:0.724059 27:0.920975 28:0.599585 29:0.930995 30:0.731083 31:0.890865 32:0.856089 33:0.649832 34:0.72272 35:0.968492 36:0.910429 37:-0.527466 38:-0.444343 39:-0.632831 40:-0.887725 41:0.676063 42:-0.110942 43:0.650654 44:0.475989 45:0.788178 46:0.711486 47:0.80839 48:0.751073 49:0.76921 50:0.601457 51:0.832955 52:0.780893 53:0.785316 54:0.782972 55:0.763327 56:0.778505 57:0.835868 58:0.946512 59:0.871828 60:0.229965 61:0.768602 62:0.270226 63:0.826236 64:0.656303 65:0.847018 66:0.685897 67:0.866907 68:0.617828 69:0.884885 70:0.670588 71:0.783865 72:0.799158 73:0.845243 74:0.874783 75:0.850263 76:0.890644 77:0.110361 78:0.330376 79:-0.78857 80:-0.972977 81:0.433997 82:-0.1718 83:0.643583 84:0.434323 85:0.77297 86:0.71024 87:0.811986 88:0.747881 89:0.75837 90:0.55612 91:0.861602 92:0.776645 93:0.774966 94:0.777778 95:0.754292 96:0.740022 97:0.868015 98:0.949181 99:0.70913 100:-0.120644 101:0.795255 102:0.123976 103:0.852658 104:0.688813 105:0.879373 106:0.638554 107:0.899184 108:0.60283 109:0.931397 110:0.657974 111:0.807964 112:0.808383 113:0.817069 114:0.849162 115:0.921817 116:0.936916 117:-0.233709 118:0.0893618 119:-0.839587 120:-0.981289 
-378.0415409426963 1:-0.504816 2:-0.902686 3:-0.109203 4:-0.502828 5:0.160378 6:-0.00729927 7:0.242028 8:-0.142726 9:0.141937 10:-0.134249 11:0.330085 12:0.0494403 13:0.154654 14:-0.0636161 15:0.0619797 16:0.0979548 17:0.353922 18:0.361208 19:-0.41105 20:-0.861627 21:0.202373 22:-0.639054 23:0.400497 24:0.0937129 25:0.376027 26:0.117446 27:0.420623 28:0.0881743 29:0.425359 30:0.248775 31:0.38517 32:0.210332 33:0.189174 34:0.1903 35:0.432422 36:0.460123 37:-0.154878 38:0.102267 39:-0.646637 40:-0.904501 41:-0.468204 42:-0.809707 43:-0.258965 44:-0.410311 45:-0.001386 46:-0.144257 47:0.0607916 48:-0.0804721 49:0.0427699 50:-0.0530697 51:0.169446 52:0.0176532 53:-0.0455118 54:-0.222037 55:0.0435932 56:-0.0594654 57:0.169704 58:0.122093 59:-0.245221 60:-0.617623 61:0.0841498 62:-0.471995 63:0.255442 64:-0.0243075 65:0.295996 66:0.0245726 67:0.343806 68:0.0368852 69:0.38641 70:0.0813299 71:0.178564 72:0.0306675 73:0.319559 74:0.143188 75:0.358005 76:0.230863 77:-0.625941 78:-0.436004 79:-0.76444 80:-0.957019 81:-0.595739 82:-0.859319 83:-0.296575 84:-0.4739 85:-0.0430868 86:-0.126362 87:0.0206019 88:-0.0879237 89:0.0108538 90:-0.027933 91:0.149075 92:0.0433452 93:-0.0978248 94:-0.245992 95:-0.00909661 96:-0.0690399 97:0.154047 98:0.140599 99:-0.408436 100:-0.793672 101:0.0273029 102:-0.654335 103:0.238429 104:0.0459966 105:0.266046 106:0.0330016 107:0.329667 108:0.0763012 109:0.361399 110:0.134403 111:0.155358 112:0.0802395 113:0.249291 114:0.168715 115:0.340343 116:0.313084 117:-0.824063 118:-0.609173 119:-0.759286 120:-0.961474 
1024 1:-0.283581 2:-0.0753162 3:0.926709 4:0.0523091 5:0.986254 6:0.745087 7:0.974612 8:0.411657 9:1 10:0.477182 11:0.999876 12:0.541045 13:0.95416 14:0.732143 15:0.89333 16:0.881593 17:0.959834 18:0.811847 19:-0.395122 20:-0.639507 21:0.768874 22:-0.0404933 23:0.926595 24:0.635824 25:0.863093 26:0.606613 27:0.921923 28:0.627593 29:0.904496 30:0.696244 31:0.911046 32:0.702337 33:0.676586 34:0.757512 35:0.886896 36:0.667485 37:-0.718155 38:-0.679727 39:-0.40399 40:-0.79219 41:0.0380032 42:-0.365569 43:0.793012 44:0.291667 45:0.892426 46:0.774633 47:0.890984 48:0.773605 49:0.916194 50:0.777315 51:0.917517 52:0.766355 53:0.857986 54:0.817474 55:0.909442 56:0.863612 57:0.908945 58:0.905814 59:-0.229508 60:-0.593995 61:0.683466 62:0.0881101 63:0.858855 64:0.716224 65:0.84113 66:0.629274 67:0.878993 68:0.701844 69:0.882937 70:0.660358 71:0.805168 72:0.728202 73:0.871365 74:0.85971 75:0.827304 76:0.829891 77:-0.582612 78:-0.501006 79:-0.684753 80:-0.931176 81:-0.0791131 82:-0.27223 83:0.83135 84:0.315592 85:0.920547 86:0.831155 87:0.91429 88:0.790254 89:0.950288 90:0.797867 91:0.944054 92:0.781744 93:0.88869 94:0.860697 95:0.951793 96:0.899676 97:0.915938 98:0.906268 99:-0.264302 100:-0.589081 101:0.78616 102:0.016662 103:0.909224 104:0.777399 105:0.876438 106:0.646936 107:0.92353 108:0.712986 109:0.923571 110:0.694082 111:0.852327 112:0.816766 113:0.859071 114:0.889385 115:0.866085 116:0.844626 117:-0.641673 118:-0.4512 119:-0.734916 120:-0.946563 
52.89894460743895 1:-0.434688 2:-0.686737 3:0.656127 4:-0.138077 5:0.84027 6:0.606962 7:0.798875 8:0.274897 9:0.871796 10:0.448826 11:0.868521 12:0.487873 13:0.764289 14:0.55692 15:0.770873 16:0.797632 17:0.819825 18:0.761905 19:-0.444566 20:-0.806913 21:0.590591 22:-0.221377 23:0.806175 24:0.577699 25:0.734004 26:0.522235 27:0.809268 28:0.642116 29:0.795074 30:0.651606 31:0.772221 32:0.552276 33:0.575285 34:0.665788 35:0.766945 36:0.608589 37:-0.501113 38:-0.226127 39:-0.215773 40:-0.687565 41:-0.757141 42:-0.908072 43:0.0165202 44:0.162429 45:0.5161 46:0.457812 47:0.5123 48:0.506438 49:0.571466 50:0.691988 51:0.568055 52:0.680166 53:0.456745 54:0.508069 55:0.579411 56:0.702128 57:0.560174 58:0.811628 59:-0.761443 60:-0.905586 61:-0.0150212 62:-0.149689 63:0.498248 64:0.716224 65:0.467966 66:0.662393 67:0.525518 68:0.783811 69:0.524977 70:0.729923 71:0.431442 72:0.670475 73:0.52 74:0.784348 75:0.478706 76:0.760632 77:-0.926848 78:-0.775177 79:-0.369987 80:-0.776106 81:-0.795686 82:-0.906661 83:0.0601709 84:0.0897305 85:0.490664 86:0.38671 87:0.51073 88:0.423729 89:0.592232 90:0.632301 91:0.576389 92:0.605303 93:0.423378 94:0.419569 95:0.593251 96:0.634304 97:0.560275 98:0.760587 99:-0.788747 100:-0.929305 101:0.0960742 102:-0.270827 103:0.55083 104:0.680863 105:0.529808 106:0.607124 107:0.598542 108:0.779687 109:0.587661 110:0.755266 111:0.482114 112:0.665868 113:0.558025 114:0.77095 115:0.527966 116:0.752336 117:-0.975241 118:-0.934015 119:-0.354889 120:-0.659563 
-1024 1:-0.464242 2:-0.798725 3:0.565327 4:-0.27804 5:0.738382 6:0.444133 7:0.6991 8:0.152822 9:0.780676 10:0.348693 11:0.777312 12:0.403918 13:0.653805 14:0.345982 15:0.68641 16:0.62648 17:0.721411 18:0.608595 19:-0.465458 20:-0.868025 21:0.574174 22:-0.224255 23:0.783003 24:0.513642 25:0.703705 26:0.45268 27:0.776527 28:0.592324 29:0.768509 30:0.602613 31:0.747685 32:0.505535 33:0.557075 34:0.642594 35:0.736315 36:0.530061 37:-0.434274 38:-0.0373518 39:-0.24377 40:-0.719252 41:-0.787271 42:-0.924729 43:-0.111009 44:-0.116525 45:0.38301 46:0.178008 47:0.388603 48:0.209227 49:0.448131 50:0.42768 51:0.443931 52:0.401869 53:0.324981 54:0.166388 55:0.453272 56:0.382433 57:0.424198 58:0.538372 59:-0.783442 60:-0.916437 61:-0.103769 62:-0.299705 63:0.379503 64:0.510458 65:0.352273 66:0.504274 67:0.41879 68:0.63832 69:0.422766 70:0.604092 71:0.302798 72:0.48166 73:0.416248 74:0.648696 75:0.370814 76:0.613609 77:-0.934163 78:-0.803429 79:-0.391836 80:-0.779127 81:-0.815014 82:-0.920741 83:-0.0438393 84:-0.109519 85:0.408816 86:0.30719 87:0.445593 88:0.362288 89:0.52476 90:0.581513 91:0.513645 92:0.558389 93:0.341812 94:0.309011 95:0.535091 96:0.539374 97:0.479271 98:0.6917 99:-0.804937 100:-0.93697 101:0.028311 102:-0.381531 103:0.485192 104:0.607041 105:0.474969 106:0.555788 107:0.544336 108:0.753411 109:0.533804 110:0.681043 111:0.416254 112:0.608383 113:0.498394 114:0.706145 115:0.483915 116:0.716121 117:-0.977196 118:-0.937833 119:-0.397999 120:-0.702245 
-1024 1:-0.626009 2:-0.935215 3:-0.278399 4:-0.720547 5:-0.0908093 6:-0.291409 7:0.0266005 8:-0.395135 9:0.0463987 10:-0.268055 11:0.0569368 12:-0.228545 13:-0.129331 14:-0.40625 15:-0.0667841 16:-0.22605 17:0.0462052 18:0.0673635 19:-0.598239 20:-0.92228 21:-0.0507125 22:-0.797328 23:0.105665 24:0.0308422 25:0.0921598 26:-0.0467503 27:0.138536 28:0.0695021 29:0.137486 30:0.132281 31:0.0875791 32:0.00492005 33:-0.0507809 34:0.0669478 35:0.0831959 36:0.322699 37:-0.0434995 38:0.0797859 39:-0.614763 40:-0.87537 41:-0.573394 42:-0.875962 43:-0.433589 44:-0.71822 45:-0.357901 46:-0.55362 47:-0.29354 48:-0.537554 49:-0.211015 50:-0.469303 51:-0.204828 52:-0.464174 53:-0.445595 54:-0.646077 55:-0.240579 56:-0.54719 57:-0.225501 58:-0.382558 59:-0.404198 60:-0.75059 61:-0.153603 62:-0.754995 63:-0.12144 64:-0.407575 65:-0.102193 66:-0.407051 67:-0.0284995 68:-0.32582 69:-0.0187148 70:-0.3289 71:-0.206414 72:-0.398677 73:-0.0190457 74:-0.276522 75:-0.101494 76:-0.131227 77:-0.641275 78:-0.374581 79:-0.701773 80:-0.939844 81:-0.750142 82:-0.906121 83:-0.379443 84:-0.703855 85:-0.334076 86:-0.464052 87:-0.25282 88:-0.441737 89:-0.15164 90:-0.339766 91:-0.149559 92:-0.328914 93:-0.438791 94:-0.598673 95:-0.22554 96:-0.469256 97:-0.173046 98:-0.233202 99:-0.671039 100:-0.88677 101:-0.140576 102:-0.770686 103:0.000832863 104:-0.190233 105:0.0118394 106:-0.237297 107:0.0865499 108:-0.101566 109:0.080584 110:-0.100301 111:-0.0735206 112:-0.221557 113:0.039912 114:-0.0893855 115:0.0166825 116:0.0771028 117:-0.904248 118:-0.719243 119:-0.482087 120:-0.838948 
