svm_type epsilon_svr
kernel_type rbf
gamma 0.00462963
nr_class 2
total_sv 1237
rho 7.71574
probA 0.208447
SV
1024 1:-0.532625 2:-0.845444 3:0.062455 4:-0.277568 5:0.138979 6:-0.046603 7:0.508293 8:0.30335 9:0.555768 10:0.528578 11:0.572242 12:0.601679 13:0.0904777 14:0.0345982 15:0.636933 16:0.722282 17:0.134219 18:0.261324 19:-0.416043 20:-0.800518 21:0.0970441 22:-0.503392 23:-0.186246 24:-0.24911 25:0.372966 26:0.418472 27:0.463885 28:0.572614 29:0.473457 30:0.60479 31:-0.237598 32:-0.0356704 33:0.459094 34:0.46758 35:-0.0995906 36:0.0944785 37:-0.435692 38:-0.837737 39:0.396842 40:-0.347896 41:0.218932 42:-0.0497512 43:0.662679 44:0.533097 45:0.734485 46:0.726089 47:0.75138 48:0.789412 49:0.159242 50:-0.00409117 51:0.706252 52:0.806591 53:0.327244 54:0.287888 55:-0.332746 56:-0.818026 57:0.344883 58:-0.15076 59:0.037002 60:-0.225845 61:0.578496 62:0.511884 63:0.657517 64:0.727523 65:0.652322 66:0.727527 67:0.0367443 68:-0.0478498 69:0.623613 70:0.855199 71:0.190968 72:0.259398 73:-0.793468 74:-0.927513 75:-0.070603 76:0.345339 77:0.388068 78:0.10724 79:0.463251 80:0.314378 81:0.519169 82:0.519251 83:0.521742 84:0.508827 85:0.331842 86:0.318865 87:0.599056 88:0.613748 89:0.393145 90:0.67907 91:-0.800079 92:-0.92475 93:-0.183799 94:-0.167376 95:0.119921 96:0.459582 97:0.277495 98:0.696581 99:0.334954 100:0.824795 101:0.362268 102:0.810742 103:0.0405719 104:0.603127 105:0.433733 106:0.896812 107:0.143656 108:0.742406 109:-0.783325 110:-0.842535 111:0.235554 112:-0.434678 113:0.539613 114:0.604819 115:0.62985 116:0.727899 117:0.695918 118:0.874707 119:0.705103 120:0.881246 121:0.486257 122:0.584327 123:0.733186 124:0.954494 125:0.620152 126:0.780516 127:-0.801488 128:-0.85646 129:0.0669904 130:-0.0655462 131:0.242934 132:0.338798 133:0.500432 134:0.631974 135:0.579937 136:0.818084 137:0.558585 138:0.812202 139:0.216672 140:0.504916 141:0.697481 142:0.907982 143:0.312604 144:0.695238 145:-0.73873 146:-0.890617 147:0.116058 148:0.440464 149:0.453925 150:0.372549 151:0.591532 152:0.713983 153:0.647338 154:0.898426 155:0.651071 156:0.888832 157:0.404747 158:0.499171 159:0.749344 160:0.942826 161:0.460987 162:0.706381 163:-0.679841 164:-0.90298 165:0.0476054 166:-0.0522451 167:0.176248 168:0.219761 169:0.448261 170:0.543216 171:0.535794 172:0.78474 173:0.538954 174:0.768305 175:0.0808048 176:0.352096 177:0.639148 178:0.840223 179:0.203598 180:0.503505 181:-0.728889 182:-0.710951 183:0.453413 184:-0.330845 185:0.480114 186:0.383234 187:0.683756 188:0.617431 189:0.777602 190:0.784684 191:0.781443 192:0.782972 193:0.396829 194:0.361872 195:0.858005 196:0.905556 197:0.558083 198:0.572982 199:-0.714937 200:-0.661911 201:0.359575 202:0.066697 203:0.327278 204:0.17988 205:0.640326 206:0.550371 207:0.705969 208:0.768465 209:0.70323 210:0.767539 211:0.251984 212:0.304249 213:0.813375 214:0.839175 215:0.438416 216:0.584668 
-1024 1:-0.730535 2:-0.866602 3:-0.0343286 4:-0.309614 5:0.081508 6:-0.0746771 7:0.45461 8:0.266636 9:0.494814 10:0.474524 11:0.510032 12:0.550373 13:0.039637 14:0.0479911 15:0.574623 16:0.644779 17:0.08221 18:0.278746 19:-0.663715 20:-0.844479 21:0.0125978 22:-0.534224 23:-0.238787 24:-0.199288 25:0.324214 26:0.428734 27:0.410695 28:0.58195 29:0.422276 30:0.620033 31:-0.289288 32:0.0332103 33:0.409722 34:0.457037 35:-0.149261 36:0.13865 37:-0.688598 38:-0.854771 39:0.324175 40:-0.370319 41:0.205628 42:-0.00746269 43:0.64018 44:0.542553 45:0.712283 46:0.735144 47:0.731704 48:0.806864 49:0.143002 50:0.0531853 51:0.679574 52:0.787142 53:0.318889 54:0.340231 55:-0.637985 56:-0.842393 57:0.266803 58:-0.226232 59:0.00978861 60:-0.168939 61:0.587476 62:0.551304 63:0.664954 64:0.782681 65:0.650418 66:0.766611 67:0.0185785 68:0.0321018 69:0.633478 70:0.875885 71:0.175747 72:0.315789 73:-0.820019 74:-0.93983 75:-0.138451 76:0.254237 77:0.319293 78:-0.0517148 79:0.387543 80:0.139485 81:0.443793 82:0.319459 83:0.445818 84:0.307373 85:0.263204 86:0.149694 87:0.514535 88:0.404255 89:0.335543 90:0.524419 91:-0.828943 92:-0.937826 93:-0.258476 94:-0.274157 95:0.0674416 96:0.473149 97:0.215356 98:0.705128 99:0.2662 100:0.79918 101:0.291183 102:0.773913 103:-0.00336025 104:0.622369 105:0.361337 106:0.827246 107:0.0858864 108:0.705954 109:-0.814177 110:-0.857735 111:0.164861 112:-0.480763 113:0.532071 114:0.620482 115:0.619334 116:0.747417 117:0.681559 118:0.875878 119:0.687058 120:0.880071 121:0.483653 122:0.627484 123:0.714515 124:0.955631 125:0.614216 126:0.815728 127:-0.830512 128:-0.872617 129:-0.0165806 130:-0.166387 131:0.213468 132:0.385792 133:0.446211 134:0.67382 135:0.528296 136:0.844995 137:0.512688 138:0.813263 139:0.182533 140:0.553499 141:0.636952 142:0.848115 143:0.281587 144:0.72619 145:-0.8034 146:-0.923084 147:0.0340556 148:0.362675 149:0.431978 150:0.298475 151:0.56744 152:0.699153 153:0.606987 154:0.843575 155:0.609679 156:0.824579 157:0.399339 158:0.524599 159:0.688967 160:0.895361 161:0.464728 162:0.77301 163:-0.768208 164:-0.935106 165:-0.0720799 166:-0.145439 167:0.151193 168:0.28904 169:0.40685 170:0.651126 171:0.4729 172:0.808994 173:0.48128 174:0.795386 175:0.0771082 176:0.456287 177:0.562322 178:0.820112 179:0.192281 180:0.563084 181:-0.802723 182:-0.724695 183:0.381244 184:-0.377087 185:0.493728 186:0.467066 187:0.699479 188:0.729485 189:0.762925 190:0.825749 191:0.769225 192:0.823038 193:0.439896 194:0.487443 195:0.823416 196:0.922222 197:0.583184 198:0.664568 199:-0.794719 200:-0.698056 201:0.259392 202:0.00204871 203:0.305654 204:0.233461 205:0.613158 206:0.635207 207:0.660574 208:0.781037 209:0.659137 210:0.788482 211:0.24987 212:0.394901 213:0.747479 214:0.820619 215:0.436248 216:0.606407 
-1024 1:-0.68897 2:-0.796497 3:0.14971 4:-0.241753 5:0.226953 6:0.017406 7:0.587604 8:0.349243 9:0.640017 10:0.562251 11:0.653757 12:0.633396 13:0.177545 14:0.0881696 15:0.711214 16:0.840689 17:0.227464 18:0.296167 19:-0.633031 20:-0.782734 21:0.163108 22:-0.427338 23:-0.0780313 24:-0.193357 25:0.464201 26:0.446978 27:0.563768 28:0.605809 29:0.569317 30:0.664671 31:-0.131661 32:0.0147601 33:0.551577 34:0.600422 35:0.0126425 36:0.166871 37:-0.664092 38:-0.782958 39:0.476574 40:-0.280629 41:0.271171 42:0.00124378 43:0.701251 44:0.537825 45:0.777945 46:0.697793 47:0.793474 48:0.769634 49:0.208043 50:0.056692 51:0.728345 52:0.839006 53:0.396312 54:0.359708 55:-0.637457 56:-0.771032 57:0.397266 58:-0.127679 59:0.102136 60:-0.139301 61:0.661024 62:0.571014 63:0.741517 64:0.76503 65:0.72757 66:0.762144 67:0.110133 68:0.0745003 69:0.672915 70:0.986935 71:0.282584 72:0.324561 73:-0.805871 74:-0.934934 75:-0.14286 76:0.137006 77:0.310051 78:-0.103974 79:0.380133 80:0.109442 81:0.444543 82:0.28512 83:0.444366 84:0.277259 85:0.247123 86:0.0929327 87:0.51096 88:0.382433 89:0.329757 90:0.466279 91:-0.807691 92:-0.929278 93:-0.249206 94:-0.304291 95:0.0405832 96:0.405314 97:0.196503 98:0.654915 99:0.256273 100:0.757172 101:0.277122 102:0.740153 103:-0.0377208 104:0.583885 105:0.350103 106:0.783188 107:0.0639779 108:0.673147 109:-0.79492 110:-0.868364 111:0.155038 112:-0.492858 113:0.508816 114:0.583133 115:0.600263 116:0.718714 117:0.666018 118:0.884075 119:0.675843 120:0.882422 121:0.455578 122:0.576377 123:0.714616 124:0.943117 125:0.580525 126:0.7723 127:-0.810175 128:-0.872592 129:-0.00168506 130:-0.168307 131:0.183159 132:0.328962 133:0.434769 134:0.637339 135:0.509182 136:0.782562 137:0.494716 138:0.780371 139:0.160968 140:0.509543 141:0.624153 142:0.796009 143:0.244863 144:0.679762 145:-0.785861 146:-0.917718 147:0.030475 148:0.280792 149:0.381139 150:0.189542 151:0.529086 152:0.646186 153:0.585173 154:0.832402 155:0.585554 156:0.786843 157:0.333512 158:0.378662 159:0.676778 160:0.86192 161:0.40774 162:0.687182 163:-0.742349 164:-0.928526 165:-0.0330659 166:-0.174245 167:0.132383 168:0.17774 169:0.386204 170:0.569408 171:0.479032 172:0.78575 173:0.47947 174:0.742227 175:0.032186 176:0.330539 177:0.570241 178:0.784358 179:0.164082 180:0.482477 181:-0.781932 182:-0.723124 183:0.380967 184:-0.379368 185:0.457053 186:0.385629 187:0.655401 188:0.644595 189:0.745698 190:0.792453 191:0.750674 192:0.796327 193:0.376762 194:0.377854 195:0.818985 196:0.901111 197:0.539669 198:0.593589 199:-0.770658 200:-0.681236 201:0.277223 202:0.00159344 203:0.273435 204:0.185347 205:0.586394 206:0.574761 207:0.647412 208:0.740178 209:0.651494 210:0.758115 211:0.199538 212:0.330312 213:0.747933 214:0.806186 215:0.391211 216:0.578947 
1024 1:-0.0742736 2:-0.713314 3:0.614355 4:0.0838831 5:0.858557 6:0.740595 7:0.777217 8:0.317118 9:0.85398 10:0.476296 11:0.857122 12:0.559701 13:0.773826 14:0.65625 15:0.762384 16:0.861141 17:0.814386 18:0.833914 19:-0.123129 20:-0.730745 21:0.383622 22:-0.441727 23:0.720579 24:0.645314 25:0.511182 26:0.553022 27:0.654327 28:0.634855 29:0.663151 30:0.723462 31:0.603497 32:0.606396 33:0.467614 34:0.584607 35:0.580881 36:0.619632 37:-0.101822 38:-0.733036 39:0.809679 40:-0.200185 41:0.918738 42:0.817164 43:0.861692 44:0.650118 45:0.928313 46:0.723826 47:0.931911 48:0.788249 49:0.856076 50:0.756867 51:0.718392 52:0.823879 53:0.87015 54:0.850274 55:-0.227865 56:-0.789004 57:0.70224 58:-0.083715 59:0.828416 60:0.716657 61:0.823811 62:0.698551 63:0.906689 64:0.773855 65:0.897998 66:0.762144 67:0.800237 68:0.803755 69:0.650204 70:0.823625 71:0.858342 72:0.87218 73:-0.519795 74:-0.780881 75:0.271405 76:0.208333 77:0.649089 78:0.439303 79:0.549666 80:0.344421 81:0.644789 82:0.570239 83:0.640249 84:0.562825 85:0.553934 86:0.50473 87:0.665775 88:0.692308 89:0.60306 90:0.755814 91:-0.582673 92:-0.800494 93:0.186527 94:-0.255159 95:0.543287 96:0.625777 97:0.404634 98:0.540598 99:0.52198 100:0.645492 101:0.527322 102:0.659335 103:0.416366 104:0.622369 105:0.559968 106:0.696232 107:0.442934 108:0.616039 109:-0.551317 110:-0.827579 111:0.489918 112:-0.432802 113:0.770859 114:0.853012 115:0.726294 116:0.716418 117:0.79591 118:0.82904 119:0.797443 120:0.821282 121:0.707684 122:0.800114 123:0.798007 124:0.923777 125:0.775891 126:0.877934 127:-0.656382 128:-0.849714 129:0.310573 130:-0.145258 131:0.641145 132:0.726776 133:0.606018 134:0.709227 135:0.697179 136:0.811625 137:0.688901 138:0.806897 139:0.574277 140:0.828803 141:0.711668 142:0.856984 143:0.638658 144:0.878571 145:-0.443253 146:-0.733342 147:0.383816 148:0.334016 149:0.724063 150:0.648148 151:0.636894 152:0.511653 153:0.733952 154:0.710513 155:0.727277 156:0.72361 157:0.635633 158:0.662797 159:0.75959 160:0.840345 161:0.680356 162:0.826087 163:-0.450048 164:-0.77487 165:0.333282 166:-0.296809 167:0.654457 168:0.696763 169:0.486259 170:0.508643 171:0.638389 172:0.677615 173:0.630548 174:0.681043 175:0.504324 176:0.617964 177:0.626916 178:0.711732 179:0.547607 180:0.63785 181:-0.480647 182:-0.766337 183:0.62849 184:-0.374184 185:0.823052 186:0.893413 187:0.757593 188:0.677419 189:0.853021 190:0.772475 191:0.85762 192:0.782972 193:0.732511 194:0.805936 195:0.836877 196:0.898889 197:0.80198 198:0.866056 199:-0.548276 200:-0.753286 201:0.467527 202:-0.0671523 203:0.741176 204:0.758338 205:0.687727 206:0.675504 207:0.772504 208:0.783133 209:0.7668 210:0.798953 211:0.649983 212:0.806232 213:0.75641 214:0.764948 215:0.744048 216:0.818078 
-713.7325843995832 1:-0.575916 2:-0.833005 3:0.160266 4:-0.459472 5:0.416586 6:0.000561482 7:0.348252 8:-0.0738871 9:0.513832 10:0.105007 11:0.516328 12:0.140858 13:0.242293 14:-0.0647321 15:0.420937 16:0.187298 17:0.464777 18:0.326365 19:-0.526838 20:-0.851973 21:0.180622 22:-0.675642 23:0.466593 24:0.304864 25:0.250018 26:0.321551 27:0.436737 28:0.372407 29:0.438424 30:0.438214 31:0.307418 32:0.280443 33:0.276223 34:0.270427 35:0.332629 36:0.282209 37:-0.585918 38:-0.803675 39:0.404634 40:-0.489135 41:0.725305 42:0.676617 43:0.625937 44:0.544917 45:0.753703 46:0.706848 47:0.764717 48:0.760326 49:0.598004 50:0.573349 51:0.599028 52:0.748244 53:0.662039 54:0.776019 55:-0.586772 56:-0.830957 57:0.255215 58:-0.456677 59:0.554025 60:0.619443 61:0.560617 62:0.627826 63:0.659272 64:0.750689 65:0.648949 66:0.762144 67:0.508282 68:0.698365 69:0.453295 70:0.757213 71:0.604296 72:0.784461 73:-0.792141 74:-0.926482 75:-0.182433 76:0.00564972 77:0.225901 78:-0.0593359 79:0.098959 80:-0.0396996 81:0.286913 82:0.149844 83:0.290139 84:0.147456 85:0.0395382 86:-0.112966 87:0.340672 88:0.0812875 89:0.210752 90:0.281395 91:-0.774839 92:-0.910401 93:-0.0937735 94:-0.303636 95:0.359452 96:0.481063 97:0.138949 98:0.397436 99:0.342343 100:0.525615 101:0.345226 102:0.559079 103:0.152838 104:0.468431 105:0.409387 106:0.565217 107:0.229433 108:0.534629 109:-0.788362 110:-0.855896 111:0.232999 112:-0.459076 113:0.624152 114:0.677108 115:0.519053 116:0.509759 117:0.663326 118:0.747073 119:0.664037 120:0.751911 121:0.493842 122:0.562748 123:0.711078 124:0.837315 125:0.593776 126:0.734742 127:-0.823701 128:-0.889345 129:0.0795485 130:-0.178872 131:0.493332 132:0.687432 133:0.411042 134:0.599785 135:0.540531 136:0.756728 137:0.541605 138:0.762334 139:0.393611 140:0.73742 141:0.561335 142:0.808204 143:0.480067 144:0.825 145:-0.792362 146:-0.908624 147:-0.15636 148:-0.111566 149:0.204572 150:-0.0185185 151:0.112859 152:-0.029661 153:0.298467 154:0.165058 155:0.302124 156:0.194289 157:0.023225 158:-0.107794 159:0.319614 160:0.14671 161:0.243062 162:0.313382 163:-0.749242 164:-0.913015 165:0.0279188 166:-0.453827 167:0.425283 168:0.426462 169:0.172544 170:0.270822 171:0.434966 172:0.50379 173:0.420298 174:0.482447 175:0.172989 176:0.373653 177:0.48169 178:0.483799 179:0.263779 180:0.46729 181:-0.791237 182:-0.785891 183:0.279144 184:-0.477449 185:0.648204 186:0.71018 187:0.46244 188:0.412564 189:0.701872 190:0.714761 191:0.706157 192:0.73734 193:0.42281 194:0.488584 195:0.784658 196:0.765556 197:0.51748 198:0.662278 199:-0.795794 200:-0.760626 201:0.191233 202:-0.194628 203:0.545433 204:0.642428 205:0.431954 206:0.511135 207:0.599984 208:0.744369 209:0.590511 210:0.714136 211:0.374994 212:0.670255 213:0.598503 214:0.727835 215:0.528119 216:0.814645 
-399.8768484813638 1:-0.309329 2:-0.830776 3:0.305908 4:-0.271442 5:0.684657 6:0.761931 7:0.609858 8:0.423589 9:0.684749 10:0.478068 11:0.691653 12:0.645522 13:0.598964 14:0.637277 15:0.607195 16:0.786868 17:0.636013 18:0.773519 19:-0.29741 20:-0.825357 21:0.182247 22:-0.673176 23:0.473295 24:0.376038 25:0.278458 26:0.36488 27:0.419375 28:0.427386 29:0.422722 30:0.495917 31:0.358681 32:0.381304 33:0.252569 34:0.326305 35:0.337438 36:0.381595 37:-0.286337 38:-0.839898 39:0.55014 40:-0.355062 41:0.826396 42:0.825871 43:0.757536 44:0.663121 45:0.834994 46:0.763441 47:0.844988 48:0.832461 49:0.749045 50:0.749854 51:0.636581 52:0.835764 53:0.784726 54:0.872185 55:-0.282447 56:-0.867986 57:0.396571 58:-0.270562 59:0.681817 60:0.666864 61:0.676451 62:0.667246 63:0.749937 64:0.760618 65:0.756795 66:0.806812 67:0.652466 68:0.737129 69:0.523452 70:0.797496 71:0.705518 72:0.825815 73:-0.790216 74:-0.924905 75:-0.060284 76:0.0727401 77:0.446645 78:0.0724007 79:0.327548 80:-0.00214592 81:0.447854 82:0.218522 83:0.448875 84:0.225337 85:0.327181 86:0.134112 87:0.480539 88:0.312602 89:0.402416 90:0.466279 91:-0.823386 92:-0.933713 93:-0.161169 94:-0.378972 95:0.337808 96:0.613341 97:0.15358 98:0.548077 99:0.29898 100:0.631148 101:0.30999 102:0.661381 103:0.183708 104:0.603127 105:0.355319 106:0.602319 107:0.219407 108:0.602673 109:-0.803748 110:-0.843022 111:0.241958 112:-0.504327 113:0.682856 114:0.838554 115:0.616215 116:0.663605 117:0.704344 118:0.839578 119:0.701394 120:0.848325 121:0.604942 122:0.766042 123:0.704954 124:0.929465 125:0.684921 126:0.875587 127:-0.851074 128:-0.863028 129:0.0120477 130:-0.248499 131:0.487577 132:0.801093 133:0.438206 134:0.751073 135:0.532857 136:0.863294 137:0.533851 138:0.797347 139:0.420566 140:0.84384 141:0.539627 142:0.827051 143:0.493344 144:0.880952 145:-0.718895 146:-0.873123 147:0.0988714 148:0.121801 149:0.551229 150:0.308279 151:0.463371 152:0.216102 153:0.570563 154:0.438294 155:0.570429 156:0.4513 157:0.450862 158:0.36429 159:0.595095 160:0.588997 161:0.527432 162:0.683794 163:-0.714333 164:-0.902238 165:0.0668558 166:-0.422197 167:0.494751 168:0.658149 169:0.310196 170:0.508643 171:0.471155 172:0.635169 173:0.46374 174:0.640923 175:0.337409 176:0.60479 177:0.479079 178:0.61676 179:0.373464 180:0.601636 181:-0.731865 182:-0.821148 183:0.404143 184:-0.464178 185:0.739836 186:0.88982 187:0.654011 188:0.67176 189:0.772679 190:0.81465 191:0.774959 192:0.814135 193:0.629224 194:0.772831 195:0.758625 196:0.894444 197:0.716896 198:0.877504 199:-0.752645 200:-0.808807 201:0.21302 202:-0.211018 203:0.590968 204:0.751777 205:0.547395 206:0.675504 207:0.644556 208:0.790466 209:0.644913 210:0.795812 211:0.48516 212:0.763173 213:0.632768 214:0.753608 215:0.6105 216:0.872998 
171.571791798498 1:-0.428659 2:-0.719683 3:0.141237 4:-0.103676 5:0.382815 6:0.0679394 7:0.157236 8:-0.295089 9:0.586406 10:0.391227 11:0.588375 12:0.461754 13:-0.0809875 14:-0.229911 15:0.738955 16:0.642626 17:-0.0112468 18:0.0243902 19:-0.281095 20:-0.65393 21:0.317967 22:-0.199178 23:0.434177 24:0.0118624 25:0.0984444 26:-0.197263 27:0.650516 28:0.557054 29:0.642489 30:0.636364 31:-0.131803 32:-0.225092 33:0.689093 34:0.578281 35:-0.00208375 36:0.0110429 37:-0.306404 38:-0.661978 39:0.470643 40:-0.214286 41:0.514441 42:0.10199 43:0.268318 44:-0.146572 45:0.768321 46:0.638936 47:0.765585 48:0.673066 49:-0.00517785 50:-0.239041 51:0.837441 52:0.683414 53:0.149611 54:0.00182593 55:-0.230141 56:-0.6093 57:0.530529 58:0.0353545 59:0.444174 60:0.0326023 61:0.258441 62:-0.137391 63:0.689264 64:0.588527 65:0.686862 66:0.582356 67:0.0564115 68:-0.176257 69:0.671497 70:0.711486 71:0.154689 72:0.132832 73:-0.783739 74:-0.924323 75:-0.259747 76:0.108757 77:0.214333 78:-0.010343 79:0.0819435 80:-0.0847639 81:0.35405 82:0.383975 83:0.353393 84:0.381101 85:-0.0603764 86:-0.0951586 87:0.488855 88:0.321331 89:0.102059 90:0.365116 91:-0.713792 92:-0.881857 93:-0.144446 94:-0.12545 95:0.252073 96:0.371396 97:0.037721 98:0.196581 99:0.381099 100:0.688525 101:0.383785 102:0.671611 103:-0.110012 104:0.273602 105:0.547339 106:0.706667 107:0.0333408 108:0.45565 109:-0.74576 110:-0.870847 111:0.165788 112:-0.440726 113:0.500077 114:0.495181 115:0.357083 116:0.269805 117:0.64554 118:0.78103 119:0.641689 120:0.762493 121:0.235907 122:0.236797 123:0.778463 124:0.806598 125:0.405025 126:0.498826 127:-0.744502 128:-0.877255 129:0.111543 130:-0.0780312 131:0.372425 132:0.422951 133:0.213674 134:0.242489 135:0.545092 136:0.745963 137:0.54085 138:0.741114 139:0.0834427 140:0.299017 141:0.704136 142:0.792683 143:0.215367 144:0.566667 145:-0.778452 146:-0.902399 147:-0.180954 148:0.329922 149:0.217464 150:0.174292 151:0.116739 152:0.0455508 153:0.411338 154:0.636364 155:0.413195 156:0.658338 157:-0.0839762 158:0.00608071 159:0.5899 160:0.607335 161:0.0814628 162:0.411632 163:-0.668016 164:-0.880159 165:0.0541823 166:0.0358656 167:0.330453 168:0.210676 169:0.0945295 170:0.0015715 171:0.522874 172:0.654371 173:0.516324 174:0.645938 175:-0.122345 176:0.0502994 177:0.696667 178:0.697207 179:0.0383786 180:0.304907 181:-0.749999 182:-0.641964 183:0.30976 184:-0.355521 185:0.491745 186:0.358084 187:0.308544 188:0.123939 189:0.734806 190:0.768036 191:0.732389 192:0.770729 193:0.0697753 194:0.0582192 195:0.968696 196:0.844444 197:0.259796 198:0.302805 199:-0.713536 200:-0.560448 201:0.372618 202:0.132256 203:0.418975 204:0.238928 205:0.269752 206:0.0498409 207:0.642501 208:0.678366 209:0.635747 210:0.678534 211:0.0230005 212:0.0719547 213:0.800927 214:0.770103 215:0.241938 216:0.40389 
92.8145197927241 1:-0.236708 2:-0.320682 3:0.525743 4:0.00848256 5:0.660648 6:0.246491 7:0.443254 8:-0.169344 9:0.837638 10:0.483385 11:0.843041 12:0.551306 13:0.252395 14:-0.0680804 15:0.947086 16:0.851453 17:0.317139 18:0.1777 19:-0.159868 20:-0.366022 21:0.535837 22:-0.0783145 23:0.656573 24:0.177936 25:0.343835 26:-0.0307868 27:0.849477 28:0.685685 29:0.845273 30:0.741971 31:0.159363 32:-0.0479705 33:0.831402 34:0.754349 35:0.293477 36:0.185276 37:-0.1978 38:-0.294912 39:0.775022 40:0.240407 41:0.631582 42:0.16791 43:0.461345 44:-0.0177305 45:0.849059 46:0.573288 47:0.848834 48:0.611402 49:0.242157 50:-0.110462 51:0.819307 52:0.727715 53:0.40329 54:0.184419 55:-0.275984 56:-0.298144 57:0.761784 58:0.317824 59:0.649065 60:0.234143 61:0.492442 62:0.107246 63:0.866079 64:0.669057 65:0.871123 66:0.683975 67:0.328053 68:0.114476 69:0.784977 70:0.858465 71:0.443495 72:0.384712 73:-0.480797 74:-0.780712 75:0.210898 76:0.284605 77:0.601134 78:0.429505 79:0.441234 80:0.248927 81:0.672114 82:0.673257 83:0.673265 84:0.669782 85:0.37384 86:0.372287 87:0.777191 88:0.776323 89:0.454164 90:0.638372 91:-0.436621 92:-0.73564 93:0.158141 94:-0.0540452 95:0.465161 96:0.504805 97:0.241762 98:0.274573 99:0.562782 100:0.723361 101:0.566423 102:0.69821 103:0.132139 104:0.390259 105:0.70526 106:0.786667 107:0.238716 108:0.545565 109:-0.418157 110:-0.861233 111:0.427793 112:-0.36211 113:0.618385 114:0.586747 115:0.489995 116:0.331803 117:0.726968 118:0.755269 119:0.723273 120:0.755438 121:0.404596 122:0.346962 123:0.809303 124:0.86917 125:0.552071 126:0.573944 127:-0.46418 128:-0.856518 129:0.322646 130:-0.0132053 131:0.504254 132:0.464481 133:0.321872 134:0.259657 135:0.64232 136:0.748116 137:0.636617 138:0.713528 139:0.223994 140:0.361481 141:0.782956 142:0.854767 143:0.343875 144:0.619048 145:-0.460538 146:-0.742791 147:0.336677 148:0.448652 149:0.649526 150:0.674292 151:0.526871 152:0.430085 153:0.750291 154:0.835449 155:0.749512 156:0.862315 157:0.436093 158:0.483693 159:0.874913 160:0.94822 161:0.50747 162:0.684924 163:-0.328258 164:-0.750309 165:0.351532 166:0.1268 167:0.572977 168:0.423055 169:0.347973 170:0.124149 171:0.720392 172:0.741283 173:0.714928 174:0.71013 175:0.192514 176:0.253892 177:0.839938 178:0.87933 179:0.325796 180:0.478972 181:-0.411804 182:-0.730501 183:0.599303 184:-0.25661 185:0.644921 186:0.518563 187:0.503897 188:0.250707 189:0.807003 190:0.703663 191:0.803579 192:0.706177 193:0.356715 194:0.268265 195:0.910077 196:0.87 197:0.52234 198:0.490555 199:-0.377587 200:-0.688679 201:0.563606 202:0.218302 203:0.592796 204:0.388737 205:0.459009 206:0.169671 207:0.768822 208:0.68989 209:0.767758 210:0.687958 211:0.266471 212:0.260057 213:0.891912 214:0.76701 215:0.46308 216:0.556064 
-1024 1:-0.80585 2:-0.938744 3:-0.219005 4:-0.544769 5:0.123569 6:-0.0735542 7:0.187567 8:-0.238183 9:0.288484 10:0.0660168 11:0.28421 12:0.0886194 13:0.0129529 14:-0.252232 15:0.230051 16:0.073197 17:0.165158 18:0.16144 19:-0.744378 20:-0.942071 21:-0.198445 22:-0.66372 23:0.120267 24:0.241993 25:0.0844419 26:0.161916 27:0.236345 28:0.479253 29:0.241333 30:0.550354 31:-0.010229 32:0.0934809 33:0.134515 34:0.29573 35:0.0234173 36:0.192638 37:-0.786087 38:-0.931366 39:0.14762 40:-0.546926 41:0.516176 42:0.396766 43:0.484271 44:0.248227 45:0.629075 46:0.608376 47:0.626962 48:0.639325 49:0.376785 50:0.116306 51:0.523349 52:0.494327 53:0.422108 54:0.364577 55:-0.740137 56:-0.942473 57:0.0581586 58:-0.39989 59:0.391514 60:0.423829 61:0.37034 62:0.222029 63:0.539892 64:0.736349 65:0.555507 66:0.738693 67:0.261716 68:0.192005 69:0.454875 70:0.617855 71:0.292773 72:0.349624 73:-0.892217 74:-0.967206 75:-0.43955 76:-0.396186 77:-0.0358284 78:-0.307567 79:-0.014847 80:-0.25 81:0.0906923 82:-0.074922 83:0.0850347 84:-0.0965732 85:-0.137806 86:-0.377852 87:0.0817744 88:-0.182761 89:0.0743035 90:0.0453488 91:-0.887436 92:-0.958531 93:-0.368248 94:-0.484442 95:0.108276 96:0.150933 97:0.0857703 98:0.161325 99:0.152614 100:0.273566 101:0.154091 102:0.239898 103:0.0344241 104:0.159351 105:0.183918 106:0.29971 107:0.0883615 108:0.301337 109:-0.8894 110:-0.861941 111:-0.0288584 112:-0.666562 113:0.425352 114:0.283133 115:0.446422 116:0.287026 117:0.487199 118:0.461358 119:0.476307 120:0.436802 121:0.399056 122:0.141397 123:0.495074 124:0.333333 125:0.428963 126:0.352113 127:-0.90366 128:-0.889641 129:-0.123896 130:-0.263866 131:0.329566 132:0.4 133:0.333548 134:0.378755 135:0.409017 136:0.573735 137:0.404454 138:0.531034 139:0.291065 140:0.378832 141:0.414937 142:0.558758 143:0.328249 144:0.57619 145:-0.908189 146:-0.963518 147:-0.384794 148:-0.352439 149:-0.0253788 150:-0.232026 151:0.00866508 152:-0.186441 153:0.132118 154:0.0269172 155:0.127468 156:0.0045895 157:-0.143663 158:-0.342178 159:0.143325 160:-0.111111 161:0.0705069 162:0.0750988 163:-0.892035 164:-0.964569 165:-0.307924 166:-0.522734 167:0.130992 168:0.211811 169:0.1066 170:0.154531 171:0.221177 172:0.357251 173:0.209283 174:0.334002 175:0.0189058 176:0.150898 177:0.24422 178:0.305028 179:0.0841665 180:0.311916 181:-0.902729 182:-0.811433 183:0.053412 184:-0.625505 185:0.393063 186:0.324551 187:0.416766 188:0.271081 189:0.511046 190:0.473918 191:0.509897 192:0.475793 193:0.31003 194:0.116438 195:0.520794 196:0.368889 197:0.373444 198:0.352032 199:-0.895641 200:-0.81693 201:-0.0269287 202:-0.231049 203:0.369499 204:0.428103 205:0.365929 206:0.345705 207:0.47151 208:0.614458 209:0.475284 210:0.616754 211:0.253444 212:0.317847 213:0.4917 214:0.534021 215:0.354759 216:0.532037 
794.8027749460736 1:-0.583432 2:-0.742199 3:0.53814 4:-0.0819981 5:0.753368 6:0.591241 7:0.788757 8:0.286829 9:0.858469 10:0.563137 11:0.872337 12:0.64459 13:0.676731 14:0.405134 15:0.816557 16:0.87944 17:0.712567 18:0.58885 19:-0.545222 20:-0.813432 21:0.322218 22:-0.259198 23:0.621322 24:0.485172 25:0.532743 26:0.313569 27:0.72219 28:0.773859 29:0.731188 30:0.839956 31:0.461408 32:0.234932 33:0.572045 34:0.727992 35:0.517948 36:0.358282 37:-0.59801 38:-0.708899 39:0.732036 40:-0.255895 41:0.808092 42:0.578358 43:0.756756 44:0.390071 45:0.904075 46:0.724958 47:0.906319 48:0.774287 49:0.669928 50:0.330216 51:0.755651 52:0.811994 53:0.723991 54:0.531345 55:-0.606306 56:-0.769212 57:0.619449 58:-0.0555047 59:0.712386 60:0.480735 61:0.663004 62:0.285797 63:0.864786 64:0.751793 65:0.87417 66:0.754327 67:0.562981 68:0.314355 69:0.734746 70:0.846489 71:0.590783 72:0.413534 73:-0.629762 74:-0.839331 75:0.307552 76:0.344633 77:0.713528 78:0.711486 79:0.697328 80:0.689914 81:0.756254 82:0.879292 83:0.761458 84:0.878505 85:0.648249 86:0.683918 87:0.796393 88:0.919258 89:0.688165 90:0.839535 91:-0.674312 92:-0.86727 93:0.12124 94:0.0507697 95:0.553111 96:0.723007 97:0.506924 98:0.619658 99:0.605045 100:0.853484 101:0.615546 102:0.862916 103:0.440832 104:0.574263 105:0.662167 106:0.923478 107:0.481251 108:0.688943 109:-0.652908 110:-0.747949 111:0.542367 112:-0.384423 113:0.776177 114:0.768675 115:0.765572 116:0.671642 117:0.841424 118:0.839578 119:0.835317 120:0.835391 121:0.713159 122:0.64452 123:0.869111 124:0.935154 125:0.768654 126:0.760563 127:-0.714079 128:-0.800674 129:0.38414 130:0.0511405 131:0.650709 132:0.628415 133:0.585777 134:0.498927 135:0.741115 136:0.815931 137:0.743556 138:0.770822 139:0.518634 140:0.537305 141:0.836801 142:0.906874 143:0.572199 144:0.663095 145:-0.615982 146:-0.781016 147:0.365263 148:0.365404 149:0.695031 150:0.724401 151:0.701696 152:0.666314 153:0.779763 154:0.889284 155:0.78157 156:0.90515 157:0.622018 158:0.610835 159:0.833043 160:0.963323 161:0.677431 162:0.748165 163:-0.577114 164:-0.824123 165:0.211639 166:-0.0494211 167:0.559854 168:0.642249 169:0.519539 170:0.416448 171:0.665638 172:0.888833 173:0.667875 174:0.85657 175:0.407878 176:0.4 177:0.684791 178:0.909497 179:0.476864 180:0.538551 181:-0.603758 182:-0.776028 183:0.620925 184:-0.350544 185:0.741233 186:0.695808 187:0.728104 188:0.501981 189:0.847773 190:0.765816 191:0.851262 192:0.775181 193:0.629529 194:0.476027 195:0.87933 196:0.886667 197:0.703297 198:0.615341 199:-0.585818 200:-0.767344 201:0.493551 202:0.0507626 203:0.674097 204:0.560416 205:0.616101 206:0.328738 207:0.80878 208:0.801991 209:0.801148 210:0.815707 211:0.474111 212:0.332578 213:0.903996 214:0.795876 215:0.579241 216:0.488558 
8.259850537862642 1:-0.760538 2:-0.936857 3:-0.122469 4:-0.256362 5:0.175758 6:-0.195957 7:0.370038 8:-0.0279945 9:0.431893 10:0.167922 11:0.433239 12:0.213619 13:0.110222 14:-0.0904018 15:0.39375 16:0.392896 17:0.253169 18:0.457607 19:-0.729382 20:-0.937691 21:-0.100493 22:-0.667009 23:0.133878 24:0.441281 25:0.241317 26:0.532497 27:0.31637 28:0.592324 29:0.312836 30:0.664671 31:0.0954136 32:0.450185 33:0.219334 34:0.409594 35:0.117179 36:0.525153 37:-0.724537 38:-0.937678 39:0.223034 40:-0.412159 41:0.567528 42:0.483831 43:0.669394 44:0.665485 45:0.736049 46:0.830221 47:0.746431 48:0.867365 49:0.505538 50:0.385155 51:0.623563 52:0.78174 53:0.560967 54:0.623859 55:-0.697945 56:-0.94752 57:0.0266033 58:-0.422605 59:0.42551 60:0.577949 61:0.535005 62:0.674203 63:0.59393 64:0.844457 65:0.596436 66:0.850363 67:0.415655 68:0.546941 69:0.449062 70:0.765923 71:0.436922 72:0.666667 73:-0.867134 74:-0.960399 75:-0.268489 76:0.287429 77:0.240019 78:-0.00598802 79:0.332355 80:0.236052 81:0.384407 82:0.455775 83:0.38512 84:0.444444 85:0.189578 86:0.147468 87:0.429994 88:0.503546 89:0.332322 90:0.716279 91:-0.875135 92:-0.958858 93:-0.286961 94:-0.0789387 95:0.233231 96:0.69022 97:0.284099 98:0.824786 99:0.325892 100:0.862705 101:0.325916 102:0.846547 103:0.184114 104:0.711365 105:0.377679 106:0.817971 107:0.232348 108:0.801944 109:-0.874849 110:-0.764271 111:0.17299 112:-0.441977 113:0.62825 114:0.76988 115:0.690934 116:0.863375 117:0.724591 118:0.944965 119:0.722599 120:0.931805 121:0.606209 122:0.743328 123:0.753703 124:0.949943 125:0.66739 126:0.867371 127:-0.903779 128:-0.829687 129:-0.00275719 130:-0.0852341 131:0.435946 132:0.684153 133:0.521758 134:0.790773 135:0.567897 136:0.880517 137:0.563377 138:0.858886 139:0.421181 140:0.755928 141:0.58988 142:0.894678 143:0.493546 144:0.859524 145:-0.880765 146:-0.935956 147:-0.235054 148:0.290345 149:0.195958 150:-0.0522876 151:0.309986 152:0.188559 153:0.390037 154:0.411884 155:0.38967 156:0.408465 157:0.122908 158:0.0613599 159:0.450854 160:0.477886 161:0.283621 162:0.603614 163:-0.8723 164:-0.943066 165:-0.186999 166:-0.311494 167:0.209386 168:0.563884 169:0.284465 170:0.623887 171:0.351183 172:0.756443 173:0.339782 174:0.759278 175:0.145211 176:0.518563 177:0.389018 178:0.692737 179:0.216103 180:0.663551 181:-0.867013 182:-0.826859 183:0.225063 184:-0.42084 185:0.552189 186:0.617964 187:0.642472 188:0.72043 189:0.725306 190:0.873474 191:0.727854 192:0.869783 193:0.478563 194:0.53653 195:0.772807 196:0.908889 197:0.575165 198:0.685175 199:-0.866547 200:-0.849153 201:0.0665309 202:-0.154564 203:0.435433 204:0.616184 205:0.511634 206:0.647932 207:0.577267 208:0.876375 209:0.572198 210:0.857592 211:0.363356 212:0.556941 213:0.59613 214:0.757732 215:0.459461 216:0.7254 
1024 1:-0.253778 2:-0.74272 3:0.30854 4:-0.0414703 5:0.325179 6:0.0196519 7:0.587724 8:0.161083 9:0.637637 10:0.349579 11:0.642587 12:0.428172 13:0.27938 14:0.0658482 15:0.643785 16:0.620022 17:0.375223 18:0.367015 19:-0.0991333 20:-0.708109 21:0.405195 22:-0.0651593 23:0.282303 24:-0.0332147 25:0.564923 26:0.396807 27:0.65391 28:0.525934 29:0.655513 30:0.635275 31:0.24226 32:0.104551 33:0.560913 34:0.59515 35:0.354274 36:0.33865 37:-0.127665 38:-0.707533 39:0.538517 40:-0.319926 41:0.429963 42:0.10199 43:0.695977 44:0.451537 45:0.758112 46:0.601585 47:0.776273 48:0.682373 49:0.375566 50:0.130333 51:0.684125 52:0.702863 53:0.487795 54:0.379184 55:-0.0199324 56:-0.679201 57:0.545095 58:-0.0686939 59:0.341477 60:0.0171903 61:0.63719 62:0.40058 63:0.689696 64:0.501379 65:0.701656 66:0.561139 67:0.348089 68:0.17868 69:0.567117 70:0.629831 71:0.438073 72:0.486216 73:-0.556216 74:-0.794768 75:0.196507 76:0.142655 77:0.493455 78:0.301034 79:0.562731 80:0.464592 81:0.615954 82:0.634755 83:0.617091 84:0.633437 85:0.439712 86:0.325543 87:0.650793 88:0.642117 89:0.527562 90:0.612791 91:-0.500286 92:-0.755823 93:0.18235 94:0.0474943 95:0.38153 96:0.269644 97:0.499937 98:0.553419 99:0.565336 100:0.692623 101:0.582449 102:0.68491 103:0.29874 104:0.339747 105:0.630764 106:0.782029 107:0.405499 108:0.552855 109:-0.518686 110:-0.81914 111:0.455775 112:-0.441768 113:0.58277 114:0.448193 115:0.678514 116:0.595867 117:0.734211 118:0.71897 119:0.739547 120:0.734274 121:0.540755 122:0.450312 123:0.775806 124:0.797497 125:0.647668 126:0.618545 127:-0.533351 128:-0.835451 129:0.40276 130:-0.000720288 131:0.445788 132:0.280874 133:0.591278 134:0.51073 135:0.664953 136:0.643703 137:0.658144 138:0.646684 139:0.406988 140:0.423944 141:0.711008 142:0.728381 143:0.517859 144:0.679762 145:-0.420465 146:-0.635774 147:0.345805 148:0.203002 149:0.486424 150:0.295207 151:0.623376 152:0.508475 153:0.691361 154:0.65871 155:0.694059 156:0.671596 157:0.425614 158:0.337756 159:0.75554 160:0.717368 161:0.536817 162:0.584416 163:-0.306163 164:-0.645305 165:0.424383 166:0.0477266 167:0.416372 168:0.159568 169:0.642813 170:0.435306 171:0.71004 172:0.616978 173:0.71949 174:0.618857 175:0.340869 176:0.251497 177:0.759654 178:0.77095 179:0.467264 180:0.481308 181:-0.377928 182:-0.560931 183:0.591268 184:-0.381234 185:0.504851 186:0.311377 187:0.682616 188:0.505376 189:0.760652 190:0.645949 191:0.770446 192:0.648303 193:0.434066 194:0.315068 195:0.814103 196:0.787778 197:0.579323 198:0.526045 199:-0.338431 200:-0.444452 201:0.599905 202:0.168222 203:0.445109 204:0.170038 205:0.672855 206:0.437964 207:0.730677 208:0.577789 209:0.72821 210:0.57801 211:0.378619 212:0.320113 213:0.77623 214:0.651546 215:0.566082 216:0.602975 
-582.066016059527 1:-0.62965 2:-0.717487 3:0.246935 4:-0.0216777 5:0.358063 6:0.145424 7:0.602807 8:0.25654 9:0.662272 10:0.46389 11:0.66506 12:0.535448 13:0.30314 14:0.178571 15:0.667139 16:0.756728 17:0.402128 18:0.447154 19:-0.557695 20:-0.713599 21:0.341246 22:-0.0729702 23:0.306222 24:0.0332147 25:0.576111 26:0.474344 27:0.674156 28:0.610996 29:0.679534 30:0.724551 31:0.254012 32:0.162362 33:0.575477 34:0.676331 35:0.384851 36:0.384049 37:-0.595382 38:-0.626395 39:0.551062 40:-0.26699 41:0.477869 42:0.176617 43:0.73364 44:0.508274 45:0.800854 46:0.67176 47:0.81674 48:0.73822 49:0.420143 50:0.201636 51:0.720399 52:0.757969 53:0.535319 54:0.431528 55:-0.565399 56:-0.611657 57:0.555139 58:-0.000915919 59:0.385431 60:0.0800237 61:0.681984 62:0.466667 63:0.721795 64:0.573083 65:0.738909 66:0.61474 67:0.403255 68:0.250151 69:0.591328 70:0.738704 71:0.484307 72:0.538847 73:-0.60494 74:-0.818119 75:0.202836 76:0.321328 77:0.554979 78:0.4589 79:0.614342 80:0.618026 81:0.655124 82:0.780437 83:0.653774 84:0.771547 85:0.513418 86:0.518086 87:0.690589 88:0.822149 89:0.577598 90:0.756977 91:-0.559363 92:-0.791146 93:0.144625 94:0.160825 95:0.41658 96:0.357829 97:0.519542 98:0.626068 99:0.578303 100:0.758197 101:0.592481 102:0.774936 103:0.34203 104:0.428743 105:0.641321 106:0.863188 107:0.430567 108:0.624544 109:-0.586062 110:-0.808425 111:0.485299 112:-0.39047 113:0.639866 114:0.554217 115:0.734692 116:0.676234 117:0.786784 118:0.79274 119:0.786651 120:0.793063 121:0.603226 122:0.568427 123:0.826875 124:0.86917 125:0.704262 126:0.704225 127:-0.611661 128:-0.841964 129:0.398456 130:0.0218487 131:0.510817 132:0.367213 133:0.640438 134:0.591202 135:0.712317 136:0.741658 137:0.702497 138:0.69443 139:0.471849 140:0.509543 141:0.76294 142:0.797118 143:0.563485 144:0.678571 145:-0.480708 146:-0.65417 147:0.357972 148:0.382463 149:0.547092 150:0.428105 151:0.672993 152:0.634534 153:0.734471 154:0.797867 155:0.735844 156:0.790923 157:0.49322 158:0.489221 159:0.80371 160:0.884574 161:0.587538 162:0.673631 163:-0.376265 164:-0.675406 165:0.400418 166:0.183282 167:0.440146 168:0.212947 169:0.652013 170:0.484547 171:0.721671 172:0.66953 173:0.725869 174:0.658977 175:0.364753 176:0.311377 177:0.767255 178:0.826816 179:0.492445 180:0.517523 181:-0.446998 182:-0.556555 183:0.619569 184:-0.327112 185:0.559888 186:0.383234 187:0.731532 188:0.564233 189:0.806772 190:0.698113 191:0.820822 192:0.698386 193:0.489482 194:0.400685 195:0.858856 196:0.85 197:0.640645 198:0.580996 199:-0.418686 200:-0.47496 201:0.611825 202:0.21557 203:0.491184 204:0.213778 205:0.704433 206:0.489926 207:0.757816 208:0.642745 209:0.753205 210:0.61466 211:0.430475 212:0.369972 213:0.807613 214:0.694845 215:0.585904 216:0.602975 
-1024 1:-0.556405 2:-0.658803 3:0.285851 4:-0.179076 5:0.339017 6:0.0140371 7:0.559788 8:0.128958 9:0.621341 10:0.310589 11:0.62473 12:0.392724 13:0.279432 14:0.0569196 15:0.621742 16:0.59634 17:0.370534 18:0.376307 19:-0.504775 20:-0.633899 21:0.399357 22:-0.211922 23:0.318307 24:-0.0189798 25:0.559949 26:0.405929 27:0.654068 28:0.521784 29:0.658347 30:0.606968 31:0.269434 32:0.126691 33:0.551959 34:0.61729 35:0.382402 36:0.35092 37:-0.502837 38:-0.630957 39:0.543223 40:-0.331022 41:0.473141 42:0.14801 43:0.69702 44:0.475177 45:0.7686 46:0.631013 47:0.782557 48:0.696335 49:0.409748 50:0.164231 51:0.6818 52:0.747164 53:0.516608 54:0.410834 55:-0.474881 56:-0.618403 57:0.534011 58:-0.0859132 59:0.383165 60:0.0634262 61:0.647663 62:0.421449 63:0.700777 64:0.548814 65:0.722087 66:0.579006 67:0.382989 68:0.224712 69:0.579194 70:0.698421 71:0.468259 72:0.512531 73:-0.731696 74:-0.893795 75:-0.0206974 76:-0.0748588 77:0.330506 78:0.0157866 79:0.399675 80:0.217811 81:0.45183 82:0.372529 83:0.45697 84:0.392523 85:0.27685 86:0.0728993 87:0.481502 88:0.37916 89:0.371712 90:0.406977 91:-0.706382 92:-0.874415 93:-0.0491714 94:-0.169342 95:0.227487 96:0.201809 97:0.344522 98:0.467949 99:0.403475 100:0.558402 101:0.414892 102:0.588747 103:0.155029 104:0.290439 105:0.459133 106:0.626667 107:0.259485 108:0.465371 109:-0.714776 110:-0.81369 111:0.293374 112:-0.516005 113:0.507586 114:0.418072 115:0.609558 116:0.584386 117:0.663756 118:0.714286 119:0.664535 120:0.727219 121:0.469576 122:0.392391 123:0.698696 124:0.724687 125:0.578811 126:0.603286 127:-0.729731 128:-0.83139 129:0.231286 130:-0.110204 131:0.363056 132:0.296175 133:0.522422 134:0.538627 135:0.590143 136:0.673843 137:0.586644 138:0.647745 139:0.332428 140:0.430885 141:0.637449 142:0.713969 143:0.448121 144:0.678571 145:-0.64116 146:-0.793151 147:0.155485 148:0.020812 149:0.362822 150:0.135076 151:0.496499 152:0.396186 153:0.563204 154:0.550025 155:0.568664 156:0.586945 157:0.301532 158:0.21393 159:0.619549 160:0.596548 161:0.423963 162:0.514399 163:-0.570256 164:-0.805816 165:0.221383 166:-0.148263 167:0.309556 168:0.157297 169:0.514064 170:0.417496 171:0.594645 172:0.591713 173:0.593287 174:0.602808 175:0.225302 176:0.250299 177:0.633515 178:0.680447 179:0.366758 180:0.468458 181:-0.609447 182:-0.654992 183:0.455541 184:-0.439502 185:0.466382 186:0.328144 187:0.624437 188:0.516695 189:0.711084 190:0.670366 191:0.721879 192:0.672788 193:0.38625 194:0.336758 195:0.764794 196:0.803333 197:0.530327 198:0.5581 199:-0.577391 200:-0.565811 201:0.456432 202:0.0421125 203:0.390313 204:0.166758 205:0.608387 206:0.463415 207:0.659788 208:0.598743 209:0.65981 210:0.586387 211:0.329587 212:0.313314 213:0.702849 214:0.640206 215:0.497216 216:0.575515 
598.4355757627594 1:-0.679672 2:-0.862268 3:0.339034 4:-0.51508 5:0.388303 6:0.00280741 7:0.457177 8:-0.17944 9:0.474482 10:-0.206912 11:0.58667 12:0.280784 13:0.310338 14:-0.168527 15:0.436987 16:-0.0441335 17:0.416225 18:0.195122 19:-0.662077 20:-0.903236 21:0.225679 22:-0.604933 23:0.441957 24:0.32503 25:0.358541 26:0.152794 27:0.465235 28:0.15249 29:0.496348 30:0.477409 31:0.350802 32:0.182042 33:0.28759 34:0.136531 35:0.420816 36:0.294479 37:-0.699865 38:-0.855246 39:0.446597 40:-0.588072 41:0.635829 42:0.483831 43:0.598054 44:0.368794 45:0.661633 46:0.371817 47:0.721173 48:0.769634 49:0.546945 50:0.249562 51:0.493776 52:0.400324 53:0.636439 54:0.592209 55:-0.692006 56:-0.892863 57:0.378822 58:-0.364352 59:0.637156 60:0.505631 61:0.594681 62:0.42029 63:0.632537 64:0.421953 65:0.676417 66:0.634841 67:0.618902 68:0.551787 69:0.446992 70:0.529668 71:0.569475 72:0.675439 73:-0.762213 74:-0.95481 75:-0.103453 76:-0.216102 77:0.176036 78:-0.13337 79:0.223928 80:-0.101931 81:0.258172 82:-0.0520291 83:0.318056 84:0.156802 85:0.11319 86:-0.174179 87:0.299394 88:-0.0551009 89:0.235103 90:0.132558 91:-0.687653 92:-0.93977 93:-0.254266 94:-0.348182 95:0.141369 96:0.330695 97:0.146299 98:0.174145 99:0.210533 100:0.266393 101:0.228424 102:0.456777 103:0.0613415 104:0.212267 105:0.249174 106:0.329855 107:0.131087 108:0.335358 109:-0.859762 110:-0.603107 111:0.168567 112:-0.620895 113:0.496534 114:0.445783 115:0.544124 116:0.456946 117:0.578591 118:0.503513 119:0.607466 120:0.697825 121:0.459851 122:0.282226 123:0.602887 124:0.45165 125:0.529891 126:0.577465 127:-0.892572 128:-0.64191 129:0.084787 130:-0.207683 131:0.426602 132:0.488525 133:0.455706 134:0.565451 135:0.499517 136:0.526372 137:0.491023 138:0.678515 139:0.414834 140:0.581261 141:0.488801 142:0.662971 143:0.442162 144:0.732143 145:-0.751044 146:-0.893845 147:0.149942 148:-0.310133 149:0.256103 150:-0.147059 151:0.300391 152:-0.14089 153:0.347019 154:-0.136618 155:0.436339 156:0.107598 157:0.170931 158:-0.219458 159:0.41377 160:-0.122977 161:0.318645 162:0.00395257 163:-0.707541 164:-0.913846 165:-0.0356944 166:-0.437447 167:0.316028 168:0.22544 169:0.243541 170:0.0644316 171:0.355697 172:0.125821 173:0.38947 174:0.465396 175:0.183982 176:0.0311377 177:0.363129 178:0.12067 179:0.26589 180:0.228972 181:-0.777013 182:-0.872449 183:0.348782 184:-0.691239 185:0.484086 186:0.269461 187:0.468247 188:0.238257 189:0.574161 190:0.201998 191:0.627371 192:0.549249 193:0.362743 194:0.053653 195:0.577505 196:0.216667 197:0.500961 198:0.344018 199:-0.769211 200:-0.898891 201:0.245495 202:-0.330753 203:0.472448 204:0.382176 205:0.474019 206:0.397667 207:0.523546 208:0.359874 209:0.596535 210:0.770681 211:0.377714 212:0.314448 213:0.528975 214:0.38866 215:0.496361 216:0.697941 
-853.9562830370315 1:-0.598638 2:-0.833053 3:0.428053 4:-0.468426 5:0.442018 6:-0.0308815 7:0.512849 8:-0.208811 9:0.556212 10:-0.0988037 11:0.60839 12:0.0438433 13:0.36946 14:-0.09375 15:0.508602 16:0.0968784 17:0.471118 18:0.173055 19:-0.602191 20:-0.902635 21:0.35213 22:-0.586845 23:0.517156 24:0.243179 25:0.431364 26:0.0718358 27:0.558985 28:0.254149 29:0.557303 30:0.331519 31:0.422725 32:0.151292 33:0.36833 34:0.210332 35:0.465232 36:0.164417 37:-0.661449 38:-0.683978 39:0.525403 40:-0.555941 41:0.686449 42:0.487562 43:0.650872 44:0.353428 45:0.721086 46:0.505376 47:0.742044 48:0.578825 49:0.610394 50:0.308007 51:0.536728 52:0.470556 53:0.649197 54:0.527693 55:-0.697344 56:-0.748073 57:0.432208 58:-0.460341 59:0.652417 60:0.521043 61:0.604049 62:0.406377 63:0.696345 64:0.583012 65:0.721559 66:0.638191 67:0.594406 68:0.494852 69:0.508888 70:0.654872 71:0.59034 72:0.642857 73:-0.666573 74:-0.915822 75:0.0754396 76:-0.195621 77:0.254571 78:-0.0843767 79:0.319888 80:-0.0515021 81:0.366058 82:0.074922 83:0.406047 84:0.137072 85:0.189877 86:-0.11074 87:0.410843 88:0.0572831 89:0.321361 90:0.183721 91:-0.600172 92:-0.900046 93:-0.0553404 94:-0.345562 95:0.249158 96:0.235726 97:0.262422 98:0.144231 99:0.348393 100:0.294057 101:0.349797 102:0.351407 103:0.154698 104:0.207456 105:0.395015 106:0.390145 107:0.224834 108:0.239368 109:-0.761778 110:-0.719609 111:0.297534 112:-0.59316 113:0.546853 114:0.437349 115:0.594847 116:0.455798 117:0.648591 118:0.574941 119:0.659665 120:0.608466 121:0.500822 122:0.357183 123:0.684387 124:0.506257 125:0.570912 126:0.551643 127:-0.80817 128:-0.77286 129:0.242311 130:-0.255222 131:0.477011 132:0.457923 133:0.509708 134:0.490343 135:0.577069 136:0.640474 137:0.554386 138:0.605305 139:0.447784 140:0.555813 141:0.577261 142:0.650776 143:0.480532 144:0.65119 145:-0.644225 146:-0.830773 147:0.296372 148:-0.321051 149:0.308398 150:-0.189542 151:0.362123 152:-0.169492 153:0.418613 154:-0.116303 155:0.479999 156:-0.0300867 157:0.227817 158:-0.206191 159:0.485947 160:-0.0841424 161:0.374969 162:-0.0321852 163:-0.607781 164:-0.876753 165:0.128731 166:-0.462299 167:0.383236 168:0.032368 169:0.305319 170:-0.113672 171:0.429273 172:0.0742799 173:0.440635 174:0.120361 175:0.250599 176:-0.0682635 177:0.434328 178:0.0648045 179:0.309755 180:0.010514 181:-0.696449 182:-0.765831 183:0.438661 184:-0.702022 185:0.495084 186:0.154491 187:0.499339 188:0.104697 189:0.618957 190:0.209767 191:0.628269 192:0.260991 193:0.38182 194:0.0136986 195:0.618256 196:0.181111 197:0.501423 198:0.17573 199:-0.710342 200:-0.795649 201:0.341523 202:-0.424084 203:0.479108 204:0.210498 205:0.485731 206:0.202545 207:0.577824 208:0.349398 209:0.589798 210:0.430366 211:0.37206 212:0.159207 213:0.570896 214:0.314433 215:0.466017 216:0.407323 
1024 1:-0.723784 2:-0.778151 3:0.398804 4:-0.394439 5:0.492975 6:0.169006 7:0.550799 8:-0.0573658 9:0.603485 10:0.149313 11:0.647429 12:0.26959 13:0.4156 14:0.0345982 15:0.530766 16:0.304629 17:0.526108 18:0.370499 19:-0.731269 20:-0.866221 21:0.259571 22:-0.584378 23:0.507091 24:0.371293 25:0.398968 26:0.163056 27:0.527068 28:0.374481 29:0.538103 30:0.445836 31:0.404803 32:0.233702 33:0.342234 34:0.286241 35:0.454894 36:0.233129 37:-0.767109 38:-0.727597 39:0.540148 40:-0.461627 41:0.74659 42:0.670398 43:0.677156 44:0.449173 45:0.774443 46:0.661573 47:0.797267 48:0.725422 49:0.643868 50:0.479836 51:0.593088 52:0.701783 53:0.71362 54:0.684723 55:-0.793074 56:-0.808842 57:0.410857 58:-0.399157 59:0.703386 60:0.677534 61:0.629078 62:0.486377 63:0.742148 64:0.761721 65:0.746677 66:0.757677 67:0.635126 68:0.629316 69:0.537103 70:0.816004 71:0.628302 72:0.721805 73:-0.754677 74:-0.95289 75:-0.0816119 76:-0.111582 77:0.182538 78:-0.143168 79:0.221877 80:-0.133047 81:0.263894 82:0.0353798 83:0.290422 84:0.0332295 85:0.128432 86:-0.15192 87:0.291461 88:0.00272777 89:0.23462 90:0.103488 91:-0.682035 92:-0.938592 93:-0.243953 94:-0.337701 95:0.14828 96:0.309214 97:0.158381 98:0.163462 99:0.23704 100:0.356557 101:0.234076 102:0.395396 103:0.0640655 104:0.227901 105:0.279746 106:0.382029 107:0.124641 108:0.285541 109:-0.855518 110:-0.613592 111:0.183433 112:-0.61026 113:0.529397 114:0.460241 115:0.573984 116:0.446613 117:0.622734 118:0.577283 119:0.633878 120:0.604938 121:0.487587 122:0.341283 123:0.646409 124:0.511945 125:0.559849 126:0.545775 127:-0.890305 128:-0.666685 129:0.0832024 130:-0.287395 131:0.414268 132:0.542077 133:0.450854 134:0.5397 135:0.507501 136:0.650161 137:0.514561 138:0.625464 139:0.384315 140:0.580104 141:0.521905 142:0.685144 143:0.423628 144:0.684524 145:-0.744 146:-0.894308 147:0.169171 148:-0.220061 149:0.279668 150:-0.111111 151:0.321053 152:-0.141949 153:0.383001 154:-0.00863382 155:0.429184 156:-0.00560938 157:0.201151 158:-0.138751 159:0.434133 160:-0.0151025 161:0.338409 162:0.0491248 163:-0.702857 164:-0.916726 165:-0.0391845 166:-0.447049 167:0.324163 168:0.222033 169:0.23855 170:0.0267156 171:0.367968 172:0.295604 173:0.367851 174:0.265797 175:0.192207 176:0.0826347 177:0.371736 178:0.205587 179:0.249432 180:0.176402 181:-0.779998 182:-0.855995 183:0.371363 184:-0.634837 185:0.525545 186:0.383234 187:0.523554 188:0.27674 189:0.642405 190:0.479467 191:0.636707 192:0.449082 193:0.420177 194:0.16895 195:0.627919 196:0.367778 197:0.526829 198:0.395535 199:-0.777242 200:-0.887603 201:0.227683 202:-0.353062 203:0.496556 204:0.441225 205:0.474955 206:0.372216 207:0.579819 208:0.638554 209:0.574649 210:0.631414 211:0.385745 212:0.374504 213:0.568957 214:0.542268 215:0.457401 216:0.625858 
-498.6120146346047 1:-0.683393 2:-0.89103 3:-0.148954 4:-0.31197 5:0.21755 6:0.281303 7:0.187032 8:-0.0417623 9:0.321979 10:0.204253 11:0.33521 12:0.294776 13:0.0639859 14:0.159598 15:0.205233 16:0.40366 17:0.304534 18:0.632985 19:-0.530409 20:-0.815921 21:-0.10333 22:-0.738129 23:0.154852 24:0.366548 25:0.055664 26:0.04561 27:0.253362 28:0.227178 29:0.285615 30:0.46761 31:-0.0395652 32:0.264453 33:0.0304206 34:0.30311 35:0.271097 36:0.73865 37:-0.619261 38:-0.857901 39:0.0813553 40:-0.608877 41:0.482031 42:0.568408 43:0.429954 44:0.35461 45:0.565949 46:0.616299 47:0.578679 48:0.714951 49:0.342609 50:0.424898 51:0.406378 52:0.699622 53:0.499837 54:0.779671 55:-0.315801 56:-0.79195 57:-0.196487 58:-0.631801 59:0.145086 60:0.368109 61:0.0468424 62:-0.0237681 63:0.217796 64:0.332598 65:0.292477 66:0.461753 67:-0.026221 68:0.259843 69:0.0398377 70:0.466522 71:0.268742 72:0.794486 73:-0.638224 74:-0.860384 75:-0.366318 76:-0.139831 77:0.0897822 78:0.289058 79:0.0723759 80:0.214592 81:0.189983 82:0.463059 83:0.188829 84:0.525441 85:-0.0259368 86:0.0795771 87:0.16496 88:0.372613 89:0.19959 90:0.666279 91:-0.395641 92:-0.666904 93:-0.159714 94:-0.420242 95:0.0751216 96:0.263991 97:0.047282 98:0.202991 99:0.197679 100:0.371926 101:0.213818 102:0.402558 103:-0.0939631 104:0.320505 105:0.178024 106:0.511884 107:0.164738 108:0.732685 109:-0.597646 110:-0.848408 111:-0.0267432 112:-0.62444 113:0.44368 114:0.612048 115:0.44216 116:0.559127 117:0.557124 118:0.79274 119:0.555253 120:0.823633 121:0.345736 122:0.512777 123:0.579629 124:0.841866 125:0.510723 126:0.793427 127:-0.43634 128:-0.759778 129:-0.113124 130:-0.411765 131:0.190184 132:0.312568 133:0.164755 134:0.234979 135:0.274427 136:0.477933 137:0.302209 138:0.489655 139:0.110423 140:0.426258 141:0.231408 142:0.624169 143:0.277022 144:0.759524 145:-0.727452 146:-0.860243 147:-0.323273 148:-0.218697 149:0.0523793 150:0.229847 151:0.0130585 152:0.119703 153:0.15336 154:0.328593 155:0.180913 156:0.436002 157:-0.0977724 158:-0.050304 159:0.114254 160:0.20712 161:0.179138 162:0.506494 163:-0.552415 164:-0.775427 165:-0.105668 166:-0.522169 167:0.172698 168:0.306076 169:0.108739 170:0.138816 171:0.266241 172:0.315816 173:0.299946 174:0.421264 175:-0.00770507 176:0.270659 177:0.200098 178:0.410056 179:0.247835 180:0.669393 181:-0.69676 182:-0.784285 183:0.0504117 184:-0.61182 185:0.394419 186:0.564072 187:0.364223 188:0.398981 189:0.514085 190:0.629301 191:0.523718 192:0.689482 193:0.251684 194:0.380137 195:0.500798 196:0.661111 197:0.439645 198:0.709216 199:-0.519963 200:-0.618892 201:-0.0338698 202:-0.353062 203:0.278356 204:0.371241 205:0.23266 206:0.203606 207:0.345735 208:0.45626 209:0.388273 210:0.537173 211:0.135991 212:0.402833 213:0.287525 214:0.504124 215:0.379466 216:0.778032 
519.0537905165324 1:-0.702522 2:-0.946047 3:-0.478726 4:-0.629595 5:-0.0981981 6:0.0814149 7:-0.145839 8:-0.224415 9:-0.0164455 10:-0.013735 11:0.0263572 12:0.139925 13:-0.273419 14:-0.242188 15:-0.107738 16:-0.0409042 17:-0.0349206 18:0.383275 19:-0.550905 20:-0.877206 21:-0.235695 22:-0.859815 23:-0.0605731 24:0.199288 25:-0.163527 26:-0.151653 27:0.0303924 28:0.0705394 29:0.076185 30:0.274905 31:-0.267174 32:-0.0110701 33:-0.166549 34:0.053242 35:-0.00897818 36:0.66135 37:-0.56431 38:-0.919319 39:-0.2119 40:-0.679843 41:0.213268 42:0.319652 43:0.143958 44:0.0957447 45:0.315076 46:0.413696 47:0.341226 48:0.541594 49:0.023853 50:0.0976037 51:0.204383 52:0.405727 53:0.21554 54:0.593427 55:-0.159593 56:-0.854956 57:-0.388942 58:-0.769188 59:-0.0448561 60:0.283936 61:-0.126494 62:-0.0944928 63:0.0564018 64:0.292885 65:0.107155 66:0.430486 67:-0.224098 68:0.0587523 69:-0.0908785 70:0.322809 71:0.0426821 72:0.775689 73:-0.645583 74:-0.871771 75:-0.480303 76:-0.446328 77:-0.196534 78:-0.0582471 79:-0.239941 80:-0.138412 81:-0.0971201 82:0.0593132 83:-0.0773958 84:0.132918 85:-0.351697 86:-0.309961 87:-0.119571 88:-0.102019 89:-0.114987 90:0.194186 91:-0.402807 92:-0.675205 93:-0.187038 94:-0.538814 95:-0.0900926 96:0.0344828 97:-0.131098 98:-0.112179 99:0.0282228 100:0.104508 101:0.0668219 102:0.187724 103:-0.282208 104:-0.0751654 105:-0.00140449 106:0.143188 107:-0.0166736 108:0.461725 109:-0.572304 110:-0.873054 111:-0.174935 112:-0.718069 113:0.19282 114:0.261446 115:0.172392 116:0.153846 117:0.320879 118:0.468384 119:0.325777 120:0.534392 121:0.0587197 122:0.0562181 123:0.347684 124:0.374289 125:0.250428 126:0.431925 127:-0.387797 128:-0.765 129:-0.167495 130:-0.511164 131:0.0184417 132:0.178142 133:-0.0364289 134:0.0343348 135:0.111423 136:0.335845 137:0.163664 138:0.423873 139:-0.102917 140:0.125506 141:0.0747656 142:0.414634 143:0.0829504 144:0.60119 145:-0.726959 146:-0.872315 147:-0.42856 148:-0.48277 149:-0.143828 150:-0.0577342 151:-0.193439 152:-0.151483 153:-0.0403349 154:0.015744 155:-0.00532675 156:0.0963794 157:-0.31504 158:-0.282477 159:-0.0669645 160:-0.108954 161:-0.051458 162:0.145116 163:-0.547437 164:-0.785638 165:-0.134736 166:-0.618187 167:0.0275024 168:0.0721181 169:-0.0427114 170:-0.105291 171:0.132079 172:0.0884285 173:0.170806 174:0.215647 175:-0.176005 176:-0.0491018 177:0.0493905 178:0.117318 179:0.102135 180:0.419393 181:-0.684277 182:-0.819544 183:-0.0969523 184:-0.723587 185:0.211916 186:0.288623 187:0.165293 188:0.110357 189:0.352614 190:0.391787 191:0.373584 192:0.476906 193:0.0256278 194:0.0399543 195:0.35564 196:0.315556 197:0.247087 198:0.389811 199:-0.494239 200:-0.633379 201:-0.127664 202:-0.506943 203:0.120151 204:0.267359 205:0.0532539 206:0.0349947 207:0.197737 208:0.33054 209:0.259415 210:0.485864 211:-0.0646473 212:0.112748 213:0.140342 214:0.328866 215:0.208664 216:0.567506 
-402.647299602873 1:-0.54587 2:-0.899455 3:-0.109953 4:-0.328935 5:-0.0453344 6:-0.18922 7:0.244097 8:-0.150987 9:0.34138 10:0.157288 11:0.333204 12:0.196828 13:-0.151662 14:-0.207589 15:0.356295 16:0.220667 17:0.0084321 18:0.0789779 19:-0.356776 20:-0.878941 21:0.0213495 22:-0.587667 23:-0.0398249 24:0.059312 25:0.136489 26:0.0171038 27:0.318554 28:0.39834 29:0.30318 30:0.422972 31:-0.198198 32:0.0479705 33:0.279601 34:0.296784 35:-0.0493195 36:0.0613497 37:-0.43955 38:-0.890374 39:0.232079 40:-0.436893 41:0.336692 42:0.208955 43:0.4961 44:0.218676 45:0.684612 46:0.70232 47:0.674366 48:0.718441 49:0.154855 50:0.0531853 51:0.666984 52:0.657482 53:0.298111 54:0.268411 55:-0.317127 56:-0.887462 57:0.200501 58:-0.40392 59:0.273665 60:0.294606 61:0.378191 62:0.171014 63:0.562894 64:0.72973 65:0.577469 66:0.708543 67:0.130685 68:0.188371 69:0.493787 70:0.676647 71:0.264285 72:0.39599 73:-0.737032 74:-0.901818 75:0.0411246 76:0.294492 77:0.517716 78:0.353293 79:0.495205 80:0.335837 81:0.572244 82:0.595213 83:0.571511 84:0.578401 85:0.439952 86:0.442404 87:0.60471 88:0.669394 89:0.507913 90:0.725581 91:-0.73587 92:-0.897085 93:-0.110763 94:-0.188994 95:0.400482 96:0.664217 97:0.310111 98:0.608974 99:0.466628 100:0.803279 101:0.460779 102:0.802558 103:0.239459 104:0.624775 105:0.540468 106:0.696232 107:0.293054 108:0.680437 109:-0.741952 110:-0.893902 111:0.344021 112:-0.413617 113:0.662153 114:0.760241 115:0.663043 116:0.644087 117:0.726989 118:0.818501 119:0.733126 120:0.828336 121:0.605629 122:0.651334 123:0.73952 124:0.921502 125:0.694248 126:0.776995 127:-0.771579 128:-0.930757 129:0.16176 130:-0.0410564 131:0.519779 132:0.634973 133:0.483182 134:0.567597 135:0.611439 136:0.77395 137:0.605328 138:0.761273 139:0.423349 140:0.633314 141:0.673374 142:0.820399 143:0.478679 144:0.734524 145:-0.772048 146:-0.884522 147:0.165395 148:0.156602 149:0.5124 150:0.333333 151:0.548192 152:0.363347 153:0.642347 154:0.62519 155:0.634954 156:0.616522 157:0.428943 158:0.404091 159:0.678611 160:0.714132 161:0.523362 162:0.686053 163:-0.795779 164:-0.929075 165:0.022878 166:-0.253883 167:0.399762 168:0.602499 169:0.376355 170:0.521215 171:0.508614 172:0.791814 173:0.510155 174:0.787362 175:0.262189 176:0.565269 177:0.515758 178:0.764246 179:0.362187 180:0.670561 181:-0.772125 182:-0.772218 183:0.423822 184:-0.403836 185:0.60961 186:0.677844 187:0.631418 188:0.552915 189:0.732957 190:0.754717 191:0.734809 192:0.766277 193:0.517054 194:0.530822 195:0.724011 196:0.864444 197:0.635694 198:0.698912 199:-0.772281 200:-0.78349 201:0.258891 202:-0.0289096 203:0.527088 204:0.592127 205:0.52377 206:0.4772 207:0.66802 208:0.778942 209:0.667914 210:0.780105 211:0.372237 212:0.505949 213:0.735716 214:0.772165 215:0.512567 216:0.687643 
-386.32141629896 1:-0.761338 2:-0.859144 3:-0.0513021 4:-0.102733 5:0.180336 6:0.0443571 7:0.427468 8:0.103258 9:0.506032 10:0.467435 11:0.500394 12:0.518657 13:0.1036 14:0.0725446 15:0.529226 16:0.702906 17:0.223622 18:0.405343 19:-0.687738 20:-0.847356 21:0.0574707 22:-0.451593 23:0.0823892 24:0.180308 25:0.255786 26:0.18016 27:0.423294 28:0.571577 29:0.421291 30:0.609145 31:-0.0594198 32:0.164822 33:0.376651 34:0.538218 35:0.0932871 36:0.245399 37:-0.71609 38:-0.865416 39:0.338035 40:-0.31068 41:0.453996 42:0.338308 43:0.590327 44:0.332151 45:0.76379 46:0.780419 47:0.755831 48:0.806864 49:0.291416 50:0.201636 51:0.708608 52:0.814155 53:0.446831 54:0.381619 55:-0.674345 56:-0.872462 57:0.274156 58:-0.255175 59:0.369495 60:0.378779 61:0.456847 62:0.227826 63:0.640062 64:0.760618 65:0.650682 66:0.747627 67:0.23324 68:0.274379 69:0.548846 70:0.787697 71:0.353419 72:0.43985 73:-0.788155 74:-0.928337 75:-0.128778 76:0.0190678 77:0.324204 78:-0.0778443 79:0.289633 80:-0.0332618 81:0.373765 82:0.140479 83:0.374665 84:0.129803 85:0.240136 86:0.0239288 87:0.398248 88:0.198036 89:0.322879 90:0.376744 91:-0.785554 92:-0.920938 93:-0.263259 94:-0.43924 95:0.215685 96:0.517241 97:0.116652 98:0.516026 99:0.275934 100:0.593238 101:0.270899 102:0.567263 103:0.0522906 104:0.576669 105:0.354354 106:0.484058 107:0.11071 108:0.603888 109:-0.791035 110:-0.915164 111:0.167608 112:-0.513711 113:0.589633 114:0.718072 115:0.590611 116:0.637199 117:0.655713 118:0.839578 119:0.661715 120:0.828336 121:0.532546 122:0.634299 123:0.681759 124:0.938567 125:0.609852 126:0.792254 127:-0.813104 128:-0.93814 129:-0.0327059 130:-0.27491 131:0.408773 132:0.689617 133:0.373415 134:0.574034 135:0.502615 136:0.803014 137:0.503708 138:0.784615 139:0.313217 140:0.662233 141:0.563126 142:0.778271 143:0.379159 144:0.772619 145:-0.837004 146:-0.930901 147:-0.0297357 148:-0.0310474 149:0.305246 150:-0.0544662 151:0.334494 152:0.00635593 153:0.439066 154:0.186389 155:0.432558 156:0.18103 157:0.210499 158:0.0536208 159:0.469197 160:0.286947 161:0.329424 162:0.370977 163:-0.849342 164:-0.954182 165:-0.157854 166:-0.471336 167:0.230351 168:0.512777 169:0.201391 170:0.45626 171:0.336499 172:0.633148 173:0.335724 174:0.625878 175:0.0911253 176:0.532934 177:0.35231 178:0.597765 179:0.185733 180:0.601636 181:-0.834063 182:-0.843884 183:0.247825 184:-0.496319 185:0.531486 186:0.674251 187:0.556012 188:0.563101 189:0.657342 190:0.770255 191:0.666249 192:0.784085 193:0.436134 194:0.555936 195:0.660964 196:0.888889 197:0.560209 198:0.744705 199:-0.828624 200:-0.847754 201:0.0772729 202:-0.227407 203:0.420974 204:0.603062 205:0.413264 206:0.4772 207:0.559626 208:0.781037 209:0.560262 210:0.770681 211:0.263861 212:0.530878 213:0.625952 214:0.734021 215:0.401954 216:0.669336 
-1024 1:-0.571134 2:-0.882166 3:-0.200434 4:-0.382187 5:0.00575897 6:-0.243122 7:-0.00117097 8:-0.40615 9:0.11949 10:-0.145769 11:0.133107 12:-0.134328 13:-0.140215 14:-0.304688 15:0.0749454 16:-0.01507 17:-0.0113095 18:0.0673635 19:-0.380376 20:-0.853193 21:-0.128008 22:-0.644399 23:0.00228177 24:0.153025 25:-0.0241819 26:0.100342 27:0.0846194 28:0.292531 29:0.103134 30:0.363092 31:-0.0926818 32:0.174662 33:0.0036794 34:0.272536 35:-0.0872234 36:0.220859 37:-0.419665 38:-0.861658 39:0.0893094 40:-0.453768 41:0.438768 42:0.319652 43:0.398174 44:0.217494 45:0.559753 46:0.544992 47:0.576129 48:0.618383 49:0.271265 50:0.226184 51:0.54084 52:0.572123 53:0.274205 54:0.386488 55:-0.266186 56:-0.858331 57:0.147311 58:-0.50174 59:0.35217 60:0.300533 61:0.337931 62:0.315942 63:0.488457 64:0.556536 65:0.469941 66:0.660525 67:0.255851 68:0.355542 69:0.358192 70:0.72564 71:0.305823 72:0.681704 73:-0.862823 74:-0.955638 75:-0.355812 76:-0.125 77:0.0493889 78:-0.241154 79:0.0569703 80:-0.162017 81:0.16053 82:0.024974 83:0.17353 84:0.0280374 85:-0.0596771 86:-0.215359 87:0.189216 88:-0.00163666 89:0.109633 90:0.256977 91:-0.848752 92:-0.941949 93:-0.314697 94:-0.381592 95:0.104748 96:0.39853 97:0.0721287 98:0.402778 99:0.18273 100:0.545082 101:0.186108 102:0.608184 103:-0.014627 104:0.464823 105:0.250847 106:0.58029 107:0.0454204 108:0.575942 109:-0.847756 110:-0.780325 111:0.051026 112:-0.504953 113:0.510095 114:0.560241 115:0.51839 116:0.600459 117:0.628887 118:0.810304 119:0.621025 120:0.822457 121:0.419386 122:0.530948 123:0.710836 124:0.868032 125:0.504892 126:0.721831 127:-0.862178 128:-0.786484 129:-0.000210879 130:-0.161585 131:0.291732 132:0.463388 133:0.313201 134:0.519313 135:0.454071 136:0.7169 137:0.416339 138:0.661538 139:0.208758 140:0.56391 141:0.493203 142:0.780488 143:0.297949 144:0.747619 145:-0.84422 146:-0.904749 147:-0.32583 148:0.00989423 149:-0.0263866 150:-0.234205 151:-0.0174038 152:-0.184322 153:0.108379 154:0.00863382 155:0.134117 156:0.0311066 157:-0.16297 158:-0.242676 159:0.150956 160:0.0204962 161:0.03992 162:0.176736 163:-0.76835 164:-0.876299 165:-0.221215 166:-0.385484 167:0.0955285 168:0.224304 169:0.0296849 170:0.259298 171:0.165616 172:0.460334 173:0.177369 174:0.484453 175:-0.050035 176:0.277844 177:0.230531 178:0.530726 179:0.0231428 180:0.403037 181:-0.788897 182:-0.806859 183:0.0928774 184:-0.452359 185:0.441931 186:0.422754 187:0.414833 188:0.393322 189:0.587666 190:0.654828 191:0.605492 192:0.679466 193:0.271951 194:0.38242 195:0.717781 196:0.745556 197:0.351542 198:0.496279 199:-0.739948 200:-0.760372 201:0.15842 202:-0.278853 203:0.317221 204:0.311099 205:0.361285 206:0.417815 207:0.494073 208:0.671032 209:0.458162 210:0.709948 211:0.192132 212:0.381303 213:0.506076 214:0.680412 215:0.335877 216:0.639588 
-1.336734645452604 1:-0.129833 2:-0.843781 3:0.352999 4:0.114043 5:0.639637 6:0.389107 7:0.610474 8:0.0885727 9:0.661655 10:0.354896 11:0.673384 12:0.496269 13:0.575563 14:0.267857 15:0.600792 16:0.755651 17:0.583557 18:0.521487 19:0.110835 20:-0.833722 21:0.166675 22:-0.147379 23:0.475262 24:0.370107 25:0.38167 26:0.311288 27:0.478789 28:0.521784 29:0.494699 30:0.636364 31:0.400993 32:0.314883 33:0.33304 34:0.646811 35:0.392453 36:0.462577 37:0.0940951 38:-0.829897 39:0.547051 40:-0.290569 41:0.740117 42:0.517413 43:0.681396 44:0.393617 45:0.789739 46:0.627617 47:0.811623 48:0.737056 49:0.627906 50:0.436587 51:0.67534 52:0.733117 53:0.626627 54:0.482654 55:0.262026 56:-0.84333 57:0.538925 58:-0.0899432 59:0.649856 60:0.404861 61:0.622528 62:0.386667 63:0.750235 64:0.588527 65:0.72846 66:0.695142 67:0.582539 68:0.473047 69:0.559598 70:0.806206 71:0.60173 72:0.670426 73:-0.644179 74:-0.870282 75:0.0900683 76:0.000706215 77:0.46454 78:0.145346 79:0.446774 80:0.185622 81:0.512829 82:0.391259 83:0.513991 84:0.422638 85:0.396721 86:0.191987 87:0.51356 88:0.455537 89:0.479888 90:0.561628 91:-0.667328 92:-0.876173 93:0.019658 94:-0.324599 95:0.323119 96:0.430187 97:0.312209 98:0.487179 99:0.389871 100:0.570697 101:0.383252 102:0.626598 103:0.240937 104:0.482862 105:0.418043 106:0.655652 107:0.301427 108:0.591738 109:-0.646811 110:-0.79812 111:0.344066 112:-0.482223 113:0.622263 114:0.575904 115:0.654703 116:0.645235 117:0.71348 118:0.761124 119:0.695912 120:0.802469 121:0.5829 122:0.58887 123:0.71834 124:0.855518 125:0.670403 126:0.767606 127:-0.702683 128:-0.801698 129:0.245181 130:-0.127491 131:0.474986 132:0.472131 133:0.502357 134:0.55794 135:0.585413 136:0.664155 137:0.570959 138:0.688064 139:0.427432 140:0.606709 141:0.606885 142:0.750554 143:0.48521 144:0.720238 145:-0.580729 146:-0.760605 147:0.122852 148:0.173661 149:0.500148 150:0.300654 151:0.487143 152:0.305085 153:0.576498 154:0.57034 155:0.591834 156:0.573687 157:0.409844 158:0.347706 159:0.629447 160:0.685005 161:0.48505 162:0.644269 163:-0.519222 164:-0.726335 165:0.0909857 166:-0.354984 167:0.38586 168:0.449177 169:0.348405 170:0.42483 171:0.474768 172:0.60283 173:0.489653 174:0.648947 175:0.247863 176:0.486228 177:0.521573 178:0.683799 179:0.309677 180:0.577103 181:-0.498029 182:-0.792936 183:0.40608 184:-0.440747 185:0.620108 186:0.567665 187:0.61356 188:0.506508 189:0.736378 190:0.710322 191:0.737737 192:0.739566 193:0.507054 194:0.510274 195:0.77091 196:0.823333 197:0.60248 198:0.61763 199:-0.470898 200:-0.75266 201:0.376571 202:-0.0976554 203:0.523542 204:0.440131 205:0.488546 206:0.425239 207:0.623215 208:0.669984 209:0.591644 210:0.704712 211:0.395918 212:0.448159 213:0.604424 214:0.769072 215:0.511111 216:0.712815 
-392.0099600984051 1:-0.277158 2:-0.90874 3:-0.0690252 4:-0.268143 5:0.269947 6:-0.0185289 7:0.265197 8:-0.229922 9:0.344256 10:0.197164 11:0.342718 12:0.117537 13:0.181975 14:-0.109375 15:0.27445 16:0.311087 17:0.230974 18:0.350755 19:0.0335878 20:-0.880188 21:-0.108553 22:-0.611922 23:0.0733915 24:0.301305 25:0.023437 26:0.255416 27:0.114324 28:0.532158 29:0.149399 30:0.666848 31:-0.010141 32:0.209102 33:0.0208082 34:0.449657 35:-0.0247796 36:0.32638 37:0.0819921 38:-0.888814 39:0.151372 40:-0.464632 41:0.51739 42:0.412935 43:0.480602 44:0.306147 45:0.595282 46:0.62309 47:0.626533 48:0.759162 49:0.391004 50:0.291642 51:0.528866 52:0.615343 53:0.392897 54:0.382836 55:0.398181 56:-0.872982 57:0.152889 58:-0.452281 59:0.35087 60:0.337285 61:0.36091 62:0.307826 63:0.476133 64:0.567568 65:0.43887 66:0.728643 67:0.297684 68:0.309509 69:0.326601 70:0.71693 71:0.304558 72:0.62406 73:-0.857094 74:-0.956723 75:-0.292773 76:-0.127119 77:0.0676146 78:-0.306478 79:0.0434639 80:-0.299356 81:0.133197 82:-0.126951 83:0.131203 84:-0.125649 85:-0.0194293 86:-0.279911 87:0.141457 88:-0.0954719 89:0.0853535 90:0.0476744 91:-0.855216 92:-0.950638 93:-0.373006 94:-0.427448 95:0.0163827 96:0.345393 97:-0.0263342 98:0.349359 99:0.0898379 100:0.487705 101:0.102651 102:0.577494 103:-0.113312 104:0.356584 105:0.172665 106:0.495652 107:-0.0606116 108:0.473876 109:-0.844346 110:-0.790971 111:0.0186661 112:-0.553331 113:0.44969 114:0.496386 115:0.454944 116:0.475316 117:0.561987 118:0.764637 119:0.551269 120:0.787184 121:0.363303 122:0.402612 123:0.634485 124:0.722412 125:0.431462 126:0.610329 127:-0.857649 128:-0.789981 129:-0.00715213 130:-0.288836 131:0.233762 132:0.386885 133:0.249003 134:0.435622 135:0.396483 136:0.68676 137:0.34449 138:0.640318 139:0.15383 140:0.467901 141:0.408288 142:0.823725 143:0.238827 144:0.669048 145:-0.84417 146:-0.90953 147:-0.184398 148:-0.177755 149:0.134018 150:-0.221133 151:0.0888631 152:-0.252119 153:0.22318 154:-0.0533266 155:0.222826 156:-0.0678225 157:0.00587734 158:-0.19403 159:0.239769 160:-0.012945 161:0.136985 162:0.151892 163:-0.82679 164:-0.915311 165:-0.209975 166:-0.551539 167:0.11972 168:0.308348 169:0.0429259 170:0.291776 171:0.185317 172:0.423951 173:0.186796 174:0.467402 175:-0.0266725 176:0.332934 177:0.226462 178:0.402235 179:0.0216771 180:0.448598 181:-0.799723 182:-0.816522 183:0.110089 184:-0.550233 185:0.458364 186:0.508982 187:0.437648 188:0.430673 189:0.588576 190:0.693674 191:0.583272 192:0.705064 193:0.32173 194:0.424658 195:0.630984 196:0.761111 197:0.434006 198:0.61992 199:-0.772603 200:-0.777594 201:0.0795347 202:-0.363988 203:0.316923 204:0.402952 205:0.312689 206:0.382821 207:0.447081 208:0.638554 209:0.415797 210:0.662827 211:0.189226 212:0.379037 213:0.442265 214:0.669072 215:0.310113 216:0.649886 
-459.1448658152271 1:-0.5555 2:-0.914344 3:0.20656 4:-0.159284 5:0.462525 6:0.325098 7:0.67698 8:0.437357 9:0.673087 10:0.555162 11:0.679497 12:0.613806 13:0.468901 14:0.439732 15:0.652789 16:0.840689 17:0.508988 18:0.645761 19:-0.480315 20:-0.910745 21:0.0512821 22:-0.536691 23:0.0914798 24:0.215896 25:0.399666 26:0.5439 27:0.436295 28:0.579876 29:0.442402 30:0.64834 31:0.102194 32:0.348093 33:0.351803 34:0.486558 35:0.183669 36:0.408589 37:-0.490867 38:-0.924979 39:0.501836 40:-0.278317 41:0.552866 42:0.390547 43:0.789639 44:0.690307 45:0.812575 46:0.755518 47:0.823741 48:0.796393 49:0.542162 50:0.406195 51:0.678295 52:0.808752 53:0.644811 54:0.603165 55:-0.431296 56:-0.936357 57:0.312033 58:-0.205349 59:0.431516 60:0.344398 61:0.695287 62:0.721739 63:0.723348 64:0.798125 65:0.732839 66:0.793412 67:0.46199 68:0.457299 69:0.579415 70:0.835602 71:0.529536 72:0.626566 73:-0.858121 74:-0.953119 75:-0.0616606 76:0.166667 77:0.566683 78:0.269461 79:0.548422 80:0.291845 81:0.569868 82:0.469303 83:0.570416 84:0.46729 85:0.53906 86:0.423484 87:0.574241 88:0.59629 89:0.57065 90:0.751163 91:-0.919163 92:-0.972651 93:-0.352332 94:-0.173272 95:0.282857 96:0.810062 97:0.248761 98:0.827991 99:0.275288 100:0.892418 101:0.272364 102:0.856777 103:0.248984 104:0.733013 105:0.287069 106:0.852754 107:0.247036 108:0.791009 109:-0.883161 110:-0.763712 111:0.232612 112:-0.459076 113:0.714039 114:0.915663 115:0.710794 116:0.856487 117:0.736346 118:0.933255 119:0.727368 120:0.901235 121:0.696121 122:0.855764 123:0.719757 124:0.918089 125:0.734441 126:0.909624 127:-0.91884 128:-0.865579 129:-0.0555754 130:-0.0991597 131:0.511283 132:0.840437 133:0.510573 134:0.819742 135:0.554275 136:0.862217 137:0.550463 138:0.848276 139:0.492564 140:0.888953 141:0.567066 142:0.831486 143:0.49165 144:0.908333 145:-0.888041 146:-0.953398 147:0.00240034 148:0.222791 149:0.562701 150:0.330065 151:0.558452 152:0.368644 153:0.592404 154:0.537836 155:0.588143 156:0.529832 157:0.533828 158:0.477059 159:0.60157 160:0.6548 161:0.568691 162:0.747036 163:-0.925536 164:-0.978004 165:-0.293124 166:-0.242587 167:0.327847 168:0.820557 169:0.319129 170:0.819801 171:0.347181 172:0.90096 173:0.34022 174:0.899699 175:0.298291 176:0.755689 177:0.332911 178:0.820112 179:0.299596 180:0.740654 181:-0.902939 182:-0.778485 183:0.313803 184:-0.431415 185:0.702566 186:0.900599 187:0.721825 188:0.806452 189:0.750982 190:0.852386 191:0.754538 192:0.855314 193:0.676215 194:0.807078 195:0.717371 196:0.898889 197:0.714933 198:0.87407 199:-0.917377 200:-0.847736 201:0.0419884 202:-0.132711 203:0.563154 204:0.790049 205:0.576639 206:0.773065 207:0.625096 208:0.90571 209:0.619299 210:0.905759 211:0.508447 212:0.750708 213:0.616839 214:0.782474 215:0.566791 216:0.850114 
342.3279766828675 1:-0.858472 2:-0.951003 3:-0.514044 4:-0.52262 5:-0.188696 6:-0.0982594 7:-0.0908422 8:-0.200551 9:-0.0808343 10:-0.0163934 11:-0.073786 12:0.0130597 13:-0.219004 14:-0.322545 15:-0.221988 16:-0.0785791 17:-0.0638088 18:0.0743322 19:-0.784618 20:-0.939661 21:-0.506589 22:-0.792395 23:-0.328101 24:0.112693 25:-0.29641 26:0.148233 27:-0.247845 28:0.278008 29:-0.261877 30:0.297768 31:-0.34975 32:0.0418204 33:-0.392828 34:0.00474433 35:-0.349788 36:0.0957055 37:-0.837793 38:-0.95098 39:-0.0824391 40:-0.518262 41:0.348092 42:0.276119 43:0.370144 44:0.286052 45:0.450351 46:0.552915 47:0.445241 48:0.562536 49:0.271304 50:0.0929281 51:0.330026 52:0.351702 53:0.318462 54:0.352404 55:-0.784 56:-0.950845 57:-0.139246 58:-0.45741 59:0.275878 60:0.346769 61:0.304128 62:0.421449 63:0.332622 64:0.695532 65:0.31447 66:0.669458 67:0.292463 68:0.28407 69:0.170676 70:0.545999 71:0.219547 72:0.511278 73:-0.874515 74:-0.969878 75:-0.563894 76:-0.374294 77:-0.314724 78:-0.449102 79:-0.291684 80:-0.406652 81:-0.19973 82:-0.252862 83:-0.209606 84:-0.279335 85:-0.402176 86:-0.503617 87:-0.234376 88:-0.336607 89:-0.23204 90:-0.172093 91:-0.820092 92:-0.946657 93:-0.566233 94:-0.64756 95:-0.280723 96:0.0650085 97:-0.295812 98:0.127137 99:-0.237564 100:0.220287 101:-0.232244 102:0.230691 103:-0.345985 104:0.0823812 105:-0.202723 106:0.176812 107:-0.31066 108:0.229648 109:-0.864675 110:-0.944075 111:-0.210189 112:-0.627568 113:0.261686 114:0.210843 115:0.29047 116:0.246843 117:0.351198 118:0.505855 119:0.335766 120:0.481481 121:0.220819 122:0.0107893 123:0.386441 124:0.259386 125:0.240318 126:0.334507 127:-0.863224 128:-0.938075 129:-0.254913 130:-0.354142 131:0.137628 132:0.355191 133:0.188294 134:0.434549 135:0.229962 136:0.678149 137:0.220579 138:0.624403 139:0.142746 140:0.382302 141:0.232337 142:0.550998 143:0.107007 144:0.62381 145:-0.888937 146:-0.970523 147:-0.563045 148:-0.456158 149:-0.357393 150:-0.384532 151:-0.334199 152:-0.345339 153:-0.217361 154:-0.211783 155:-0.22458 156:-0.219786 157:-0.472779 158:-0.504699 159:-0.27254 160:-0.357066 161:-0.244769 162:-0.175607 163:-0.817892 164:-0.959 165:-0.550876 166:-0.738492 167:-0.277887 168:-0.0244179 169:-0.301495 170:-0.0172865 171:-0.219332 172:0.103588 173:-0.230661 174:0.0952859 175:-0.356643 176:-0.0610778 177:-0.22559 178:0.0122905 179:-0.293062 180:0.0876168 181:-0.880589 182:-0.923955 183:-0.190434 184:-0.670295 185:0.166722 186:0.0994012 187:0.191783 188:0.0967742 189:0.295077 190:0.318535 191:0.292905 192:0.323317 193:0.07618 194:-0.116438 195:0.307376 196:0.11 197:0.133554 198:0.180309 199:-0.847658 200:-0.906009 201:-0.20058 202:-0.408605 203:0.1554 204:0.223619 205:0.191605 206:0.293743 207:0.263614 208:0.535883 209:0.232325 210:0.517277 211:0.0918836 212:0.161473 213:0.240671 214:0.324742 215:0.127446 216:0.446224 
-331.7423130096706 1:-0.81584 2:-0.948142 3:-0.419478 4:-0.520264 5:-0.0714707 6:0.01516 7:0.0660706 8:-0.0114732 9:0.0500488 10:0.148427 11:0.0687948 12:0.169776 13:-0.0759233 14:-0.174107 15:-0.0421313 16:0.0785791 17:0.021418 18:0.176539 19:-0.724985 20:-0.93413 21:-0.467457 22:-0.784584 23:-0.306597 24:0.0581257 25:-0.264299 26:0.108324 27:-0.21182 28:0.236515 29:-0.238506 30:0.255308 31:-0.324689 32:-0.0135301 33:-0.374234 34:-0.0131787 35:-0.323333 36:0.0674847 37:-0.799143 38:-0.947095 39:0.0108887 40:-0.52982 41:0.384984 42:0.299751 43:0.461903 44:0.378251 45:0.526523 46:0.609508 47:0.525943 48:0.604421 49:0.324748 50:0.177089 51:0.403261 52:0.441383 53:0.389241 54:0.396226 55:-0.737738 56:-0.947136 57:-0.0885304 58:-0.454479 59:0.292212 60:0.356254 61:0.371288 62:0.455072 63:0.398881 64:0.722008 65:0.384889 66:0.683975 67:0.312566 68:0.293761 69:0.227067 70:0.508982 71:0.286756 72:0.515038 73:-0.818527 74:-0.946216 75:-0.43485 76:-0.310028 77:-0.178291 78:-0.42515 79:-0.157857 80:-0.388412 81:-0.0761271 82:-0.240375 83:-0.0801483 84:-0.254413 85:-0.256856 86:-0.435726 87:-0.0763398 88:-0.276596 89:-0.128326 90:-0.133721 91:-0.757689 92:-0.910334 93:-0.459087 94:-0.626597 95:-0.169112 96:0.111362 97:-0.180181 98:0.121795 99:-0.112468 100:0.292008 101:-0.120558 102:0.268542 103:-0.237718 104:0.0992183 105:-0.0794013 106:0.227826 107:-0.205414 108:0.256379 109:-0.792255 110:-0.956659 111:-0.102833 112:-0.626942 113:0.329538 114:0.249398 115:0.362918 116:0.275545 117:0.423244 118:0.529274 119:0.413129 120:0.495591 121:0.286781 122:0.0891539 123:0.462353 124:0.349261 125:0.316327 126:0.355634 127:-0.79283 128:-0.951125 129:-0.201196 130:-0.379592 131:0.184057 132:0.382514 133:0.226288 134:0.436695 135:0.274948 136:0.687836 137:0.270874 138:0.672149 139:0.17782 140:0.332562 141:0.278705 142:0.619734 143:0.157673 144:0.522619 145:-0.825333 146:-0.945666 147:-0.308162 148:-0.134766 149:0.0461518 150:-0.272331 151:0.074986 152:-0.213983 153:0.154712 154:-0.0177755 155:0.140454 156:-0.054564 157:-0.0206203 158:-0.263682 159:0.153106 160:-0.0248112 161:0.0930748 162:0.10559 163:-0.759177 164:-0.939597 165:-0.386176 166:-0.617622 167:-0.0148691 168:0.33674 169:-0.0174733 170:0.314825 171:0.0391783 172:0.543204 173:0.0257712 174:0.50652 175:-0.0667957 176:0.258683 177:0.0229224 178:0.422346 179:-0.0450529 180:0.385514 181:-0.798341 182:-0.942233 183:0.0402317 184:-0.55127 185:0.457807 186:0.498204 187:0.479742 188:0.45897 189:0.553724 190:0.699223 191:0.549227 192:0.664997 193:0.395448 194:0.340183 195:0.561388 196:0.628889 197:0.439246 198:0.518031 199:-0.759453 200:-0.935701 201:-0.112911 202:-0.341225 203:0.307849 204:0.491525 205:0.352836 206:0.527041 207:0.39346 208:0.808277 209:0.385441 210:0.768586 211:0.263498 212:0.389235 213:0.37153 214:0.605155 215:0.304462 216:0.556064 
-1024 1:-0.644455 2:-0.751305 3:0.333512 4:-0.408577 5:0.494314 6:0.151039 7:0.600011 8:0.285911 9:0.593845 10:0.379708 11:0.59349 12:0.407649 13:0.496679 14:0.270089 15:0.521813 16:0.669537 17:0.516131 18:0.550523 19:-0.678732 20:-0.759315 21:0.3567 22:-0.571634 23:0.484436 24:0.213523 25:0.485427 26:0.263398 27:0.50553 28:0.253112 29:0.507864 30:0.326075 31:0.496388 32:0.333333 33:0.310435 34:0.327359 35:0.466044 36:0.373006 37:-0.632652 38:-0.74963 39:0.534819 40:-0.423486 41:0.694688 42:0.572139 43:0.761006 44:0.63948 45:0.762999 46:0.674024 47:0.778978 48:0.759162 49:0.6904 50:0.588545 51:0.581391 52:0.757969 53:0.698482 54:0.754108 55:-0.648562 56:-0.775917 57:0.420541 58:-0.305734 59:0.609362 60:0.5246 61:0.649019 62:0.586087 63:0.699332 64:0.642581 65:0.707795 66:0.683975 67:0.602331 68:0.645064 69:0.482669 70:0.729995 71:0.656265 72:0.803258 73:-0.788895 74:-0.91973 75:-0.00470573 76:-0.411723 77:0.345202 78:-0.162765 79:0.333546 80:-0.120172 81:0.386099 82:-0.0353798 83:0.380933 84:-0.0155763 85:0.294109 86:-0.15192 87:0.349249 88:-0.0158211 89:0.389929 90:0.126744 91:-0.85858 92:-0.945541 93:-0.139791 94:-0.502129 95:0.285883 96:0.20294 97:0.277604 98:0.266026 99:0.307665 100:0.268443 101:0.303283 102:0.285934 103:0.249555 104:0.251954 105:0.294349 106:0.375072 107:0.279902 108:0.358445 109:-0.799316 110:-0.763424 111:0.204416 112:-0.644875 113:0.551695 114:0.443373 115:0.572219 116:0.486797 117:0.599385 118:0.581967 119:0.597341 120:0.589653 121:0.532561 122:0.324248 123:0.58913 124:0.483504 125:0.568531 126:0.543427 127:-0.830349 128:-0.776524 129:0.0963912 130:-0.333493 131:0.43909 132:0.44918 133:0.472378 134:0.533262 135:0.529931 136:0.623251 137:0.529135 138:0.62122 139:0.410673 140:0.540775 141:0.527432 142:0.658537 143:0.485656 144:0.710714 145:-0.702529 146:-0.83783 147:0.165521 148:-0.370863 149:0.380229 150:-0.0675381 151:0.407047 152:0.00317797 153:0.455826 154:0.07161 155:0.468713 156:0.118817 157:0.330873 158:-0.0591487 159:0.445185 160:0.0949299 161:0.431159 162:0.226426 163:-0.72266 164:-0.892562 165:0.191296 166:-0.51991 167:0.417405 168:0.191369 169:0.44524 170:0.229963 171:0.482413 172:0.265285 173:0.482522 174:0.293882 175:0.375451 176:0.249102 177:0.440134 178:0.359777 179:0.431213 180:0.336449 181:-0.706417 182:-0.631729 183:0.380736 184:-0.60705 185:0.547105 186:0.42994 187:0.599659 188:0.478212 189:0.641947 190:0.556049 191:0.643338 192:0.567056 193:0.511884 194:0.333333 195:0.618712 196:0.532222 197:0.566443 198:0.55581 199:-0.703921 200:-0.545871 201:0.325993 202:-0.292511 203:0.509959 204:0.428103 205:0.562769 206:0.514316 207:0.604988 208:0.592457 209:0.602109 210:0.617801 211:0.460232 212:0.504816 213:0.588017 214:0.609278 215:0.556773 216:0.675057 
-1024 1:-0.472178 2:-0.638854 3:0.501141 4:-0.298303 5:0.617239 6:0.212802 7:0.69685 8:0.148233 9:0.712649 10:0.190961 11:0.725236 12:0.284515 13:0.592708 14:0.237723 15:0.621648 16:0.426265 17:0.658079 18:0.471545 19:-0.489239 20:-0.74962 21:0.505519 22:-0.473381 23:0.630313 24:0.341637 25:0.633702 26:0.440137 27:0.679817 28:0.395228 29:0.685859 30:0.461078 31:0.618034 32:0.428044 33:0.474429 34:0.437006 35:0.631959 36:0.458896 37:-0.505258 38:-0.443522 39:0.674626 40:-0.429265 41:0.789909 42:0.605721 43:0.828847 44:0.656028 45:0.84125 46:0.658178 47:0.853909 48:0.719604 49:0.776936 50:0.601403 51:0.640365 52:0.712588 53:0.796232 54:0.769933 55:-0.56988 56:-0.507711 57:0.602804 58:-0.318923 59:0.725778 60:0.618257 61:0.759556 62:0.649855 63:0.787037 64:0.632653 65:0.778692 66:0.668342 67:0.747293 68:0.726227 69:0.538088 70:0.764834 71:0.761758 72:0.795739 73:-0.392768 74:-0.625975 75:0.470222 76:-0.0805085 77:0.660705 78:0.209581 79:0.64303 80:0.228541 81:0.679256 82:0.26743 83:0.676884 84:0.263759 85:0.620054 86:0.22315 87:0.669741 88:0.297327 89:0.676748 90:0.433721 91:-0.523674 92:-0.718594 93:0.403296 94:-0.256469 95:0.595948 96:0.387224 97:0.596715 98:0.393162 99:0.607718 100:0.370902 101:0.615582 102:0.358568 103:0.568855 104:0.444378 105:0.604678 106:0.513043 107:0.582848 108:0.507898 109:-0.444834 110:-0.636341 111:0.592265 112:-0.54499 113:0.740532 114:0.620482 115:0.77066 116:0.634902 117:0.791178 118:0.669789 119:0.788367 120:0.667255 121:0.726726 122:0.57297 123:0.786779 124:0.678043 125:0.770842 126:0.711268 127:-0.574476 128:-0.696416 129:0.498164 130:-0.218247 131:0.683127 132:0.585792 133:0.699054 134:0.604077 135:0.739024 136:0.68676 137:0.733181 138:0.641379 139:0.660575 140:0.689994 141:0.742373 142:0.739468 143:0.691535 144:0.771429 145:-0.250418 146:-0.530388 147:0.510725 148:-0.157284 149:0.615023 150:0.164488 151:0.651748 152:0.28072 153:0.687601 154:0.264601 155:0.702861 156:0.324834 157:0.576434 158:0.160862 159:0.692295 160:0.279396 161:0.664898 162:0.378882 163:-0.260015 164:-0.632184 165:0.536454 166:-0.379836 167:0.617555 168:0.250426 169:0.651909 170:0.299109 171:0.687125 172:0.278423 173:0.687542 174:0.310933 175:0.575734 176:0.342515 177:0.648492 178:0.381006 179:0.630941 180:0.389019 181:-0.298254 182:-0.509079 183:0.644329 184:-0.55832 185:0.687882 186:0.48024 187:0.743807 188:0.540464 189:0.77381 190:0.54384 191:0.77753 192:0.58709 193:0.661992 194:0.432648 195:0.747329 196:0.58 197:0.713426 198:0.585575 199:-0.347115 200:-0.457112 201:0.596909 202:-0.216481 203:0.675066 204:0.457627 205:0.72258 206:0.546129 207:0.750306 208:0.570456 209:0.74707 210:0.628272 211:0.638828 212:0.563739 213:0.722792 214:0.584536 215:0.722131 216:0.704805 
-897.7755286676538 1:-0.703074 2:-0.939269 3:-0.195428 4:-0.6164 5:-0.0289919 6:-0.284672 7:0.14358 8:-0.319872 9:0.14186 10:-0.24856 11:0.144323 12:-0.196828 13:-0.0364188 14:-0.320313 15:0.0295172 16:-0.18084 17:0.123946 18:0.0313589 19:-0.622804 20:-0.932664 21:-0.100305 22:-0.744707 23:0.0861071 24:0.0427046 25:0.156498 26:0.123147 27:0.154336 28:0.106846 29:0.158085 30:0.150789 31:0.118676 32:0.104551 33:-0.0496131 34:0.071165 35:0.140604 36:0.257669 37:-0.632237 38:-0.929839 39:0.0872461 40:-0.649561 41:0.377504 42:0.207711 43:0.463255 44:0.27896 45:0.471616 46:0.362762 47:0.47072 48:0.417103 49:0.37142 50:0.106955 51:0.298995 52:0.232847 53:0.403911 54:0.409617 55:-0.507384 56:-0.927752 57:-0.0302378 58:-0.569152 59:0.270941 60:0.263782 61:0.372489 62:0.369275 63:0.370388 64:0.461666 65:0.374852 66:0.448353 67:0.311382 68:0.328892 69:0.180408 70:0.405553 71:0.338518 72:0.630326 73:-0.739033 74:-0.914 75:-0.361285 76:-0.31709 77:-0.1652 78:-0.303212 79:-0.0361192 80:-0.16309 81:0.0205408 82:-0.057232 83:0.0153156 84:-0.0623053 85:-0.216915 86:-0.378965 87:0.00727518 88:-0.207856 89:-0.00486307 90:0.0593023 91:-0.648747 92:-0.853025 93:-0.202196 94:-0.489682 95:0.0553521 96:0.0774449 97:0.141533 98:0.223291 99:0.153673 100:0.233607 101:0.164959 102:0.226598 103:0.0319625 104:0.193025 105:0.164792 106:0.292754 107:0.126626 108:0.36695 109:-0.695225 110:-0.939516 111:0.0292645 112:-0.603378 113:0.344454 114:0.244578 115:0.458264 116:0.394948 117:0.466471 118:0.487119 119:0.467894 120:0.495591 121:0.348607 122:0.229983 123:0.489234 124:0.427759 125:0.410612 126:0.448357 127:-0.675196 128:-0.933488 129:0.0213579 130:-0.265306 131:0.269391 132:0.299454 133:0.379502 134:0.465665 135:0.383286 136:0.545748 137:0.378698 138:0.483289 139:0.302574 140:0.442452 141:0.351367 142:0.544346 143:0.33521 144:0.653571 145:-0.845699 146:-0.946085 147:-0.363516 148:-0.228932 149:-0.100974 150:-0.214597 151:-0.00356631 152:-0.0879237 153:0.0673573 154:0.0512951 155:0.0621583 156:0.0657828 157:-0.164319 158:-0.322278 159:0.0316755 160:-0.100324 161:0.0624386 162:0.215133 163:-0.789585 164:-0.938409 165:-0.268122 166:-0.47416 167:0.110657 168:0.317433 169:0.17271 170:0.373494 171:0.198294 172:0.437089 173:0.185904 174:0.432297 175:0.0889671 176:0.403593 177:0.172387 178:0.468156 179:0.164122 180:0.537383 181:-0.828602 182:-0.920474 183:0.0736459 184:-0.491757 185:0.409613 186:0.445509 187:0.485421 188:0.513299 189:0.525902 190:0.579356 191:0.520846 192:0.590428 193:0.380747 194:0.413242 195:0.519985 196:0.611111 197:0.437739 198:0.607327 199:-0.791619 200:-0.913212 201:0.00281762 202:-0.197359 203:0.388256 204:0.511208 205:0.452987 206:0.59491 207:0.454062 208:0.67627 209:0.452876 210:0.672251 211:0.379284 212:0.601133 213:0.401781 214:0.620619 215:0.444628 216:0.782609 
-1024 1:-0.56824 2:-0.857076 3:0.327529 4:-0.310085 5:0.550157 6:0.253229 7:0.655414 8:0.25654 9:0.654876 10:0.346921 11:0.649665 12:0.396455 13:0.550158 14:0.383929 15:0.568879 16:0.640474 17:0.593065 18:0.713124 19:-0.605387 20:-0.873977 21:0.355814 22:-0.456937 23:0.521849 24:0.366548 25:0.59422 26:0.572406 27:0.629285 28:0.559129 29:0.635698 30:0.606968 31:0.524072 32:0.552276 33:0.440757 34:0.594096 35:0.56384 36:0.667485 37:-0.561478 38:-0.848194 39:0.548225 40:-0.406611 41:0.711274 42:0.618159 43:0.786628 44:0.70331 45:0.797457 46:0.70798 47:0.799845 48:0.754508 49:0.706088 50:0.645821 51:0.591134 52:0.795786 53:0.754259 54:0.840536 55:-0.593023 56:-0.86966 57:0.417366 58:-0.3464 59:0.629291 60:0.555424 61:0.707624 62:0.685797 63:0.748125 64:0.715389 65:0.756006 66:0.724176 67:0.635155 68:0.715324 69:0.520879 70:0.788786 71:0.71673 72:0.885965 73:-0.75339 74:-0.901055 75:0.0944495 76:-0.252825 77:0.510087 78:0.0549809 79:0.481145 80:0.100858 81:0.524119 82:0.225806 83:0.519913 84:0.213915 85:0.465392 86:0.130774 87:0.492601 88:0.289689 89:0.541168 90:0.486047 91:-0.852733 92:-0.942317 93:-0.0731287 94:-0.441205 95:0.381383 96:0.5342 97:0.351913 98:0.553419 99:0.360424 100:0.552254 101:0.371694 102:0.541688 103:0.356839 104:0.556224 105:0.351564 106:0.617391 107:0.371958 108:0.590522 109:-0.787213 110:-0.783026 111:0.297501 112:-0.566469 113:0.720574 114:0.849398 115:0.720424 116:0.808266 117:0.752221 118:0.843091 119:0.740819 120:0.842446 121:0.698594 122:0.810335 123:0.745907 124:0.879408 125:0.738538 126:0.872066 127:-0.841778 128:-0.800355 129:0.102075 130:-0.291236 131:0.556387 132:0.786885 133:0.559488 134:0.741416 135:0.609987 136:0.82239 137:0.587881 138:0.750663 139:0.53763 140:0.847311 141:0.579022 142:0.82816 143:0.597053 144:0.896429 145:-0.781386 146:-0.881511 147:0.119301 148:-0.125896 149:0.430455 150:0.1122 151:0.486559 152:0.246822 153:0.523894 154:0.346877 155:0.521181 156:0.344212 157:0.400107 158:0.181868 159:0.533939 160:0.399137 161:0.489104 162:0.514399 163:-0.799045 164:-0.924357 165:0.128196 166:-0.354984 167:0.396768 168:0.393526 169:0.489831 170:0.512834 171:0.507775 172:0.544214 173:0.502881 174:0.563691 175:0.377348 176:0.501796 177:0.486824 178:0.650279 179:0.445377 180:0.584112 181:-0.795408 182:-0.561388 183:0.432411 184:-0.49549 185:0.634943 186:0.647904 187:0.721714 188:0.72043 189:0.74824 190:0.736959 191:0.752157 192:0.732888 193:0.61363 194:0.671233 195:0.741503 196:0.847778 197:0.679862 198:0.785919 199:-0.814199 200:-0.522738 201:0.32897 202:-0.229228 203:0.582867 204:0.592127 205:0.671089 206:0.703075 207:0.694916 208:0.744369 209:0.684413 210:0.73822 211:0.554874 212:0.701983 213:0.662663 214:0.689691 215:0.664018 216:0.840961 
1024 1:-0.179654 2:-0.44356 3:0.660527 4:0.151744 5:0.718832 6:0.451993 7:0.85405 8:0.472235 9:0.870917 10:0.493132 11:0.866834 12:0.530784 13:0.706904 14:0.589286 15:0.793886 16:0.847147 17:0.778614 18:0.790941 19:-0.21982 20:-0.518439 21:0.698246 22:-0.0906475 23:0.698949 24:0.423488 25:0.806926 26:0.664766 27:0.868347 28:0.628631 29:0.866297 30:0.687534 31:0.685512 32:0.611316 33:0.675185 34:0.72272 35:0.763653 36:0.693252 37:-0.181044 38:-0.408502 39:0.823142 40:-0.175451 41:0.794487 42:0.558458 43:0.890855 44:0.6974 45:0.904197 46:0.67176 47:0.910211 48:0.705643 49:0.788335 50:0.620105 51:0.698072 52:0.811994 53:0.84488 54:0.786975 55:-0.2895 56:-0.44492 57:0.77529 58:-0.0635648 59:0.758825 60:0.541197 61:0.87035 62:0.702029 63:0.898415 64:0.69112 65:0.912915 66:0.71971 67:0.778431 68:0.73834 69:0.67133 70:0.808383 71:0.825919 72:0.860902 73:-0.615724 74:-0.788944 75:0.39475 76:0.216102 77:0.742051 78:0.598258 79:0.717566 80:0.669528 81:0.753146 82:0.725286 83:0.747674 84:0.705088 85:0.702202 86:0.687257 87:0.740724 88:0.775232 89:0.750167 90:0.853488 91:-0.738553 92:-0.871673 93:0.262763 94:0.0167049 95:0.62039 96:0.637083 97:0.615117 98:0.758547 99:0.643222 100:0.760246 101:0.657714 102:0.710486 103:0.573616 104:0.702946 105:0.649419 106:0.843478 107:0.611105 108:0.786148 109:-0.663167 110:-0.509342 111:0.593309 112:-0.426546 113:0.796791 114:0.813253 115:0.828622 116:0.833525 117:0.855701 118:0.827869 119:0.856027 120:0.82716 121:0.77579 122:0.847814 123:0.85581 124:0.904437 125:0.836921 126:0.894366 127:-0.755882 128:-0.556814 129:0.456434 130:-0.0261705 131:0.714251 132:0.663388 133:0.758869 134:0.743562 135:0.790332 136:0.778256 137:0.784575 138:0.722016 139:0.69864 140:0.79063 141:0.793037 142:0.832594 143:0.756536 144:0.87619 145:-0.621633 146:-0.753746 147:0.34799 148:0.233709 149:0.601271 150:0.478214 151:0.68742 152:0.664195 153:0.735749 154:0.707466 155:0.732152 156:0.697093 157:0.561385 158:0.567717 159:0.769073 160:0.77562 161:0.665439 162:0.779785 163:-0.600109 164:-0.825873 165:0.419522 166:0.0048009 167:0.570753 168:0.421919 169:0.699364 170:0.656365 171:0.737495 172:0.679636 173:0.732762 174:0.658977 175:0.530765 176:0.547305 177:0.716329 178:0.808939 179:0.635002 180:0.641355 181:-0.646229 182:-0.25026 183:0.657238 184:-0.367963 185:0.711306 186:0.615569 187:0.826528 188:0.75099 189:0.848371 190:0.73141 191:0.848818 192:0.727323 193:0.696366 194:0.663242 195:0.843046 196:0.893333 197:0.768964 198:0.772181 199:-0.675832 200:-0.191264 201:0.61343 202:0.0289096 203:0.671316 204:0.545107 205:0.815639 206:0.692471 207:0.817649 208:0.725511 209:0.820519 210:0.72356 211:0.658314 212:0.672521 213:0.825273 214:0.730928 215:0.750506 216:0.816934 
931.4362718915753 1:-0.588136 2:-0.846491 3:0.15915 4:-0.261074 5:0.374446 6:0.0421112 7:0.545435 8:0.100505 9:0.525491 10:0.194506 11:0.522538 12:0.306903 13:0.395154 14:0.228795 15:0.447366 16:0.525296 17:0.459513 18:0.602787 19:-0.534261 20:-0.850437 21:0.163077 22:-0.516958 23:0.283109 24:0.310795 25:0.4033 26:0.533637 27:0.425206 28:0.561203 29:0.405447 30:0.634186 31:0.311063 32:0.476015 33:0.221331 34:0.551924 35:0.374898 36:0.586503 37:-0.519121 38:-0.831999 39:0.39933 40:-0.439436 41:0.600962 42:0.517413 43:0.686802 44:0.617021 45:0.722597 46:0.692134 47:0.696589 48:0.709133 49:0.584873 50:0.608416 51:0.513386 52:0.757969 53:0.675694 54:0.780889 55:-0.474669 56:-0.841628 57:0.231813 58:-0.335776 59:0.415755 60:0.434499 61:0.535043 62:0.568696 63:0.568435 64:0.654716 65:0.515215 66:0.647125 67:0.454603 68:0.603876 69:0.342162 70:0.704954 71:0.501572 72:0.77193 73:-0.882428 74:-0.964844 75:-0.22243 76:0.220339 77:0.348274 78:-0.0168753 79:0.35689 80:0.0944206 81:0.370258 82:0.233091 83:0.368508 84:0.247144 85:0.332406 86:0.135225 87:0.361961 88:0.337698 89:0.389391 90:0.551163 91:-0.911527 92:-0.971494 93:-0.397813 94:-0.185064 95:0.166338 96:0.730921 97:0.164563 98:0.779915 99:0.177049 100:0.822746 101:0.169701 102:0.795396 103:0.149539 104:0.718581 105:0.180775 106:0.822609 107:0.167323 108:0.770352 109:-0.897317 110:-0.643547 111:0.130467 112:-0.495986 113:0.648116 114:0.868675 115:0.676961 116:0.867968 117:0.697665 118:0.921546 119:0.678448 120:0.90241 121:0.641703 122:0.884157 123:0.675746 124:0.94653 125:0.694041 126:0.954225 127:-0.924154 128:-0.733228 129:-0.0951496 130:-0.139496 131:0.432226 132:0.756284 133:0.450894 134:0.809013 135:0.504192 136:0.847147 137:0.463339 138:0.802653 139:0.425944 140:0.849624 141:0.467886 142:0.850333 143:0.465144 144:0.920238 145:-0.859431 146:-0.931969 147:-0.145638 148:0.220744 149:0.270473 150:-1.11022e-16 151:0.353696 152:0.143008 153:0.376026 154:0.258507 155:0.376538 156:0.281999 157:0.254152 158:0.152018 159:0.395181 160:0.37972 161:0.341544 162:0.536985 163:-0.840503 164:-0.939742 165:-0.139491 166:-0.331827 167:0.175451 168:0.462805 169:0.265939 170:0.543216 171:0.289941 172:0.622031 173:0.263467 174:0.593781 175:0.162343 176:0.592814 177:0.264616 178:0.67486 179:0.236226 180:0.640187 181:-0.846368 182:-0.72536 183:0.246815 184:-0.479938 185:0.555986 186:0.682635 187:0.638902 188:0.709111 189:0.688672 190:0.795782 191:0.666645 192:0.752922 193:0.525502 194:0.77968 195:0.670978 196:0.897778 197:0.616039 198:0.815684 199:-0.839575 200:-0.702762 201:0.116568 202:-0.180514 203:0.387453 204:0.551668 205:0.484251 206:0.625663 207:0.519668 208:0.705605 209:0.465546 210:0.703665 211:0.370793 212:0.662323 213:0.452382 214:0.690722 215:0.477614 216:0.779176 
1024 1:0.00257113 2:-0.709772 3:0.535033 4:0.118285 5:0.583743 6:0.304885 7:0.763149 8:0.307022 9:0.744578 10:0.33097 11:0.743651 12:0.432836 13:0.605667 14:0.477679 15:0.659471 16:0.758881 17:0.682991 18:0.722416 19:0.0402658 20:-0.712746 21:0.531861 22:-0.0499486 23:0.526705 24:0.297746 25:0.692459 26:0.59293 27:0.724075 28:0.552905 29:0.710315 30:0.647251 31:0.550479 32:0.574416 33:0.510375 34:0.684765 35:0.664706 36:0.655215 37:0.103707 38:-0.701115 39:0.734164 40:-0.223763 41:0.693009 42:0.470149 43:0.826956 44:0.640662 45:0.854324 46:0.649123 47:0.833319 48:0.669575 49:0.687754 50:0.611923 51:0.644301 52:0.779579 53:0.785517 54:0.748022 55:0.0748842 56:-0.734406 57:0.661372 58:0.0525737 59:0.628518 60:0.388263 61:0.783129 62:0.603478 63:0.805838 64:0.577496 65:0.7644 66:0.585706 67:0.679367 68:0.646275 69:0.549252 70:0.796407 71:0.752725 72:0.769424 73:-0.699097 74:-0.887693 75:-0.0379399 76:-0.236582 77:0.157398 78:-0.258574 79:0.218348 80:-0.17382 81:0.238692 82:-0.0967742 83:0.237047 84:-0.0695742 85:0.138507 86:-0.184196 87:0.224405 88:-0.0278232 89:0.230173 90:0.139535 91:-0.730577 92:-0.890093 93:-0.0925551 94:-0.527023 95:0.178118 96:0.271905 97:0.21234 98:0.305556 99:0.222349 100:0.342213 101:0.214685 102:0.345269 103:0.164327 104:0.351774 105:0.22248 106:0.449275 107:0.192594 108:0.436209 109:-0.701484 110:-0.878365 111:0.214645 112:-0.572307 113:0.560361 114:0.559036 115:0.604607 116:0.585534 117:0.627136 118:0.686183 119:0.615271 120:0.681364 121:0.551163 122:0.547984 123:0.635902 124:0.754266 125:0.586981 126:0.754695 127:-0.761076 128:-0.878905 129:0.0812001 130:-0.339256 131:0.377279 132:0.559563 133:0.459935 134:0.624464 135:0.473456 136:0.70183 137:0.46073 138:0.664721 139:0.399029 140:0.711972 141:0.466076 142:0.758315 143:0.414846 144:0.803571 145:-0.577878 146:-0.703304 147:0.230532 148:-0.0153531 149:0.382325 150:0.122004 151:0.525077 152:0.424788 153:0.531327 154:0.47486 155:0.523722 156:0.524732 157:0.387362 158:0.296849 159:0.547349 160:0.609493 161:0.477662 162:0.665726 163:-0.588786 164:-0.737487 165:0.30792 166:-0.291161 167:0.387463 168:0.341283 169:0.539446 170:0.518072 171:0.552985 172:0.559373 173:0.5318 174:0.557673 175:0.38199 176:0.507784 177:0.507547 178:0.689385 179:0.494141 180:0.617991 181:-0.552077 182:-0.698202 183:0.50744 184:-0.477035 185:0.605065 186:0.566467 187:0.71809 188:0.669496 189:0.762981 190:0.721421 191:0.737018 192:0.705064 193:0.581606 194:0.64726 195:0.720399 196:0.85 197:0.705096 198:0.780195 199:-0.57174 200:-0.646667 201:0.406799 202:-0.0776235 203:0.505432 204:0.444505 205:0.661492 206:0.604454 207:0.673111 208:0.635411 209:0.629317 210:0.641885 211:0.507286 212:0.62153 213:0.623484 214:0.694845 215:0.628198 216:0.758581 
-403.3924840949954 1:-0.238802 2:-0.184947 3:0.629758 4:0.202639 5:0.7043 6:0.438518 7:0.738547 8:0.239101 9:0.793584 10:0.367302 11:0.795652 12:0.39459 13:0.646037 14:0.53683 15:0.699173 16:0.786868 17:0.748083 18:0.788618 19:-0.287959 20:-0.0395089 21:0.777365 22:0.0376156 23:0.87168 24:0.577699 25:0.777873 26:0.526796 27:0.859239 28:0.542531 29:0.849631 30:0.600435 31:0.829008 32:0.702337 33:0.613826 34:0.703743 35:0.852979 36:0.749693 37:-0.217768 38:-0.116902 39:0.827629 40:-0.174295 41:0.866751 42:0.705224 43:0.834647 44:0.600473 45:0.874186 46:0.638936 47:0.864651 48:0.659104 49:0.83511 50:0.733489 51:0.640451 52:0.752566 53:0.851787 54:0.847839 55:-0.305004 56:-0.170418 57:0.79697 58:-0.0122733 59:0.857762 60:0.656194 61:0.812043 62:0.566377 63:0.854765 64:0.605074 65:0.869841 66:0.605807 67:0.850635 68:0.774682 69:0.588167 70:0.733261 71:0.869794 72:0.858396 73:-0.574092 74:-0.798991 75:0.320563 76:0.259887 77:0.664839 78:0.537289 79:0.640065 80:0.596567 81:0.679524 82:0.694069 83:0.67989 84:0.65109 85:0.619738 86:0.588203 87:0.678057 88:0.731588 89:0.672663 90:0.789535 91:-0.650513 92:-0.834915 93:0.328757 94:0.101867 95:0.656738 96:0.661956 97:0.612186 98:0.636752 99:0.654201 100:0.691598 101:0.656205 102:0.681841 103:0.601881 104:0.720986 105:0.641944 106:0.836522 107:0.632556 108:0.788578 109:-0.594932 110:-0.746655 111:0.592003 112:-0.397769 113:0.792809 114:0.786747 115:0.790176 116:0.746269 117:0.825283 118:0.771663 119:0.826946 120:0.784832 121:0.761746 122:0.804656 123:0.81046 124:0.885097 125:0.828993 126:0.901408 127:-0.68305 128:-0.796215 129:0.497427 130:0.0160864 131:0.718448 132:0.657923 133:0.716727 134:0.689914 135:0.782623 136:0.735199 137:0.768469 138:0.711406 139:0.674051 140:0.806825 141:0.776872 142:0.782705 143:0.746312 144:0.879762 145:-0.38214 146:-0.526222 147:0.516965 148:0.41044 149:0.655765 150:0.510893 151:0.702492 152:0.603814 153:0.763403 154:0.688167 155:0.744806 156:0.625701 157:0.609681 158:0.590934 159:0.759614 160:0.789644 161:0.722849 162:0.814794 163:-0.379251 164:-0.625874 165:0.649115 166:0.153911 167:0.778467 168:0.60477 169:0.761078 170:0.543216 171:0.82047 172:0.639212 173:0.819743 174:0.624875 175:0.711897 176:0.682635 177:0.761911 178:0.842458 179:0.774655 180:0.801402 181:-0.396434 182:-0.418092 183:0.762981 184:-0.332711 185:0.799368 186:0.71976 187:0.807934 188:0.65365 189:0.850518 190:0.693674 191:0.855172 192:0.681692 193:0.759102 194:0.753425 195:0.80877 196:0.855556 197:0.829241 198:0.834001 199:-0.444185 200:-0.388771 201:0.74149 202:0.124516 203:0.802154 204:0.587753 205:0.815148 206:0.611877 207:0.845717 208:0.67208 209:0.833934 210:0.648168 211:0.766256 212:0.708782 213:0.793427 214:0.721649 215:0.848998 216:0.811213 
-136.6990372150183 1:-0.442903 2:-0.378386 3:0.541074 4:0.106975 5:0.669712 6:0.435149 7:0.707338 8:0.248279 9:0.767037 10:0.364643 11:0.764899 12:0.430037 13:0.608898 14:0.485491 15:0.668644 16:0.722282 17:0.714368 18:0.774681 19:-0.45363 20:-0.409421 21:0.678704 22:-0.0195272 23:0.81974 24:0.581257 25:0.732173 26:0.530217 27:0.821405 28:0.570539 29:0.803694 30:0.616766 31:0.773467 32:0.685117 33:0.57189 34:0.667897 35:0.802653 36:0.732515 37:-0.425887 38:-0.236329 39:0.76436 40:-0.239713 41:0.849382 42:0.699005 43:0.812944 44:0.600473 45:0.855482 46:0.650255 47:0.846466 48:0.678883 49:0.814313 50:0.703098 51:0.622796 52:0.753647 53:0.829054 54:0.830797 55:-0.471236 56:-0.249871 57:0.731704 58:-0.0419491 59:0.818639 60:0.618257 61:0.776188 62:0.558261 63:0.815645 64:0.566464 65:0.816458 66:0.593523 67:0.820029 68:0.745609 69:0.540535 70:0.721285 71:0.828594 72:0.858396 73:-0.503975 74:-0.73708 75:0.405711 76:0.310028 77:0.716433 78:0.637452 79:0.697076 80:0.655579 81:0.739238 82:0.727367 83:0.736528 84:0.726895 85:0.669898 86:0.653868 87:0.737884 88:0.771959 89:0.723223 90:0.837209 91:-0.586864 92:-0.786643 93:0.442663 94:0.184409 95:0.721981 96:0.666478 97:0.676802 98:0.633547 99:0.719551 100:0.6875 101:0.723296 102:0.663427 103:0.664912 104:0.698136 105:0.704176 106:0.837681 107:0.694363 108:0.809235 109:-0.527227 110:-0.654141 111:0.651558 112:-0.393181 113:0.818294 114:0.785542 115:0.811429 116:0.738232 117:0.84627 118:0.76815 119:0.851763 120:0.78836 121:0.785304 122:0.803521 123:0.830329 124:0.881684 125:0.851165 126:0.893192 127:-0.628107 128:-0.7286 129:0.56684 130:0.044898 131:0.756094 132:0.651366 133:0.743715 134:0.653433 135:0.811226 136:0.722282 137:0.79613 138:0.697613 139:0.708537 140:0.77675 141:0.802631 142:0.825942 143:0.780012 144:0.869048 145:-0.270683 146:-0.406729 147:0.570359 148:0.409758 149:0.681702 150:0.503268 151:0.72291 152:0.572034 153:0.782026 154:0.595734 155:0.764716 156:0.618562 157:0.636456 158:0.568823 159:0.775785 160:0.719525 161:0.745666 162:0.765104 163:-0.261734 164:-0.516829 165:0.700953 166:0.145439 167:0.781112 168:0.592277 169:0.769879 170:0.540073 171:0.82319 172:0.605862 173:0.828151 174:0.612839 175:0.717667 176:0.671856 177:0.759601 178:0.822346 179:0.786339 180:0.779206 181:-0.283465 182:-0.378058 183:0.775422 184:-0.362571 185:0.801604 186:0.699401 187:0.801253 188:0.642332 189:0.848704 190:0.652608 191:0.856694 192:0.691708 193:0.755093 194:0.704338 195:0.811337 196:0.805556 197:0.823637 198:0.808815 199:-0.323117 200:-0.363205 201:0.744828 202:0.0758024 203:0.792405 204:0.56479 205:0.808306 206:0.569459 207:0.840559 208:0.639602 209:0.825956 210:0.651309 211:0.756324 212:0.689518 213:0.788901 214:0.690722 215:0.839235 216:0.819222 
